digraph Tree {
node [shape=box, style="filled, rounded", color="black", fontname=helvetica] ;
edge [fontname=helvetica] ;
0 [label="Size <= 78.5\ngini = 0.75\nsamples = 2851\nvalue = [1146, 1137, 1150, 1055]\nclass = Médio", fillcolor="#399de500"] ;
1 [label="Size <= 56.5\ngini = 0.69\nsamples = 1987\nvalue = [847, 1127, 130, 1024]\nclass = Alto", fillcolor="#47e5390c"] ;
0 -> 1 [labeldistance=2.5, labelangle=45, headlabel="True"] ;
2 [label="Swimming Pool <= 0.5\ngini = 0.56\nsamples = 1150\nvalue = [187, 1044, 12, 584]\nclass = Alto", fillcolor="#47e5395e"] ;
1 -> 2 ;
3 [label="Size <= 48.5\ngini = 0.43\nsamples = 679\nvalue = [42, 751, 0, 254]\nclass = Alto", fillcolor="#47e539a0"] ;
2 -> 3 ;
4 [label="Condo <= 432.5\ngini = 0.32\nsamples = 380\nvalue = [25, 470, 0, 83]\nclass = Alto", fillcolor="#47e539c7"] ;
3 -> 4 ;
5 [label="Size <= 35.5\ngini = 0.2\nsamples = 340\nvalue = [9, 457, 0, 49]\nclass = Alto", fillcolor="#47e539df"] ;
4 -> 5 ;
6 [label="Suites <= 0.5\ngini = 0.41\nsamples = 49\nvalue = [3, 55, 0, 17]\nclass = Alto", fillcolor="#47e539a7"] ;
5 -> 6 ;
7 [label="Rooms <= 1.5\ngini = 0.43\nsamples = 38\nvalue = [1, 40, 0, 16]\nclass = Alto", fillcolor="#47e53995"] ;
6 -> 7 ;
8 [label="Size <= 30.5\ngini = 0.47\nsamples = 29\nvalue = [1, 29, 0, 15]\nclass = Alto", fillcolor="#47e53977"] ;
7 -> 8 ;
9 [label="gini = 0.0\nsamples = 4\nvalue = [0, 5, 0, 0]\nclass = Alto", fillcolor="#47e539ff"] ;
8 -> 9 ;
10 [label="Condo <= 40.0\ngini = 0.5\nsamples = 25\nvalue = [1, 24, 0, 15]\nclass = Alto", fillcolor="#47e5395c"] ;
8 -> 10 ;
11 [label="Size <= 32.5\ngini = 0.38\nsamples = 8\nvalue = [1, 2, 0, 10]\nclass = Baixo", fillcolor="#d739e5b9"] ;
10 -> 11 ;
12 [label="gini = 0.0\nsamples = 2\nvalue = [0, 0, 0, 3]\nclass = Baixo", fillcolor="#d739e5ff"] ;
11 -> 12 ;
13 [label="Size <= 34.5\ngini = 0.46\nsamples = 6\nvalue = [1, 2, 0, 7]\nclass = Baixo", fillcolor="#d739e59f"] ;
11 -> 13 ;
14 [label="gini = 0.62\nsamples = 4\nvalue = [1, 1, 0, 2]\nclass = Baixo", fillcolor="#d739e555"] ;
13 -> 14 ;
15 [label="gini = 0.28\nsamples = 2\nvalue = [0, 1, 0, 5]\nclass = Baixo", fillcolor="#d739e5cc"] ;
13 -> 15 ;
16 [label="Size <= 32.5\ngini = 0.3\nsamples = 17\nvalue = [0, 22, 0, 5]\nclass = Alto", fillcolor="#47e539c5"] ;
10 -> 16 ;
17 [label="Condo <= 242.5\ngini = 0.49\nsamples = 6\nvalue = [0, 4, 0, 3]\nclass = Alto", fillcolor="#47e53940"] ;
16 -> 17 ;
18 [label="gini = 0.0\nsamples = 2\nvalue = [0, 2, 0, 0]\nclass = Alto", fillcolor="#47e539ff"] ;
17 -> 18 ;
19 [label="Condo <= 255.0\ngini = 0.48\nsamples = 4\nvalue = [0, 2, 0, 3]\nclass = Baixo", fillcolor="#d739e555"] ;
17 -> 19 ;
20 [label="gini = 0.0\nsamples = 1\nvalue = [0, 0, 0, 2]\nclass = Baixo", fillcolor="#d739e5ff"] ;
19 -> 20 ;
21 [label="Size <= 31.5\ngini = 0.44\nsamples = 3\nvalue = [0, 2, 0, 1]\nclass = Alto", fillcolor="#47e5397f"] ;
19 -> 21 ;
22 [label="gini = 0.0\nsamples = 2\nvalue = [0, 2, 0, 0]\nclass = Alto", fillcolor="#47e539ff"] ;
21 -> 22 ;
23 [label="gini = 0.0\nsamples = 1\nvalue = [0, 0, 0, 1]\nclass = Baixo", fillcolor="#d739e5ff"] ;
21 -> 23 ;
24 [label="Condo <= 276.0\ngini = 0.18\nsamples = 11\nvalue = [0, 18, 0, 2]\nclass = Alto", fillcolor="#47e539e3"] ;
16 -> 24 ;
25 [label="gini = 0.0\nsamples = 6\nvalue = [0, 10, 0, 0]\nclass = Alto", fillcolor="#47e539ff"] ;
24 -> 25 ;
26 [label="Condo <= 317.5\ngini = 0.32\nsamples = 5\nvalue = [0, 8, 0, 2]\nclass = Alto", fillcolor="#47e539bf"] ;
24 -> 26 ;
27 [label="gini = 0.0\nsamples = 2\nvalue = [0, 0, 0, 2]\nclass = Baixo", fillcolor="#d739e5ff"] ;
26 -> 27 ;
28 [label="gini = 0.0\nsamples = 3\nvalue = [0, 8, 0, 0]\nclass = Alto", fillcolor="#47e539ff"] ;
26 -> 28 ;
29 [label="Size <= 32.0\ngini = 0.15\nsamples = 9\nvalue = [0, 11, 0, 1]\nclass = Alto", fillcolor="#47e539e8"] ;
7 -> 29 ;
30 [label="Condo <= 75.0\ngini = 0.5\nsamples = 2\nvalue = [0, 1, 0, 1]\nclass = Alto", fillcolor="#47e53900"] ;
29 -> 30 ;
31 [label="gini = 0.0\nsamples = 1\nvalue = [0, 1, 0, 0]\nclass = Alto", fillcolor="#47e539ff"] ;
30 -> 31 ;
32 [label="gini = 0.0\nsamples = 1\nvalue = [0, 0, 0, 1]\nclass = Baixo", fillcolor="#d739e5ff"] ;
30 -> 32 ;
33 [label="gini = 0.0\nsamples = 7\nvalue = [0, 10, 0, 0]\nclass = Alto", fillcolor="#47e539ff"] ;
29 -> 33 ;
34 [label="Size <= 33.5\ngini = 0.29\nsamples = 11\nvalue = [2, 15, 0, 1]\nclass = Alto", fillcolor="#47e539cf"] ;
6 -> 34 ;
35 [label="Rooms <= 1.5\ngini = 0.3\nsamples = 6\nvalue = [2, 9, 0, 0]\nclass = Alto", fillcolor="#47e539c6"] ;
34 -> 35 ;
36 [label="Condo <= 280.0\ngini = 0.38\nsamples = 5\nvalue = [2, 6, 0, 0]\nclass = Alto", fillcolor="#47e539aa"] ;
35 -> 36 ;
37 [label="Size <= 32.5\ngini = 0.24\nsamples = 4\nvalue = [1, 6, 0, 0]\nclass = Alto", fillcolor="#47e539d4"] ;
36 -> 37 ;
38 [label="gini = 0.0\nsamples = 3\nvalue = [0, 6, 0, 0]\nclass = Alto", fillcolor="#47e539ff"] ;
37 -> 38 ;
39 [label="gini = 0.0\nsamples = 1\nvalue = [1, 0, 0, 0]\nclass = Muito Alto", fillcolor="#e58139ff"] ;
37 -> 39 ;
40 [label="gini = 0.0\nsamples = 1\nvalue = [1, 0, 0, 0]\nclass = Muito Alto", fillcolor="#e58139ff"] ;
36 -> 40 ;
41 [label="gini = 0.0\nsamples = 1\nvalue = [0, 3, 0, 0]\nclass = Alto", fillcolor="#47e539ff"] ;
35 -> 41 ;
42 [label="Condo <= 264.5\ngini = 0.24\nsamples = 5\nvalue = [0, 6, 0, 1]\nclass = Alto", fillcolor="#47e539d4"] ;
34 -> 42 ;
43 [label="gini = 0.0\nsamples = 4\nvalue = [0, 6, 0, 0]\nclass = Alto", fillcolor="#47e539ff"] ;
42 -> 43 ;
44 [label="gini = 0.0\nsamples = 1\nvalue = [0, 0, 0, 1]\nclass = Baixo", fillcolor="#d739e5ff"] ;
42 -> 44 ;
45 [label="Condo <= 272.5\ngini = 0.16\nsamples = 291\nvalue = [6, 402, 0, 32]\nclass = Alto", fillcolor="#47e539e7"] ;
5 -> 45 ;
46 [label="Size <= 42.5\ngini = 0.09\nsamples = 220\nvalue = [5, 317, 0, 10]\nclass = Alto", fillcolor="#47e539f3"] ;
45 -> 46 ;
47 [label="gini = 0.0\nsamples = 87\nvalue = [0, 130, 0, 0]\nclass = Alto", fillcolor="#47e539ff"] ;
46 -> 47 ;
48 [label="Suites <= 0.5\ngini = 0.14\nsamples = 133\nvalue = [5, 187, 0, 10]\nclass = Alto", fillcolor="#47e539eb"] ;
46 -> 48 ;
49 [label="Condo <= 30.0\ngini = 0.21\nsamples = 55\nvalue = [3, 70, 0, 6]\nclass = Alto", fillcolor="#47e539e0"] ;
48 -> 49 ;
50 [label="Size <= 47.5\ngini = 0.46\nsamples = 21\nvalue = [3, 21, 0, 6]\nclass = Alto", fillcolor="#47e5399f"] ;
49 -> 50 ;
51 [label="Rooms <= 1.5\ngini = 0.38\nsamples = 17\nvalue = [0, 18, 0, 6]\nclass = Alto", fillcolor="#47e539aa"] ;
50 -> 51 ;
52 [label="gini = 0.0\nsamples = 1\nvalue = [0, 2, 0, 0]\nclass = Alto", fillcolor="#47e539ff"] ;
51 -> 52 ;
53 [label="Size <= 46.0\ngini = 0.4\nsamples = 16\nvalue = [0, 16, 0, 6]\nclass = Alto", fillcolor="#47e5399f"] ;
51 -> 53 ;
54 [label="Size <= 43.5\ngini = 0.43\nsamples = 14\nvalue = [0, 13, 0, 6]\nclass = Alto", fillcolor="#47e53989"] ;
53 -> 54 ;
55 [label="gini = 0.5\nsamples = 2\nvalue = [0, 1, 0, 1]\nclass = Alto", fillcolor="#47e53900"] ;
54 -> 55 ;
56 [label="Size <= 44.5\ngini = 0.42\nsamples = 12\nvalue = [0, 12, 0, 5]\nclass = Alto", fillcolor="#47e53995"] ;
54 -> 56 ;
57 [label="gini = 0.32\nsamples = 4\nvalue = [0, 4, 0, 1]\nclass = Alto", fillcolor="#47e539bf"] ;
56 -> 57 ;
58 [label="gini = 0.44\nsamples = 8\nvalue = [0, 8, 0, 4]\nclass = Alto", fillcolor="#47e5397f"] ;
56 -> 58 ;
59 [label="gini = 0.0\nsamples = 2\nvalue = [0, 3, 0, 0]\nclass = Alto", fillcolor="#47e539ff"] ;
53 -> 59 ;
60 [label="gini = 0.5\nsamples = 4\nvalue = [3, 3, 0, 0]\nclass = Muito Alto", fillcolor="#e5813900"] ;
50 -> 60 ;
61 [label="gini = 0.0\nsamples = 34\nvalue = [0, 49, 0, 0]\nclass = Alto", fillcolor="#47e539ff"] ;
49 -> 61 ;
62 [label="Rooms <= 1.5\ngini = 0.09\nsamples = 78\nvalue = [2, 117, 0, 4]\nclass = Alto", fillcolor="#47e539f2"] ;
48 -> 62 ;
63 [label="Condo <= 85.5\ngini = 0.61\nsamples = 4\nvalue = [2, 3, 0, 1]\nclass = Alto", fillcolor="#47e53940"] ;
62 -> 63 ;
64 [label="Size <= 44.0\ngini = 0.44\nsamples = 2\nvalue = [2, 0, 0, 1]\nclass = Muito Alto", fillcolor="#e581397f"] ;
63 -> 64 ;
65 [label="gini = 0.0\nsamples = 1\nvalue = [0, 0, 0, 1]\nclass = Baixo", fillcolor="#d739e5ff"] ;
64 -> 65 ;
66 [label="gini = 0.0\nsamples = 1\nvalue = [2, 0, 0, 0]\nclass = Muito Alto", fillcolor="#e58139ff"] ;
64 -> 66 ;
67 [label="gini = 0.0\nsamples = 2\nvalue = [0, 3, 0, 0]\nclass = Alto", fillcolor="#47e539ff"] ;
63 -> 67 ;
68 [label="Condo <= 30.0\ngini = 0.05\nsamples = 74\nvalue = [0, 114, 0, 3]\nclass = Alto", fillcolor="#47e539f8"] ;
62 -> 68 ;
69 [label="Size <= 44.5\ngini = 0.1\nsamples = 25\nvalue = [0, 34, 0, 2]\nclass = Alto", fillcolor="#47e539f0"] ;
68 -> 69 ;
70 [label="Size <= 43.5\ngini = 0.21\nsamples = 12\nvalue = [0, 15, 0, 2]\nclass = Alto", fillcolor="#47e539dd"] ;
69 -> 70 ;
71 [label="gini = 0.0\nsamples = 6\nvalue = [0, 7, 0, 0]\nclass = Alto", fillcolor="#47e539ff"] ;
70 -> 71 ;
72 [label="gini = 0.32\nsamples = 6\nvalue = [0, 8, 0, 2]\nclass = Alto", fillcolor="#47e539bf"] ;
70 -> 72 ;
73 [label="gini = 0.0\nsamples = 13\nvalue = [0, 19, 0, 0]\nclass = Alto", fillcolor="#47e539ff"] ;
69 -> 73 ;
74 [label="Rooms <= 2.5\ngini = 0.02\nsamples = 49\nvalue = [0, 80, 0, 1]\nclass = Alto", fillcolor="#47e539fc"] ;
68 -> 74 ;
75 [label="Condo <= 210.0\ngini = 0.03\nsamples = 48\nvalue = [0, 77, 0, 1]\nclass = Alto", fillcolor="#47e539fc"] ;
74 -> 75 ;
76 [label="gini = 0.0\nsamples = 31\nvalue = [0, 48, 0, 0]\nclass = Alto", fillcolor="#47e539ff"] ;
75 -> 76 ;
77 [label="Condo <= 222.5\ngini = 0.06\nsamples = 17\nvalue = [0, 29, 0, 1]\nclass = Alto", fillcolor="#47e539f6"] ;
75 -> 77 ;
78 [label="Size <= 44.5\ngini = 0.38\nsamples = 2\nvalue = [0, 3, 0, 1]\nclass = Alto", fillcolor="#47e539aa"] ;
77 -> 78 ;
79 [label="gini = 0.0\nsamples = 1\nvalue = [0, 3, 0, 0]\nclass = Alto", fillcolor="#47e539ff"] ;
78 -> 79 ;
80 [label="gini = 0.0\nsamples = 1\nvalue = [0, 0, 0, 1]\nclass = Baixo", fillcolor="#d739e5ff"] ;
78 -> 80 ;
81 [label="gini = 0.0\nsamples = 15\nvalue = [0, 26, 0, 0]\nclass = Alto", fillcolor="#47e539ff"] ;
77 -> 81 ;
82 [label="gini = 0.0\nsamples = 1\nvalue = [0, 3, 0, 0]\nclass = Alto", fillcolor="#47e539ff"] ;
74 -> 82 ;
83 [label="Size <= 37.5\ngini = 0.34\nsamples = 71\nvalue = [1, 85, 0, 22]\nclass = Alto", fillcolor="#47e539bb"] ;
45 -> 83 ;
84 [label="gini = 0.0\nsamples = 1\nvalue = [0, 0, 0, 1]\nclass = Baixo", fillcolor="#d739e5ff"] ;
83 -> 84 ;
85 [label="Size <= 45.5\ngini = 0.33\nsamples = 70\nvalue = [1, 85, 0, 21]\nclass = Alto", fillcolor="#47e539be"] ;
83 -> 85 ;
86 [label="Condo <= 292.5\ngini = 0.26\nsamples = 36\nvalue = [0, 50, 0, 9]\nclass = Alto", fillcolor="#47e539d1"] ;
85 -> 86 ;
87 [label="Toilets <= 1.5\ngini = 0.49\nsamples = 5\nvalue = [0, 5, 0, 4]\nclass = Alto", fillcolor="#47e53933"] ;
86 -> 87 ;
88 [label="gini = 0.5\nsamples = 2\nvalue = [0, 1, 0, 1]\nclass = Alto", fillcolor="#47e53900"] ;
87 -> 88 ;
89 [label="Size <= 41.0\ngini = 0.49\nsamples = 3\nvalue = [0, 4, 0, 3]\nclass = Alto", fillcolor="#47e53940"] ;
87 -> 89 ;
90 [label="gini = 0.0\nsamples = 1\nvalue = [0, 0, 0, 3]\nclass = Baixo", fillcolor="#d739e5ff"] ;
89 -> 90 ;
91 [label="gini = 0.0\nsamples = 2\nvalue = [0, 4, 0, 0]\nclass = Alto", fillcolor="#47e539ff"] ;
89 -> 91 ;
92 [label="Suites <= 0.5\ngini = 0.18\nsamples = 31\nvalue = [0, 45, 0, 5]\nclass = Alto", fillcolor="#47e539e3"] ;
86 -> 92 ;
93 [label="Condo <= 351.5\ngini = 0.15\nsamples = 21\nvalue = [0, 33, 0, 3]\nclass = Alto", fillcolor="#47e539e8"] ;
92 -> 93 ;
94 [label="Condo <= 347.5\ngini = 0.24\nsamples = 14\nvalue = [0, 19, 0, 3]\nclass = Alto", fillcolor="#47e539d7"] ;
93 -> 94 ;
95 [label="Rooms <= 1.5\ngini = 0.14\nsamples = 8\nvalue = [0, 12, 0, 1]\nclass = Alto", fillcolor="#47e539ea"] ;
94 -> 95 ;
96 [label="gini = 0.0\nsamples = 2\nvalue = [0, 5, 0, 0]\nclass = Alto", fillcolor="#47e539ff"] ;
95 -> 96 ;
97 [label="Condo <= 297.5\ngini = 0.22\nsamples = 6\nvalue = [0, 7, 0, 1]\nclass = Alto", fillcolor="#47e539db"] ;
95 -> 97 ;
98 [label="gini = 0.0\nsamples = 1\nvalue = [0, 1, 0, 0]\nclass = Alto", fillcolor="#47e539ff"] ;
97 -> 98 ;
99 [label="Condo <= 310.0\ngini = 0.24\nsamples = 5\nvalue = [0, 6, 0, 1]\nclass = Alto", fillcolor="#47e539d4"] ;
97 -> 99 ;
100 [label="Size <= 43.5\ngini = 0.28\nsamples = 4\nvalue = [0, 5, 0, 1]\nclass = Alto", fillcolor="#47e539cc"] ;
99 -> 100 ;
101 [label="gini = 0.0\nsamples = 1\nvalue = [0, 3, 0, 0]\nclass = Alto", fillcolor="#47e539ff"] ;
100 -> 101 ;
102 [label="Size <= 44.5\ngini = 0.44\nsamples = 3\nvalue = [0, 2, 0, 1]\nclass = Alto", fillcolor="#47e5397f"] ;
100 -> 102 ;
103 [label="gini = 0.5\nsamples = 2\nvalue = [0, 1, 0, 1]\nclass = Alto", fillcolor="#47e53900"] ;
102 -> 103 ;
104 [label="gini = 0.0\nsamples = 1\nvalue = [0, 1, 0, 0]\nclass = Alto", fillcolor="#47e539ff"] ;
102 -> 104 ;
105 [label="gini = 0.0\nsamples = 1\nvalue = [0, 1, 0, 0]\nclass = Alto", fillcolor="#47e539ff"] ;
99 -> 105 ;
106 [label="Rooms <= 1.5\ngini = 0.35\nsamples = 6\nvalue = [0, 7, 0, 2]\nclass = Alto", fillcolor="#47e539b6"] ;
94 -> 106 ;
107 [label="gini = 0.0\nsamples = 2\nvalue = [0, 3, 0, 0]\nclass = Alto", fillcolor="#47e539ff"] ;
106 -> 107 ;
108 [label="Size <= 41.5\ngini = 0.44\nsamples = 4\nvalue = [0, 4, 0, 2]\nclass = Alto", fillcolor="#47e5397f"] ;
106 -> 108 ;
109 [label="gini = 0.0\nsamples = 1\nvalue = [0, 1, 0, 0]\nclass = Alto", fillcolor="#47e539ff"] ;
108 -> 109 ;
110 [label="Size <= 44.0\ngini = 0.48\nsamples = 3\nvalue = [0, 3, 0, 2]\nclass = Alto", fillcolor="#47e53955"] ;
108 -> 110 ;
111 [label="gini = 0.0\nsamples = 1\nvalue = [0, 0, 0, 1]\nclass = Baixo", fillcolor="#d739e5ff"] ;
110 -> 111 ;
112 [label="gini = 0.38\nsamples = 2\nvalue = [0, 3, 0, 1]\nclass = Alto", fillcolor="#47e539aa"] ;
110 -> 112 ;
113 [label="gini = 0.0\nsamples = 7\nvalue = [0, 14, 0, 0]\nclass = Alto", fillcolor="#47e539ff"] ;
93 -> 113 ;
114 [label="Condo <= 391.5\ngini = 0.24\nsamples = 10\nvalue = [0, 12, 0, 2]\nclass = Alto", fillcolor="#47e539d4"] ;
92 -> 114 ;
115 [label="Rooms <= 1.5\ngini = 0.35\nsamples = 7\nvalue = [0, 7, 0, 2]\nclass = Alto", fillcolor="#47e539b6"] ;
114 -> 115 ;
116 [label="Condo <= 325.0\ngini = 0.5\nsamples = 2\nvalue = [0, 1, 0, 1]\nclass = Alto", fillcolor="#47e53900"] ;
115 -> 116 ;
117 [label="gini = 0.0\nsamples = 1\nvalue = [0, 1, 0, 0]\nclass = Alto", fillcolor="#47e539ff"] ;
116 -> 117 ;
118 [label="gini = 0.0\nsamples = 1\nvalue = [0, 0, 0, 1]\nclass = Baixo", fillcolor="#d739e5ff"] ;
116 -> 118 ;
119 [label="Condo <= 380.0\ngini = 0.24\nsamples = 5\nvalue = [0, 6, 0, 1]\nclass = Alto", fillcolor="#47e539d4"] ;
115 -> 119 ;
120 [label="gini = 0.0\nsamples = 4\nvalue = [0, 6, 0, 0]\nclass = Alto", fillcolor="#47e539ff"] ;
119 -> 120 ;
121 [label="gini = 0.0\nsamples = 1\nvalue = [0, 0, 0, 1]\nclass = Baixo", fillcolor="#d739e5ff"] ;
119 -> 121 ;
122 [label="gini = 0.0\nsamples = 3\nvalue = [0, 5, 0, 0]\nclass = Alto", fillcolor="#47e539ff"] ;
114 -> 122 ;
123 [label="Rooms <= 1.5\ngini = 0.41\nsamples = 34\nvalue = [1, 35, 0, 12]\nclass = Alto", fillcolor="#47e539a3"] ;
85 -> 123 ;
124 [label="Suites <= 0.5\ngini = 0.62\nsamples = 4\nvalue = [1, 1, 0, 2]\nclass = Baixo", fillcolor="#d739e555"] ;
123 -> 124 ;
125 [label="Condo <= 329.5\ngini = 0.5\nsamples = 2\nvalue = [0, 1, 0, 1]\nclass = Alto", fillcolor="#47e53900"] ;
124 -> 125 ;
126 [label="gini = 0.0\nsamples = 1\nvalue = [0, 1, 0, 0]\nclass = Alto", fillcolor="#47e539ff"] ;
125 -> 126 ;
127 [label="gini = 0.0\nsamples = 1\nvalue = [0, 0, 0, 1]\nclass = Baixo", fillcolor="#d739e5ff"] ;
125 -> 127 ;
128 [label="Size <= 47.5\ngini = 0.5\nsamples = 2\nvalue = [1, 0, 0, 1]\nclass = Muito Alto", fillcolor="#e5813900"] ;
124 -> 128 ;
129 [label="gini = 0.0\nsamples = 1\nvalue = [0, 0, 0, 1]\nclass = Baixo", fillcolor="#d739e5ff"] ;
128 -> 129 ;
130 [label="gini = 0.0\nsamples = 1\nvalue = [1, 0, 0, 0]\nclass = Muito Alto", fillcolor="#e58139ff"] ;
128 -> 130 ;
131 [label="Condo <= 377.5\ngini = 0.35\nsamples = 30\nvalue = [0, 34, 0, 10]\nclass = Alto", fillcolor="#47e539b4"] ;
123 -> 131 ;
132 [label="Suites <= 0.5\ngini = 0.26\nsamples = 23\nvalue = [0, 28, 0, 5]\nclass = Alto", fillcolor="#47e539d1"] ;
131 -> 132 ;
133 [label="Condo <= 285.0\ngini = 0.32\nsamples = 14\nvalue = [0, 16, 0, 4]\nclass = Alto", fillcolor="#47e539bf"] ;
132 -> 133 ;
134 [label="gini = 0.0\nsamples = 1\nvalue = [0, 1, 0, 0]\nclass = Alto", fillcolor="#47e539ff"] ;
133 -> 134 ;
135 [label="Size <= 46.5\ngini = 0.33\nsamples = 13\nvalue = [0, 15, 0, 4]\nclass = Alto", fillcolor="#47e539bb"] ;
133 -> 135 ;
136 [label="gini = 0.0\nsamples = 1\nvalue = [0, 1, 0, 0]\nclass = Alto", fillcolor="#47e539ff"] ;
135 -> 136 ;
137 [label="Size <= 47.5\ngini = 0.35\nsamples = 12\nvalue = [0, 14, 0, 4]\nclass = Alto", fillcolor="#47e539b6"] ;
135 -> 137 ;
138 [label="Condo <= 332.5\ngini = 0.32\nsamples = 4\nvalue = [0, 4, 0, 1]\nclass = Alto", fillcolor="#47e539bf"] ;
137 -> 138 ;
139 [label="gini = 0.0\nsamples = 2\nvalue = [0, 3, 0, 0]\nclass = Alto", fillcolor="#47e539ff"] ;
138 -> 139 ;
140 [label="gini = 0.5\nsamples = 2\nvalue = [0, 1, 0, 1]\nclass = Alto", fillcolor="#47e53900"] ;
138 -> 140 ;
141 [label="Condo <= 317.5\ngini = 0.36\nsamples = 8\nvalue = [0, 10, 0, 3]\nclass = Alto", fillcolor="#47e539b3"] ;
137 -> 141 ;
142 [label="Condo <= 307.5\ngini = 0.4\nsamples = 6\nvalue = [0, 8, 0, 3]\nclass = Alto", fillcolor="#47e5399f"] ;
141 -> 142 ;
143 [label="Condo <= 295.0\ngini = 0.35\nsamples = 4\nvalue = [0, 7, 0, 2]\nclass = Alto", fillcolor="#47e539b6"] ;
142 -> 143 ;
144 [label="gini = 0.38\nsamples = 3\nvalue = [0, 6, 0, 2]\nclass = Alto", fillcolor="#47e539aa"] ;
143 -> 144 ;
145 [label="gini = 0.0\nsamples = 1\nvalue = [0, 1, 0, 0]\nclass = Alto", fillcolor="#47e539ff"] ;
143 -> 145 ;
146 [label="gini = 0.5\nsamples = 2\nvalue = [0, 1, 0, 1]\nclass = Alto", fillcolor="#47e53900"] ;
142 -> 146 ;
147 [label="gini = 0.0\nsamples = 2\nvalue = [0, 2, 0, 0]\nclass = Alto", fillcolor="#47e539ff"] ;
141 -> 147 ;
148 [label="Condo <= 335.0\ngini = 0.14\nsamples = 9\nvalue = [0, 12, 0, 1]\nclass = Alto", fillcolor="#47e539ea"] ;
132 -> 148 ;
149 [label="gini = 0.0\nsamples = 5\nvalue = [0, 7, 0, 0]\nclass = Alto", fillcolor="#47e539ff"] ;
148 -> 149 ;
150 [label="Size <= 46.5\ngini = 0.28\nsamples = 4\nvalue = [0, 5, 0, 1]\nclass = Alto", fillcolor="#47e539cc"] ;
148 -> 150 ;
151 [label="Condo <= 360.0\ngini = 0.32\nsamples = 3\nvalue = [0, 4, 0, 1]\nclass = Alto", fillcolor="#47e539bf"] ;
150 -> 151 ;
152 [label="gini = 0.0\nsamples = 1\nvalue = [0, 0, 0, 1]\nclass = Baixo", fillcolor="#d739e5ff"] ;
151 -> 152 ;
153 [label="gini = 0.0\nsamples = 2\nvalue = [0, 4, 0, 0]\nclass = Alto", fillcolor="#47e539ff"] ;
151 -> 153 ;
154 [label="gini = 0.0\nsamples = 1\nvalue = [0, 1, 0, 0]\nclass = Alto", fillcolor="#47e539ff"] ;
150 -> 154 ;
155 [label="Suites <= 0.5\ngini = 0.5\nsamples = 7\nvalue = [0, 6, 0, 5]\nclass = Alto", fillcolor="#47e5392a"] ;
131 -> 155 ;
156 [label="Condo <= 410.0\ngini = 0.5\nsamples = 2\nvalue = [0, 2, 0, 2]\nclass = Alto", fillcolor="#47e53900"] ;
155 -> 156 ;
157 [label="gini = 0.0\nsamples = 1\nvalue = [0, 0, 0, 2]\nclass = Baixo", fillcolor="#d739e5ff"] ;
156 -> 157 ;
158 [label="gini = 0.0\nsamples = 1\nvalue = [0, 2, 0, 0]\nclass = Alto", fillcolor="#47e539ff"] ;
156 -> 158 ;
159 [label="Size <= 47.5\ngini = 0.49\nsamples = 5\nvalue = [0, 4, 0, 3]\nclass = Alto", fillcolor="#47e53940"] ;
155 -> 159 ;
160 [label="Condo <= 382.5\ngini = 0.5\nsamples = 2\nvalue = [0, 2, 0, 2]\nclass = Alto", fillcolor="#47e53900"] ;
159 -> 160 ;
161 [label="gini = 0.0\nsamples = 1\nvalue = [0, 0, 0, 2]\nclass = Baixo", fillcolor="#d739e5ff"] ;
160 -> 161 ;
162 [label="gini = 0.0\nsamples = 1\nvalue = [0, 2, 0, 0]\nclass = Alto", fillcolor="#47e539ff"] ;
160 -> 162 ;
163 [label="Condo <= 395.0\ngini = 0.44\nsamples = 3\nvalue = [0, 2, 0, 1]\nclass = Alto", fillcolor="#47e5397f"] ;
159 -> 163 ;
164 [label="gini = 0.0\nsamples = 1\nvalue = [0, 0, 0, 1]\nclass = Baixo", fillcolor="#d739e5ff"] ;
163 -> 164 ;
165 [label="gini = 0.0\nsamples = 2\nvalue = [0, 2, 0, 0]\nclass = Alto", fillcolor="#47e539ff"] ;
163 -> 165 ;
166 [label="Toilets <= 1.5\ngini = 0.6\nsamples = 40\nvalue = [16, 13, 0, 34]\nclass = Baixo", fillcolor="#d739e562"] ;
4 -> 166 ;
167 [label="Rooms <= 1.5\ngini = 0.59\nsamples = 21\nvalue = [8, 6, 0, 18]\nclass = Baixo", fillcolor="#d739e56a"] ;
166 -> 167 ;
168 [label="Size <= 36.5\ngini = 0.56\nsamples = 14\nvalue = [6, 3, 0, 13]\nclass = Baixo", fillcolor="#d739e570"] ;
167 -> 168 ;
169 [label="gini = 0.0\nsamples = 2\nvalue = [0, 0, 0, 4]\nclass = Baixo", fillcolor="#d739e5ff"] ;
168 -> 169 ;
170 [label="Size <= 37.5\ngini = 0.61\nsamples = 12\nvalue = [6, 3, 0, 9]\nclass = Baixo", fillcolor="#d739e540"] ;
168 -> 170 ;
171 [label="gini = 0.0\nsamples = 1\nvalue = [2, 0, 0, 0]\nclass = Muito Alto", fillcolor="#e58139ff"] ;
170 -> 171 ;
172 [label="Size <= 45.5\ngini = 0.59\nsamples = 11\nvalue = [4, 3, 0, 9]\nclass = Baixo", fillcolor="#d739e56a"] ;
170 -> 172 ;
173 [label="Size <= 43.5\ngini = 0.58\nsamples = 8\nvalue = [4, 1, 0, 5]\nclass = Baixo", fillcolor="#d739e52a"] ;
172 -> 173 ;
174 [label="Size <= 39.5\ngini = 0.32\nsamples = 4\nvalue = [1, 0, 0, 4]\nclass = Baixo", fillcolor="#d739e5bf"] ;
173 -> 174 ;
175 [label="Condo <= 650.0\ngini = 0.5\nsamples = 2\nvalue = [1, 0, 0, 1]\nclass = Muito Alto", fillcolor="#e5813900"] ;
174 -> 175 ;
176 [label="gini = 0.0\nsamples = 1\nvalue = [0, 0, 0, 1]\nclass = Baixo", fillcolor="#d739e5ff"] ;
175 -> 176 ;
177 [label="gini = 0.0\nsamples = 1\nvalue = [1, 0, 0, 0]\nclass = Muito Alto", fillcolor="#e58139ff"] ;
175 -> 177 ;
178 [label="gini = 0.0\nsamples = 2\nvalue = [0, 0, 0, 3]\nclass = Baixo", fillcolor="#d739e5ff"] ;
174 -> 178 ;
179 [label="Condo <= 445.0\ngini = 0.56\nsamples = 4\nvalue = [3, 1, 0, 1]\nclass = Muito Alto", fillcolor="#e581397f"] ;
173 -> 179 ;
180 [label="gini = 0.0\nsamples = 1\nvalue = [0, 1, 0, 0]\nclass = Alto", fillcolor="#47e539ff"] ;
179 -> 180 ;
181 [label="Condo <= 605.0\ngini = 0.38\nsamples = 3\nvalue = [3, 0, 0, 1]\nclass = Muito Alto", fillcolor="#e58139aa"] ;
179 -> 181 ;
182 [label="Condo <= 480.0\ngini = 0.5\nsamples = 2\nvalue = [1, 0, 0, 1]\nclass = Muito Alto", fillcolor="#e5813900"] ;
181 -> 182 ;
183 [label="gini = 0.0\nsamples = 1\nvalue = [1, 0, 0, 0]\nclass = Muito Alto", fillcolor="#e58139ff"] ;
182 -> 183 ;
184 [label="gini = 0.0\nsamples = 1\nvalue = [0, 0, 0, 1]\nclass = Baixo", fillcolor="#d739e5ff"] ;
182 -> 184 ;
185 [label="gini = 0.0\nsamples = 1\nvalue = [2, 0, 0, 0]\nclass = Muito Alto", fillcolor="#e58139ff"] ;
181 -> 185 ;
186 [label="Condo <= 481.5\ngini = 0.44\nsamples = 3\nvalue = [0, 2, 0, 4]\nclass = Baixo", fillcolor="#d739e57f"] ;
172 -> 186 ;
187 [label="gini = 0.0\nsamples = 1\nvalue = [0, 2, 0, 0]\nclass = Alto", fillcolor="#47e539ff"] ;
186 -> 187 ;
188 [label="gini = 0.0\nsamples = 2\nvalue = [0, 0, 0, 4]\nclass = Baixo", fillcolor="#d739e5ff"] ;
186 -> 188 ;
189 [label="Condo <= 497.5\ngini = 0.62\nsamples = 7\nvalue = [2, 3, 0, 5]\nclass = Baixo", fillcolor="#d739e549"] ;
167 -> 189 ;
190 [label="Size <= 47.5\ngini = 0.38\nsamples = 3\nvalue = [0, 3, 0, 1]\nclass = Alto", fillcolor="#47e539aa"] ;
189 -> 190 ;
191 [label="gini = 0.0\nsamples = 1\nvalue = [0, 2, 0, 0]\nclass = Alto", fillcolor="#47e539ff"] ;
190 -> 191 ;
192 [label="Condo <= 486.5\ngini = 0.5\nsamples = 2\nvalue = [0, 1, 0, 1]\nclass = Alto", fillcolor="#47e53900"] ;
190 -> 192 ;
193 [label="gini = 0.0\nsamples = 1\nvalue = [0, 1, 0, 0]\nclass = Alto", fillcolor="#47e539ff"] ;
192 -> 193 ;
194 [label="gini = 0.0\nsamples = 1\nvalue = [0, 0, 0, 1]\nclass = Baixo", fillcolor="#d739e5ff"] ;
192 -> 194 ;
195 [label="Size <= 45.0\ngini = 0.44\nsamples = 4\nvalue = [2, 0, 0, 4]\nclass = Baixo", fillcolor="#d739e57f"] ;
189 -> 195 ;
196 [label="gini = 0.0\nsamples = 1\nvalue = [1, 0, 0, 0]\nclass = Muito Alto", fillcolor="#e58139ff"] ;
195 -> 196 ;
197 [label="Condo <= 555.0\ngini = 0.32\nsamples = 3\nvalue = [1, 0, 0, 4]\nclass = Baixo", fillcolor="#d739e5bf"] ;
195 -> 197 ;
198 [label="gini = 0.0\nsamples = 1\nvalue = [1, 0, 0, 0]\nclass = Muito Alto", fillcolor="#e58139ff"] ;
197 -> 198 ;
199 [label="gini = 0.0\nsamples = 2\nvalue = [0, 0, 0, 4]\nclass = Baixo", fillcolor="#d739e5ff"] ;
197 -> 199 ;
200 [label="Size <= 46.0\ngini = 0.62\nsamples = 19\nvalue = [8, 7, 0, 16]\nclass = Baixo", fillcolor="#d739e559"] ;
166 -> 200 ;
201 [label="Rooms <= 1.5\ngini = 0.65\nsamples = 12\nvalue = [8, 6, 0, 5]\nclass = Muito Alto", fillcolor="#e5813927"] ;
200 -> 201 ;
202 [label="Size <= 36.5\ngini = 0.64\nsamples = 11\nvalue = [8, 6, 0, 4]\nclass = Muito Alto", fillcolor="#e581392a"] ;
201 -> 202 ;
203 [label="gini = 0.0\nsamples = 2\nvalue = [0, 4, 0, 0]\nclass = Alto", fillcolor="#47e539ff"] ;
202 -> 203 ;
204 [label="Condo <= 771.0\ngini = 0.57\nsamples = 9\nvalue = [8, 2, 0, 4]\nclass = Muito Alto", fillcolor="#e5813966"] ;
202 -> 204 ;
205 [label="Condo <= 638.5\ngini = 0.52\nsamples = 8\nvalue = [8, 1, 0, 4]\nclass = Muito Alto", fillcolor="#e5813971"] ;
204 -> 205 ;
206 [label="Size <= 43.0\ngini = 0.61\nsamples = 4\nvalue = [2, 1, 0, 3]\nclass = Baixo", fillcolor="#d739e540"] ;
205 -> 206 ;
207 [label="Size <= 41.0\ngini = 0.44\nsamples = 3\nvalue = [2, 1, 0, 0]\nclass = Muito Alto", fillcolor="#e581397f"] ;
206 -> 207 ;
208 [label="Condo <= 522.0\ngini = 0.5\nsamples = 2\nvalue = [1, 1, 0, 0]\nclass = Muito Alto", fillcolor="#e5813900"] ;
207 -> 208 ;
209 [label="gini = 0.0\nsamples = 1\nvalue = [1, 0, 0, 0]\nclass = Muito Alto", fillcolor="#e58139ff"] ;
208 -> 209 ;
210 [label="gini = 0.0\nsamples = 1\nvalue = [0, 1, 0, 0]\nclass = Alto", fillcolor="#47e539ff"] ;
208 -> 210 ;
211 [label="gini = 0.0\nsamples = 1\nvalue = [1, 0, 0, 0]\nclass = Muito Alto", fillcolor="#e58139ff"] ;
207 -> 211 ;
212 [label="gini = 0.0\nsamples = 1\nvalue = [0, 0, 0, 3]\nclass = Baixo", fillcolor="#d739e5ff"] ;
206 -> 212 ;
213 [label="Size <= 40.5\ngini = 0.24\nsamples = 4\nvalue = [6, 0, 0, 1]\nclass = Muito Alto", fillcolor="#e58139d4"] ;
205 -> 213 ;
214 [label="gini = 0.5\nsamples = 2\nvalue = [1, 0, 0, 1]\nclass = Muito Alto", fillcolor="#e5813900"] ;
213 -> 214 ;
215 [label="gini = 0.0\nsamples = 2\nvalue = [5, 0, 0, 0]\nclass = Muito Alto", fillcolor="#e58139ff"] ;
213 -> 215 ;
216 [label="gini = 0.0\nsamples = 1\nvalue = [0, 1, 0, 0]\nclass = Alto", fillcolor="#47e539ff"] ;
204 -> 216 ;
217 [label="gini = 0.0\nsamples = 1\nvalue = [0, 0, 0, 1]\nclass = Baixo", fillcolor="#d739e5ff"] ;
201 -> 217 ;
218 [label="Size <= 47.5\ngini = 0.15\nsamples = 7\nvalue = [0, 1, 0, 11]\nclass = Baixo", fillcolor="#d739e5e8"] ;
200 -> 218 ;
219 [label="gini = 0.0\nsamples = 1\nvalue = [0, 0, 0, 3]\nclass = Baixo", fillcolor="#d739e5ff"] ;
218 -> 219 ;
220 [label="Condo <= 470.0\ngini = 0.2\nsamples = 6\nvalue = [0, 1, 0, 8]\nclass = Baixo", fillcolor="#d739e5df"] ;
218 -> 220 ;
221 [label="gini = 0.0\nsamples = 3\nvalue = [0, 0, 0, 5]\nclass = Baixo", fillcolor="#d739e5ff"] ;
220 -> 221 ;
222 [label="Condo <= 490.0\ngini = 0.38\nsamples = 3\nvalue = [0, 1, 0, 3]\nclass = Baixo", fillcolor="#d739e5aa"] ;
220 -> 222 ;
223 [label="gini = 0.0\nsamples = 1\nvalue = [0, 1, 0, 0]\nclass = Alto", fillcolor="#47e539ff"] ;
222 -> 223 ;
224 [label="gini = 0.0\nsamples = 2\nvalue = [0, 0, 0, 3]\nclass = Baixo", fillcolor="#d739e5ff"] ;
222 -> 224 ;
225 [label="Rooms <= 1.5\ngini = 0.51\nsamples = 299\nvalue = [17, 281, 0, 171]\nclass = Alto", fillcolor="#47e5395e"] ;
3 -> 225 ;
226 [label="Condo <= 359.0\ngini = 0.63\nsamples = 22\nvalue = [11, 10, 0, 20]\nclass = Baixo", fillcolor="#d739e54c"] ;
225 -> 226 ;
227 [label="Condo <= 122.5\ngini = 0.46\nsamples = 8\nvalue = [1, 9, 0, 3]\nclass = Alto", fillcolor="#47e53999"] ;
226 -> 227 ;
228 [label="Toilets <= 1.5\ngini = 0.64\nsamples = 3\nvalue = [1, 2, 0, 2]\nclass = Alto", fillcolor="#47e53900"] ;
227 -> 228 ;
229 [label="gini = 0.44\nsamples = 2\nvalue = [1, 2, 0, 0]\nclass = Alto", fillcolor="#47e5397f"] ;
228 -> 229 ;
230 [label="gini = 0.0\nsamples = 1\nvalue = [0, 0, 0, 2]\nclass = Baixo", fillcolor="#d739e5ff"] ;
228 -> 230 ;
231 [label="Size <= 55.5\ngini = 0.22\nsamples = 5\nvalue = [0, 7, 0, 1]\nclass = Alto", fillcolor="#47e539db"] ;
227 -> 231 ;
232 [label="gini = 0.0\nsamples = 4\nvalue = [0, 7, 0, 0]\nclass = Alto", fillcolor="#47e539ff"] ;
231 -> 232 ;
233 [label="gini = 0.0\nsamples = 1\nvalue = [0, 0, 0, 1]\nclass = Baixo", fillcolor="#d739e5ff"] ;
231 -> 233 ;
234 [label="Size <= 49.5\ngini = 0.5\nsamples = 14\nvalue = [10, 1, 0, 17]\nclass = Baixo", fillcolor="#d739e563"] ;
226 -> 234 ;
235 [label="gini = 0.0\nsamples = 1\nvalue = [2, 0, 0, 0]\nclass = Muito Alto", fillcolor="#e58139ff"] ;
234 -> 235 ;
236 [label="Size <= 50.5\ngini = 0.48\nsamples = 13\nvalue = [8, 1, 0, 17]\nclass = Baixo", fillcolor="#d739e580"] ;
234 -> 236 ;
237 [label="Condo <= 441.5\ngini = 0.4\nsamples = 6\nvalue = [2, 1, 0, 9]\nclass = Baixo", fillcolor="#d739e5b2"] ;
236 -> 237 ;
238 [label="Suites <= 0.5\ngini = 0.5\nsamples = 2\nvalue = [1, 1, 0, 0]\nclass = Muito Alto", fillcolor="#e5813900"] ;
237 -> 238 ;
239 [label="gini = 0.0\nsamples = 1\nvalue = [1, 0, 0, 0]\nclass = Muito Alto", fillcolor="#e58139ff"] ;
238 -> 239 ;
240 [label="gini = 0.0\nsamples = 1\nvalue = [0, 1, 0, 0]\nclass = Alto", fillcolor="#47e539ff"] ;
238 -> 240 ;
241 [label="Condo <= 481.5\ngini = 0.18\nsamples = 4\nvalue = [1, 0, 0, 9]\nclass = Baixo", fillcolor="#d739e5e3"] ;
237 -> 241 ;
242 [label="gini = 0.0\nsamples = 1\nvalue = [0, 0, 0, 6]\nclass = Baixo", fillcolor="#d739e5ff"] ;
241 -> 242 ;
243 [label="Toilets <= 1.5\ngini = 0.38\nsamples = 3\nvalue = [1, 0, 0, 3]\nclass = Baixo", fillcolor="#d739e5aa"] ;
241 -> 243 ;
244 [label="gini = 0.0\nsamples = 1\nvalue = [1, 0, 0, 0]\nclass = Muito Alto", fillcolor="#e58139ff"] ;
243 -> 244 ;
245 [label="gini = 0.0\nsamples = 2\nvalue = [0, 0, 0, 3]\nclass = Baixo", fillcolor="#d739e5ff"] ;
243 -> 245 ;
246 [label="Size <= 54.5\ngini = 0.49\nsamples = 7\nvalue = [6, 0, 0, 8]\nclass = Baixo", fillcolor="#d739e540"] ;
236 -> 246 ;
247 [label="Size <= 52.0\ngini = 0.32\nsamples = 3\nvalue = [4, 0, 0, 1]\nclass = Muito Alto", fillcolor="#e58139bf"] ;
246 -> 247 ;
248 [label="Condo <= 430.0\ngini = 0.44\nsamples = 2\nvalue = [2, 0, 0, 1]\nclass = Muito Alto", fillcolor="#e581397f"] ;
247 -> 248 ;
249 [label="gini = 0.0\nsamples = 1\nvalue = [0, 0, 0, 1]\nclass = Baixo", fillcolor="#d739e5ff"] ;
248 -> 249 ;
250 [label="gini = 0.0\nsamples = 1\nvalue = [2, 0, 0, 0]\nclass = Muito Alto", fillcolor="#e58139ff"] ;
248 -> 250 ;
251 [label="gini = 0.0\nsamples = 1\nvalue = [2, 0, 0, 0]\nclass = Muito Alto", fillcolor="#e58139ff"] ;
247 -> 251 ;
252 [label="Suites <= 0.5\ngini = 0.35\nsamples = 4\nvalue = [2, 0, 0, 7]\nclass = Baixo", fillcolor="#d739e5b6"] ;
246 -> 252 ;
253 [label="Condo <= 460.0\ngini = 0.48\nsamples = 3\nvalue = [2, 0, 0, 3]\nclass = Baixo", fillcolor="#d739e555"] ;
252 -> 253 ;
254 [label="Condo <= 420.0\ngini = 0.44\nsamples = 2\nvalue = [2, 0, 0, 1]\nclass = Muito Alto", fillcolor="#e581397f"] ;
253 -> 254 ;
255 [label="gini = 0.0\nsamples = 1\nvalue = [0, 0, 0, 1]\nclass = Baixo", fillcolor="#d739e5ff"] ;
254 -> 255 ;
256 [label="gini = 0.0\nsamples = 1\nvalue = [2, 0, 0, 0]\nclass = Muito Alto", fillcolor="#e58139ff"] ;
254 -> 256 ;
257 [label="gini = 0.0\nsamples = 1\nvalue = [0, 0, 0, 2]\nclass = Baixo", fillcolor="#d739e5ff"] ;
253 -> 257 ;
258 [label="gini = 0.0\nsamples = 1\nvalue = [0, 0, 0, 4]\nclass = Baixo", fillcolor="#d739e5ff"] ;
252 -> 258 ;
259 [label="Condo <= 327.5\ngini = 0.47\nsamples = 277\nvalue = [6, 271, 0, 151]\nclass = Alto", fillcolor="#47e5396e"] ;
225 -> 259 ;
260 [label="Rooms <= 2.5\ngini = 0.31\nsamples = 167\nvalue = [1, 211, 0, 48]\nclass = Alto", fillcolor="#47e539c4"] ;
259 -> 260 ;
261 [label="Condo <= 1.5\ngini = 0.3\nsamples = 155\nvalue = [1, 199, 0, 44]\nclass = Alto", fillcolor="#47e539c6"] ;
260 -> 261 ;
262 [label="Size <= 49.5\ngini = 0.51\nsamples = 43\nvalue = [1, 33, 0, 25]\nclass = Alto", fillcolor="#47e5393c"] ;
261 -> 262 ;
263 [label="Suites <= 0.5\ngini = 0.2\nsamples = 7\nvalue = [0, 8, 0, 1]\nclass = Alto", fillcolor="#47e539df"] ;
262 -> 263 ;
264 [label="gini = 0.32\nsamples = 4\nvalue = [0, 4, 0, 1]\nclass = Alto", fillcolor="#47e539bf"] ;
263 -> 264 ;
265 [label="gini = 0.0\nsamples = 3\nvalue = [0, 4, 0, 0]\nclass = Alto", fillcolor="#47e539ff"] ;
263 -> 265 ;
266 [label="Toilets <= 1.5\ngini = 0.52\nsamples = 36\nvalue = [1, 25, 0, 24]\nclass = Alto", fillcolor="#47e5390a"] ;
262 -> 266 ;
267 [label="Size <= 54.5\ngini = 0.5\nsamples = 10\nvalue = [0, 7, 0, 7]\nclass = Alto", fillcolor="#47e53900"] ;
266 -> 267 ;
268 [label="Size <= 50.5\ngini = 0.46\nsamples = 8\nvalue = [0, 4, 0, 7]\nclass = Baixo", fillcolor="#d739e56d"] ;
267 -> 268 ;
269 [label="gini = 0.44\nsamples = 5\nvalue = [0, 4, 0, 2]\nclass = Alto", fillcolor="#47e5397f"] ;
268 -> 269 ;
270 [label="gini = 0.0\nsamples = 3\nvalue = [0, 0, 0, 5]\nclass = Baixo", fillcolor="#d739e5ff"] ;
268 -> 270 ;
271 [label="gini = 0.0\nsamples = 2\nvalue = [0, 3, 0, 0]\nclass = Alto", fillcolor="#47e539ff"] ;
267 -> 271 ;
272 [label="Size <= 51.5\ngini = 0.53\nsamples = 26\nvalue = [1, 18, 0, 17]\nclass = Alto", fillcolor="#47e5390d"] ;
266 -> 272 ;
273 [label="Suites <= 0.5\ngini = 0.49\nsamples = 15\nvalue = [0, 9, 0, 12]\nclass = Baixo", fillcolor="#d739e540"] ;
272 -> 273 ;
274 [label="gini = 0.0\nsamples = 1\nvalue = [0, 0, 0, 1]\nclass = Baixo", fillcolor="#d739e5ff"] ;
273 -> 274 ;
275 [label="Size <= 50.5\ngini = 0.5\nsamples = 14\nvalue = [0, 9, 0, 11]\nclass = Baixo", fillcolor="#d739e52e"] ;
273 -> 275 ;
276 [label="gini = 0.5\nsamples = 10\nvalue = [0, 7, 0, 7]\nclass = Alto", fillcolor="#47e53900"] ;
275 -> 276 ;
277 [label="gini = 0.44\nsamples = 4\nvalue = [0, 2, 0, 4]\nclass = Baixo", fillcolor="#d739e57f"] ;
275 -> 277 ;
278 [label="Size <= 54.5\ngini = 0.52\nsamples = 11\nvalue = [1, 9, 0, 5]\nclass = Alto", fillcolor="#47e53966"] ;
272 -> 278 ;
279 [label="Size <= 52.5\ngini = 0.24\nsamples = 6\nvalue = [1, 6, 0, 0]\nclass = Alto", fillcolor="#47e539d4"] ;
278 -> 279 ;
280 [label="gini = 0.38\nsamples = 4\nvalue = [1, 3, 0, 0]\nclass = Alto", fillcolor="#47e539aa"] ;
279 -> 280 ;
281 [label="gini = 0.0\nsamples = 2\nvalue = [0, 3, 0, 0]\nclass = Alto", fillcolor="#47e539ff"] ;
279 -> 281 ;
282 [label="Size <= 55.5\ngini = 0.47\nsamples = 5\nvalue = [0, 3, 0, 5]\nclass = Baixo", fillcolor="#d739e566"] ;
278 -> 282 ;
283 [label="gini = 0.48\nsamples = 2\nvalue = [0, 2, 0, 3]\nclass = Baixo", fillcolor="#d739e555"] ;
282 -> 283 ;
284 [label="gini = 0.44\nsamples = 3\nvalue = [0, 1, 0, 2]\nclass = Baixo", fillcolor="#d739e57f"] ;
282 -> 284 ;
285 [label="Suites <= 0.5\ngini = 0.18\nsamples = 112\nvalue = [0, 166, 0, 19]\nclass = Alto", fillcolor="#47e539e2"] ;
261 -> 285 ;
286 [label="Condo <= 225.0\ngini = 0.1\nsamples = 44\nvalue = [0, 69, 0, 4]\nclass = Alto", fillcolor="#47e539f0"] ;
285 -> 286 ;
287 [label="gini = 0.0\nsamples = 20\nvalue = [0, 29, 0, 0]\nclass = Alto", fillcolor="#47e539ff"] ;
286 -> 287 ;
288 [label="Size <= 52.0\ngini = 0.17\nsamples = 24\nvalue = [0, 40, 0, 4]\nclass = Alto", fillcolor="#47e539e6"] ;
286 -> 288 ;
289 [label="Size <= 50.5\ngini = 0.06\nsamples = 18\nvalue = [0, 33, 0, 1]\nclass = Alto", fillcolor="#47e539f7"] ;
288 -> 289 ;
290 [label="Condo <= 270.0\ngini = 0.1\nsamples = 9\nvalue = [0, 17, 0, 1]\nclass = Alto", fillcolor="#47e539f0"] ;
289 -> 290 ;
291 [label="gini = 0.0\nsamples = 1\nvalue = [0, 0, 0, 1]\nclass = Baixo", fillcolor="#d739e5ff"] ;
290 -> 291 ;
292 [label="gini = 0.0\nsamples = 8\nvalue = [0, 17, 0, 0]\nclass = Alto", fillcolor="#47e539ff"] ;
290 -> 292 ;
293 [label="gini = 0.0\nsamples = 9\nvalue = [0, 16, 0, 0]\nclass = Alto", fillcolor="#47e539ff"] ;
289 -> 293 ;
294 [label="Size <= 53.5\ngini = 0.42\nsamples = 6\nvalue = [0, 7, 0, 3]\nclass = Alto", fillcolor="#47e53992"] ;
288 -> 294 ;
295 [label="gini = 0.0\nsamples = 1\nvalue = [0, 0, 0, 1]\nclass = Baixo", fillcolor="#d739e5ff"] ;
294 -> 295 ;
296 [label="Size <= 55.5\ngini = 0.35\nsamples = 5\nvalue = [0, 7, 0, 2]\nclass = Alto", fillcolor="#47e539b6"] ;
294 -> 296 ;
297 [label="Condo <= 290.0\ngini = 0.44\nsamples = 3\nvalue = [0, 4, 0, 2]\nclass = Alto", fillcolor="#47e5397f"] ;
296 -> 297 ;
298 [label="gini = 0.0\nsamples = 1\nvalue = [0, 0, 0, 2]\nclass = Baixo", fillcolor="#d739e5ff"] ;
297 -> 298 ;
299 [label="gini = 0.0\nsamples = 2\nvalue = [0, 4, 0, 0]\nclass = Alto", fillcolor="#47e539ff"] ;
297 -> 299 ;
300 [label="gini = 0.0\nsamples = 2\nvalue = [0, 3, 0, 0]\nclass = Alto", fillcolor="#47e539ff"] ;
296 -> 300 ;
301 [label="Size <= 52.5\ngini = 0.23\nsamples = 68\nvalue = [0, 97, 0, 15]\nclass = Alto", fillcolor="#47e539d8"] ;
285 -> 301 ;
302 [label="Condo <= 240.0\ngini = 0.3\nsamples = 42\nvalue = [0, 58, 0, 13]\nclass = Alto", fillcolor="#47e539c6"] ;
301 -> 302 ;
303 [label="Size <= 51.5\ngini = 0.1\nsamples = 21\nvalue = [0, 34, 0, 2]\nclass = Alto", fillcolor="#47e539f0"] ;
302 -> 303 ;
304 [label="gini = 0.0\nsamples = 16\nvalue = [0, 28, 0, 0]\nclass = Alto", fillcolor="#47e539ff"] ;
303 -> 304 ;
305 [label="Condo <= 140.0\ngini = 0.38\nsamples = 5\nvalue = [0, 6, 0, 2]\nclass = Alto", fillcolor="#47e539aa"] ;
303 -> 305 ;
306 [label="Condo <= 105.0\ngini = 0.5\nsamples = 3\nvalue = [0, 2, 0, 2]\nclass = Alto", fillcolor="#47e53900"] ;
305 -> 306 ;
307 [label="gini = 0.0\nsamples = 2\nvalue = [0, 2, 0, 0]\nclass = Alto", fillcolor="#47e539ff"] ;
306 -> 307 ;
308 [label="gini = 0.0\nsamples = 1\nvalue = [0, 0, 0, 2]\nclass = Baixo", fillcolor="#d739e5ff"] ;
306 -> 308 ;
309 [label="gini = 0.0\nsamples = 2\nvalue = [0, 4, 0, 0]\nclass = Alto", fillcolor="#47e539ff"] ;
305 -> 309 ;
310 [label="Size <= 51.5\ngini = 0.43\nsamples = 21\nvalue = [0, 24, 0, 11]\nclass = Alto", fillcolor="#47e5398a"] ;
302 -> 310 ;
311 [label="Size <= 50.5\ngini = 0.38\nsamples = 15\nvalue = [0, 20, 0, 7]\nclass = Alto", fillcolor="#47e539a6"] ;
310 -> 311 ;
312 [label="Size <= 49.5\ngini = 0.41\nsamples = 14\nvalue = [0, 17, 0, 7]\nclass = Alto", fillcolor="#47e53996"] ;
311 -> 312 ;
313 [label="Condo <= 285.0\ngini = 0.41\nsamples = 4\nvalue = [0, 5, 0, 2]\nclass = Alto", fillcolor="#47e53999"] ;
312 -> 313 ;
314 [label="gini = 0.0\nsamples = 1\nvalue = [0, 0, 0, 1]\nclass = Baixo", fillcolor="#d739e5ff"] ;
313 -> 314 ;
315 [label="Condo <= 295.0\ngini = 0.28\nsamples = 3\nvalue = [0, 5, 0, 1]\nclass = Alto", fillcolor="#47e539cc"] ;
313 -> 315 ;
316 [label="gini = 0.0\nsamples = 1\nvalue = [0, 3, 0, 0]\nclass = Alto", fillcolor="#47e539ff"] ;
315 -> 316 ;
317 [label="Condo <= 306.5\ngini = 0.44\nsamples = 2\nvalue = [0, 2, 0, 1]\nclass = Alto", fillcolor="#47e5397f"] ;
315 -> 317 ;
318 [label="gini = 0.0\nsamples = 1\nvalue = [0, 0, 0, 1]\nclass = Baixo", fillcolor="#d739e5ff"] ;
317 -> 318 ;
319 [label="gini = 0.0\nsamples = 1\nvalue = [0, 2, 0, 0]\nclass = Alto", fillcolor="#47e539ff"] ;
317 -> 319 ;
320 [label="Condo <= 286.5\ngini = 0.42\nsamples = 10\nvalue = [0, 12, 0, 5]\nclass = Alto", fillcolor="#47e53995"] ;
312 -> 320 ;
321 [label="Condo <= 271.5\ngini = 0.48\nsamples = 5\nvalue = [0, 6, 0, 4]\nclass = Alto", fillcolor="#47e53955"] ;
320 -> 321 ;
322 [label="Condo <= 255.0\ngini = 0.38\nsamples = 4\nvalue = [0, 6, 0, 2]\nclass = Alto", fillcolor="#47e539aa"] ;
321 -> 322 ;
323 [label="gini = 0.48\nsamples = 3\nvalue = [0, 3, 0, 2]\nclass = Alto", fillcolor="#47e53955"] ;
322 -> 323 ;
324 [label="gini = 0.0\nsamples = 1\nvalue = [0, 3, 0, 0]\nclass = Alto", fillcolor="#47e539ff"] ;
322 -> 324 ;
325 [label="gini = 0.0\nsamples = 1\nvalue = [0, 0, 0, 2]\nclass = Baixo", fillcolor="#d739e5ff"] ;
321 -> 325 ;
326 [label="Condo <= 308.5\ngini = 0.24\nsamples = 5\nvalue = [0, 6, 0, 1]\nclass = Alto", fillcolor="#47e539d4"] ;
320 -> 326 ;
327 [label="gini = 0.0\nsamples = 3\nvalue = [0, 4, 0, 0]\nclass = Alto", fillcolor="#47e539ff"] ;
326 -> 327 ;
328 [label="Condo <= 318.5\ngini = 0.44\nsamples = 2\nvalue = [0, 2, 0, 1]\nclass = Alto", fillcolor="#47e5397f"] ;
326 -> 328 ;
329 [label="gini = 0.0\nsamples = 1\nvalue = [0, 0, 0, 1]\nclass = Baixo", fillcolor="#d739e5ff"] ;
328 -> 329 ;
330 [label="gini = 0.0\nsamples = 1\nvalue = [0, 2, 0, 0]\nclass = Alto", fillcolor="#47e539ff"] ;
328 -> 330 ;
331 [label="gini = 0.0\nsamples = 1\nvalue = [0, 3, 0, 0]\nclass = Alto", fillcolor="#47e539ff"] ;
311 -> 331 ;
332 [label="Condo <= 273.5\ngini = 0.5\nsamples = 6\nvalue = [0, 4, 0, 4]\nclass = Alto", fillcolor="#47e53900"] ;
310 -> 332 ;
333 [label="gini = 0.0\nsamples = 1\nvalue = [0, 0, 0, 2]\nclass = Baixo", fillcolor="#d739e5ff"] ;
332 -> 333 ;
334 [label="Condo <= 307.5\ngini = 0.44\nsamples = 5\nvalue = [0, 4, 0, 2]\nclass = Alto", fillcolor="#47e5397f"] ;
332 -> 334 ;
335 [label="Condo <= 290.0\ngini = 0.32\nsamples = 4\nvalue = [0, 4, 0, 1]\nclass = Alto", fillcolor="#47e539bf"] ;
334 -> 335 ;
336 [label="Condo <= 278.5\ngini = 0.5\nsamples = 2\nvalue = [0, 1, 0, 1]\nclass = Alto", fillcolor="#47e53900"] ;
335 -> 336 ;
337 [label="gini = 0.0\nsamples = 1\nvalue = [0, 1, 0, 0]\nclass = Alto", fillcolor="#47e539ff"] ;
336 -> 337 ;
338 [label="gini = 0.0\nsamples = 1\nvalue = [0, 0, 0, 1]\nclass = Baixo", fillcolor="#d739e5ff"] ;
336 -> 338 ;
339 [label="gini = 0.0\nsamples = 2\nvalue = [0, 3, 0, 0]\nclass = Alto", fillcolor="#47e539ff"] ;
335 -> 339 ;
340 [label="gini = 0.0\nsamples = 1\nvalue = [0, 0, 0, 1]\nclass = Baixo", fillcolor="#d739e5ff"] ;
334 -> 340 ;
341 [label="Size <= 54.5\ngini = 0.09\nsamples = 26\nvalue = [0, 39, 0, 2]\nclass = Alto", fillcolor="#47e539f2"] ;
301 -> 341 ;
342 [label="Size <= 53.5\ngini = 0.17\nsamples = 16\nvalue = [0, 19, 0, 2]\nclass = Alto", fillcolor="#47e539e4"] ;
341 -> 342 ;
343 [label="gini = 0.0\nsamples = 6\nvalue = [0, 9, 0, 0]\nclass = Alto", fillcolor="#47e539ff"] ;
342 -> 343 ;
344 [label="Condo <= 285.0\ngini = 0.28\nsamples = 10\nvalue = [0, 10, 0, 2]\nclass = Alto", fillcolor="#47e539cc"] ;
342 -> 344 ;
345 [label="gini = 0.0\nsamples = 5\nvalue = [0, 6, 0, 0]\nclass = Alto", fillcolor="#47e539ff"] ;
344 -> 345 ;
346 [label="Condo <= 305.0\ngini = 0.44\nsamples = 5\nvalue = [0, 4, 0, 2]\nclass = Alto", fillcolor="#47e5397f"] ;
344 -> 346 ;
347 [label="gini = 0.0\nsamples = 2\nvalue = [0, 0, 0, 2]\nclass = Baixo", fillcolor="#d739e5ff"] ;
346 -> 347 ;
348 [label="gini = 0.0\nsamples = 3\nvalue = [0, 4, 0, 0]\nclass = Alto", fillcolor="#47e539ff"] ;
346 -> 348 ;
349 [label="gini = 0.0\nsamples = 10\nvalue = [0, 20, 0, 0]\nclass = Alto", fillcolor="#47e539ff"] ;
341 -> 349 ;
350 [label="Suites <= 0.5\ngini = 0.38\nsamples = 12\nvalue = [0, 12, 0, 4]\nclass = Alto", fillcolor="#47e539aa"] ;
260 -> 350 ;
351 [label="Condo <= 215.0\ngini = 0.41\nsamples = 5\nvalue = [0, 5, 0, 2]\nclass = Alto", fillcolor="#47e53999"] ;
350 -> 351 ;
352 [label="gini = 0.0\nsamples = 3\nvalue = [0, 5, 0, 0]\nclass = Alto", fillcolor="#47e539ff"] ;
351 -> 352 ;
353 [label="gini = 0.0\nsamples = 2\nvalue = [0, 0, 0, 2]\nclass = Baixo", fillcolor="#d739e5ff"] ;
351 -> 353 ;
354 [label="Condo <= 200.0\ngini = 0.35\nsamples = 7\nvalue = [0, 7, 0, 2]\nclass = Alto", fillcolor="#47e539b6"] ;
350 -> 354 ;
355 [label="gini = 0.0\nsamples = 5\nvalue = [0, 7, 0, 0]\nclass = Alto", fillcolor="#47e539ff"] ;
354 -> 355 ;
356 [label="gini = 0.0\nsamples = 2\nvalue = [0, 0, 0, 2]\nclass = Baixo", fillcolor="#d739e5ff"] ;
354 -> 356 ;
357 [label="Size <= 55.5\ngini = 0.5\nsamples = 110\nvalue = [5, 60, 0, 103]\nclass = Baixo", fillcolor="#d739e566"] ;
259 -> 357 ;
358 [label="Suites <= 0.5\ngini = 0.51\nsamples = 99\nvalue = [5, 59, 0, 89]\nclass = Baixo", fillcolor="#d739e551"] ;
357 -> 358 ;
359 [label="Condo <= 355.0\ngini = 0.53\nsamples = 40\nvalue = [3, 24, 0, 36]\nclass = Baixo", fillcolor="#d739e54e"] ;
358 -> 359 ;
360 [label="gini = 0.0\nsamples = 4\nvalue = [0, 6, 0, 0]\nclass = Alto", fillcolor="#47e539ff"] ;
359 -> 360 ;
361 [label="Condo <= 754.0\ngini = 0.5\nsamples = 36\nvalue = [3, 18, 0, 36]\nclass = Baixo", fillcolor="#d739e576"] ;
359 -> 361 ;
362 [label="Size <= 49.5\ngini = 0.44\nsamples = 34\nvalue = [0, 18, 0, 36]\nclass = Baixo", fillcolor="#d739e57f"] ;
361 -> 362 ;
363 [label="gini = 0.0\nsamples = 4\nvalue = [0, 0, 0, 8]\nclass = Baixo", fillcolor="#d739e5ff"] ;
362 -> 363 ;
364 [label="Size <= 54.5\ngini = 0.48\nsamples = 30\nvalue = [0, 18, 0, 28]\nclass = Baixo", fillcolor="#d739e55b"] ;
362 -> 364 ;
365 [label="Condo <= 495.0\ngini = 0.49\nsamples = 28\nvalue = [0, 18, 0, 25]\nclass = Baixo", fillcolor="#d739e547"] ;
364 -> 365 ;
366 [label="Condo <= 470.0\ngini = 0.5\nsamples = 20\nvalue = [0, 16, 0, 15]\nclass = Alto", fillcolor="#47e53910"] ;
365 -> 366 ;
367 [label="Size <= 50.5\ngini = 0.5\nsamples = 18\nvalue = [0, 13, 0, 15]\nclass = Baixo", fillcolor="#d739e522"] ;
366 -> 367 ;
368 [label="Condo <= 442.0\ngini = 0.48\nsamples = 8\nvalue = [0, 6, 0, 9]\nclass = Baixo", fillcolor="#d739e555"] ;
367 -> 368 ;
369 [label="Condo <= 427.0\ngini = 0.5\nsamples = 6\nvalue = [0, 6, 0, 7]\nclass = Baixo", fillcolor="#d739e524"] ;
368 -> 369 ;
370 [label="Condo <= 415.0\ngini = 0.46\nsamples = 5\nvalue = [0, 4, 0, 7]\nclass = Baixo", fillcolor="#d739e56d"] ;
369 -> 370 ;
371 [label="Condo <= 405.0\ngini = 0.49\nsamples = 4\nvalue = [0, 4, 0, 5]\nclass = Baixo", fillcolor="#d739e533"] ;
370 -> 371 ;
372 [label="Condo <= 385.0\ngini = 0.41\nsamples = 3\nvalue = [0, 2, 0, 5]\nclass = Baixo", fillcolor="#d739e599"] ;
371 -> 372 ;
373 [label="gini = 0.48\nsamples = 2\nvalue = [0, 2, 0, 3]\nclass = Baixo", fillcolor="#d739e555"] ;
372 -> 373 ;
374 [label="gini = 0.0\nsamples = 1\nvalue = [0, 0, 0, 2]\nclass = Baixo", fillcolor="#d739e5ff"] ;
372 -> 374 ;
375 [label="gini = 0.0\nsamples = 1\nvalue = [0, 2, 0, 0]\nclass = Alto", fillcolor="#47e539ff"] ;
371 -> 375 ;
376 [label="gini = 0.0\nsamples = 1\nvalue = [0, 0, 0, 2]\nclass = Baixo", fillcolor="#d739e5ff"] ;
370 -> 376 ;
377 [label="gini = 0.0\nsamples = 1\nvalue = [0, 2, 0, 0]\nclass = Alto", fillcolor="#47e539ff"] ;
369 -> 377 ;
378 [label="gini = 0.0\nsamples = 2\nvalue = [0, 0, 0, 2]\nclass = Baixo", fillcolor="#d739e5ff"] ;
368 -> 378 ;
379 [label="Size <= 52.5\ngini = 0.5\nsamples = 10\nvalue = [0, 7, 0, 6]\nclass = Alto", fillcolor="#47e53924"] ;
367 -> 379 ;
380 [label="Condo <= 440.0\ngini = 0.41\nsamples = 6\nvalue = [0, 5, 0, 2]\nclass = Alto", fillcolor="#47e53999"] ;
379 -> 380 ;
381 [label="Size <= 51.5\ngini = 0.28\nsamples = 5\nvalue = [0, 5, 0, 1]\nclass = Alto", fillcolor="#47e539cc"] ;
380 -> 381 ;
382 [label="gini = 0.0\nsamples = 1\nvalue = [0, 1, 0, 0]\nclass = Alto", fillcolor="#47e539ff"] ;
381 -> 382 ;
383 [label="Condo <= 403.5\ngini = 0.32\nsamples = 4\nvalue = [0, 4, 0, 1]\nclass = Alto", fillcolor="#47e539bf"] ;
381 -> 383 ;
384 [label="gini = 0.0\nsamples = 2\nvalue = [0, 3, 0, 0]\nclass = Alto", fillcolor="#47e539ff"] ;
383 -> 384 ;
385 [label="Condo <= 418.5\ngini = 0.5\nsamples = 2\nvalue = [0, 1, 0, 1]\nclass = Alto", fillcolor="#47e53900"] ;
383 -> 385 ;
386 [label="gini = 0.0\nsamples = 1\nvalue = [0, 0, 0, 1]\nclass = Baixo", fillcolor="#d739e5ff"] ;
385 -> 386 ;
387 [label="gini = 0.0\nsamples = 1\nvalue = [0, 1, 0, 0]\nclass = Alto", fillcolor="#47e539ff"] ;
385 -> 387 ;
388 [label="gini = 0.0\nsamples = 1\nvalue = [0, 0, 0, 1]\nclass = Baixo", fillcolor="#d739e5ff"] ;
380 -> 388 ;
389 [label="Size <= 53.5\ngini = 0.44\nsamples = 4\nvalue = [0, 2, 0, 4]\nclass = Baixo", fillcolor="#d739e57f"] ;
379 -> 389 ;
390 [label="gini = 0.0\nsamples = 1\nvalue = [0, 0, 0, 1]\nclass = Baixo", fillcolor="#d739e5ff"] ;
389 -> 390 ;
391 [label="Condo <= 377.5\ngini = 0.48\nsamples = 3\nvalue = [0, 2, 0, 3]\nclass = Baixo", fillcolor="#d739e555"] ;
389 -> 391 ;
392 [label="gini = 0.0\nsamples = 1\nvalue = [0, 0, 0, 3]\nclass = Baixo", fillcolor="#d739e5ff"] ;
391 -> 392 ;
393 [label="gini = 0.0\nsamples = 2\nvalue = [0, 2, 0, 0]\nclass = Alto", fillcolor="#47e539ff"] ;
391 -> 393 ;
394 [label="gini = 0.0\nsamples = 2\nvalue = [0, 3, 0, 0]\nclass = Alto", fillcolor="#47e539ff"] ;
366 -> 394 ;
395 [label="Size <= 53.5\ngini = 0.28\nsamples = 8\nvalue = [0, 2, 0, 10]\nclass = Baixo", fillcolor="#d739e5cc"] ;
365 -> 395 ;
396 [label="gini = 0.0\nsamples = 6\nvalue = [0, 0, 0, 8]\nclass = Baixo", fillcolor="#d739e5ff"] ;
395 -> 396 ;
397 [label="Condo <= 510.0\ngini = 0.5\nsamples = 2\nvalue = [0, 2, 0, 2]\nclass = Alto", fillcolor="#47e53900"] ;
395 -> 397 ;
398 [label="gini = 0.0\nsamples = 1\nvalue = [0, 0, 0, 2]\nclass = Baixo", fillcolor="#d739e5ff"] ;
397 -> 398 ;
399 [label="gini = 0.0\nsamples = 1\nvalue = [0, 2, 0, 0]\nclass = Alto", fillcolor="#47e539ff"] ;
397 -> 399 ;
400 [label="gini = 0.0\nsamples = 2\nvalue = [0, 0, 0, 3]\nclass = Baixo", fillcolor="#d739e5ff"] ;
364 -> 400 ;
401 [label="gini = 0.0\nsamples = 2\nvalue = [3, 0, 0, 0]\nclass = Muito Alto", fillcolor="#e58139ff"] ;
361 -> 401 ;
402 [label="Condo <= 404.5\ngini = 0.5\nsamples = 59\nvalue = [2, 35, 0, 53]\nclass = Baixo", fillcolor="#d739e553"] ;
358 -> 402 ;
403 [label="Condo <= 369.5\ngini = 0.48\nsamples = 31\nvalue = [0, 29, 0, 19]\nclass = Alto", fillcolor="#47e53958"] ;
402 -> 403 ;
404 [label="Size <= 49.5\ngini = 0.49\nsamples = 12\nvalue = [0, 7, 0, 9]\nclass = Baixo", fillcolor="#d739e539"] ;
403 -> 404 ;
405 [label="gini = 0.0\nsamples = 2\nvalue = [0, 0, 0, 3]\nclass = Baixo", fillcolor="#d739e5ff"] ;
404 -> 405 ;
406 [label="Size <= 54.5\ngini = 0.5\nsamples = 10\nvalue = [0, 7, 0, 6]\nclass = Alto", fillcolor="#47e53924"] ;
404 -> 406 ;
407 [label="Condo <= 358.5\ngini = 0.46\nsamples = 9\nvalue = [0, 7, 0, 4]\nclass = Alto", fillcolor="#47e5396d"] ;
406 -> 407 ;
408 [label="Size <= 53.5\ngini = 0.22\nsamples = 7\nvalue = [0, 7, 0, 1]\nclass = Alto", fillcolor="#47e539db"] ;
407 -> 408 ;
409 [label="gini = 0.0\nsamples = 5\nvalue = [0, 6, 0, 0]\nclass = Alto", fillcolor="#47e539ff"] ;
408 -> 409 ;
410 [label="Condo <= 340.0\ngini = 0.5\nsamples = 2\nvalue = [0, 1, 0, 1]\nclass = Alto", fillcolor="#47e53900"] ;
408 -> 410 ;
411 [label="gini = 0.0\nsamples = 1\nvalue = [0, 1, 0, 0]\nclass = Alto", fillcolor="#47e539ff"] ;
410 -> 411 ;
412 [label="gini = 0.0\nsamples = 1\nvalue = [0, 0, 0, 1]\nclass = Baixo", fillcolor="#d739e5ff"] ;
410 -> 412 ;
413 [label="gini = 0.0\nsamples = 2\nvalue = [0, 0, 0, 3]\nclass = Baixo", fillcolor="#d739e5ff"] ;
407 -> 413 ;
414 [label="gini = 0.0\nsamples = 1\nvalue = [0, 0, 0, 2]\nclass = Baixo", fillcolor="#d739e5ff"] ;
406 -> 414 ;
415 [label="Size <= 50.5\ngini = 0.43\nsamples = 19\nvalue = [0, 22, 0, 10]\nclass = Alto", fillcolor="#47e5398b"] ;
403 -> 415 ;
416 [label="Size <= 49.5\ngini = 0.41\nsamples = 5\nvalue = [0, 2, 0, 5]\nclass = Baixo", fillcolor="#d739e599"] ;
415 -> 416 ;
417 [label="gini = 0.0\nsamples = 2\nvalue = [0, 2, 0, 0]\nclass = Alto", fillcolor="#47e539ff"] ;
416 -> 417 ;
418 [label="gini = 0.0\nsamples = 3\nvalue = [0, 0, 0, 5]\nclass = Baixo", fillcolor="#d739e5ff"] ;
416 -> 418 ;
419 [label="Condo <= 392.5\ngini = 0.32\nsamples = 14\nvalue = [0, 20, 0, 5]\nclass = Alto", fillcolor="#47e539bf"] ;
415 -> 419 ;
420 [label="Condo <= 385.0\ngini = 0.38\nsamples = 10\nvalue = [0, 15, 0, 5]\nclass = Alto", fillcolor="#47e539aa"] ;
419 -> 420 ;
421 [label="Condo <= 378.5\ngini = 0.29\nsamples = 8\nvalue = [0, 14, 0, 3]\nclass = Alto", fillcolor="#47e539c8"] ;
420 -> 421 ;
422 [label="Size <= 53.0\ngini = 0.18\nsamples = 4\nvalue = [0, 9, 0, 1]\nclass = Alto", fillcolor="#47e539e3"] ;
421 -> 422 ;
423 [label="gini = 0.0\nsamples = 1\nvalue = [0, 4, 0, 0]\nclass = Alto", fillcolor="#47e539ff"] ;
422 -> 423 ;
424 [label="Size <= 54.5\ngini = 0.28\nsamples = 3\nvalue = [0, 5, 0, 1]\nclass = Alto", fillcolor="#47e539cc"] ;
422 -> 424 ;
425 [label="gini = 0.44\nsamples = 2\nvalue = [0, 2, 0, 1]\nclass = Alto", fillcolor="#47e5397f"] ;
424 -> 425 ;
426 [label="gini = 0.0\nsamples = 1\nvalue = [0, 3, 0, 0]\nclass = Alto", fillcolor="#47e539ff"] ;
424 -> 426 ;
427 [label="Size <= 53.0\ngini = 0.41\nsamples = 4\nvalue = [0, 5, 0, 2]\nclass = Alto", fillcolor="#47e53999"] ;
421 -> 427 ;
428 [label="gini = 0.0\nsamples = 1\nvalue = [0, 0, 0, 2]\nclass = Baixo", fillcolor="#d739e5ff"] ;
427 -> 428 ;
429 [label="gini = 0.0\nsamples = 3\nvalue = [0, 5, 0, 0]\nclass = Alto", fillcolor="#47e539ff"] ;
427 -> 429 ;
430 [label="Size <= 54.5\ngini = 0.44\nsamples = 2\nvalue = [0, 1, 0, 2]\nclass = Baixo", fillcolor="#d739e57f"] ;
420 -> 430 ;
431 [label="gini = 0.0\nsamples = 1\nvalue = [0, 1, 0, 0]\nclass = Alto", fillcolor="#47e539ff"] ;
430 -> 431 ;
432 [label="gini = 0.0\nsamples = 1\nvalue = [0, 0, 0, 2]\nclass = Baixo", fillcolor="#d739e5ff"] ;
430 -> 432 ;
433 [label="gini = 0.0\nsamples = 4\nvalue = [0, 5, 0, 0]\nclass = Alto", fillcolor="#47e539ff"] ;
419 -> 433 ;
434 [label="Condo <= 707.5\ngini = 0.32\nsamples = 28\nvalue = [2, 6, 0, 34]\nclass = Baixo", fillcolor="#d739e5c6"] ;
402 -> 434 ;
435 [label="Condo <= 447.5\ngini = 0.26\nsamples = 27\nvalue = [0, 6, 0, 34]\nclass = Baixo", fillcolor="#d739e5d2"] ;
434 -> 435 ;
436 [label="Condo <= 417.5\ngini = 0.43\nsamples = 11\nvalue = [0, 5, 0, 11]\nclass = Baixo", fillcolor="#d739e58b"] ;
435 -> 436 ;
437 [label="gini = 0.0\nsamples = 4\nvalue = [0, 0, 0, 7]\nclass = Baixo", fillcolor="#d739e5ff"] ;
436 -> 437 ;
438 [label="Condo <= 421.5\ngini = 0.49\nsamples = 7\nvalue = [0, 5, 0, 4]\nclass = Alto", fillcolor="#47e53933"] ;
436 -> 438 ;
439 [label="gini = 0.0\nsamples = 1\nvalue = [0, 2, 0, 0]\nclass = Alto", fillcolor="#47e539ff"] ;
438 -> 439 ;
440 [label="Condo <= 435.0\ngini = 0.49\nsamples = 6\nvalue = [0, 3, 0, 4]\nclass = Baixo", fillcolor="#d739e540"] ;
438 -> 440 ;
441 [label="gini = 0.0\nsamples = 2\nvalue = [0, 0, 0, 3]\nclass = Baixo", fillcolor="#d739e5ff"] ;
440 -> 441 ;
442 [label="Rooms <= 2.5\ngini = 0.38\nsamples = 4\nvalue = [0, 3, 0, 1]\nclass = Alto", fillcolor="#47e539aa"] ;
440 -> 442 ;
443 [label="gini = 0.0\nsamples = 1\nvalue = [0, 0, 0, 1]\nclass = Baixo", fillcolor="#d739e5ff"] ;
442 -> 443 ;
444 [label="gini = 0.0\nsamples = 3\nvalue = [0, 3, 0, 0]\nclass = Alto", fillcolor="#47e539ff"] ;
442 -> 444 ;
445 [label="Condo <= 455.0\ngini = 0.08\nsamples = 16\nvalue = [0, 1, 0, 23]\nclass = Baixo", fillcolor="#d739e5f4"] ;
435 -> 445 ;
446 [label="Size <= 49.5\ngini = 0.18\nsamples = 5\nvalue = [0, 1, 0, 9]\nclass = Baixo", fillcolor="#d739e5e3"] ;
445 -> 446 ;
447 [label="gini = 0.44\nsamples = 2\nvalue = [0, 1, 0, 2]\nclass = Baixo", fillcolor="#d739e57f"] ;
446 -> 447 ;
448 [label="gini = 0.0\nsamples = 3\nvalue = [0, 0, 0, 7]\nclass = Baixo", fillcolor="#d739e5ff"] ;
446 -> 448 ;
449 [label="gini = 0.0\nsamples = 11\nvalue = [0, 0, 0, 14]\nclass = Baixo", fillcolor="#d739e5ff"] ;
445 -> 449 ;
450 [label="gini = 0.0\nsamples = 1\nvalue = [2, 0, 0, 0]\nclass = Muito Alto", fillcolor="#e58139ff"] ;
434 -> 450 ;
451 [label="Toilets <= 1.5\ngini = 0.12\nsamples = 11\nvalue = [0, 1, 0, 14]\nclass = Baixo", fillcolor="#d739e5ed"] ;
357 -> 451 ;
452 [label="Rooms <= 2.5\ngini = 0.2\nsamples = 6\nvalue = [0, 1, 0, 8]\nclass = Baixo", fillcolor="#d739e5df"] ;
451 -> 452 ;
453 [label="Condo <= 340.0\ngini = 0.24\nsamples = 5\nvalue = [0, 1, 0, 6]\nclass = Baixo", fillcolor="#d739e5d4"] ;
452 -> 453 ;
454 [label="gini = 0.0\nsamples = 2\nvalue = [0, 0, 0, 4]\nclass = Baixo", fillcolor="#d739e5ff"] ;
453 -> 454 ;
455 [label="Condo <= 374.0\ngini = 0.44\nsamples = 3\nvalue = [0, 1, 0, 2]\nclass = Baixo", fillcolor="#d739e57f"] ;
453 -> 455 ;
456 [label="gini = 0.5\nsamples = 2\nvalue = [0, 1, 0, 1]\nclass = Alto", fillcolor="#47e53900"] ;
455 -> 456 ;
457 [label="gini = 0.0\nsamples = 1\nvalue = [0, 0, 0, 1]\nclass = Baixo", fillcolor="#d739e5ff"] ;
455 -> 457 ;
458 [label="gini = 0.0\nsamples = 1\nvalue = [0, 0, 0, 2]\nclass = Baixo", fillcolor="#d739e5ff"] ;
452 -> 458 ;
459 [label="gini = 0.0\nsamples = 5\nvalue = [0, 0, 0, 6]\nclass = Baixo", fillcolor="#d739e5ff"] ;
451 -> 459 ;
460 [label="Condo <= 319.5\ngini = 0.65\nsamples = 471\nvalue = [145, 293, 12, 330]\nclass = Baixo", fillcolor="#d739e513"] ;
2 -> 460 ;
461 [label="Size <= 44.5\ngini = 0.51\nsamples = 215\nvalue = [19, 226, 3, 115]\nclass = Alto", fillcolor="#47e53972"] ;
460 -> 461 ;
462 [label="Toilets <= 1.5\ngini = 0.3\nsamples = 87\nvalue = [9, 126, 0, 17]\nclass = Alto", fillcolor="#47e539ce"] ;
461 -> 462 ;
463 [label="Rooms <= 1.5\ngini = 0.14\nsamples = 28\nvalue = [2, 49, 0, 2]\nclass = Alto", fillcolor="#47e539eb"] ;
462 -> 463 ;
464 [label="Condo <= 235.0\ngini = 0.56\nsamples = 6\nvalue = [2, 6, 0, 2]\nclass = Alto", fillcolor="#47e5397f"] ;
463 -> 464 ;
465 [label="Size <= 30.5\ngini = 0.41\nsamples = 4\nvalue = [2, 5, 0, 0]\nclass = Alto", fillcolor="#47e53999"] ;
464 -> 465 ;
466 [label="gini = 0.0\nsamples = 1\nvalue = [2, 0, 0, 0]\nclass = Muito Alto", fillcolor="#e58139ff"] ;
465 -> 466 ;
467 [label="gini = 0.0\nsamples = 3\nvalue = [0, 5, 0, 0]\nclass = Alto", fillcolor="#47e539ff"] ;
465 -> 467 ;
468 [label="Size <= 42.0\ngini = 0.44\nsamples = 2\nvalue = [0, 1, 0, 2]\nclass = Baixo", fillcolor="#d739e57f"] ;
464 -> 468 ;
469 [label="gini = 0.0\nsamples = 1\nvalue = [0, 0, 0, 2]\nclass = Baixo", fillcolor="#d739e5ff"] ;
468 -> 469 ;
470 [label="gini = 0.0\nsamples = 1\nvalue = [0, 1, 0, 0]\nclass = Alto", fillcolor="#47e539ff"] ;
468 -> 470 ;
471 [label="gini = 0.0\nsamples = 22\nvalue = [0, 43, 0, 0]\nclass = Alto", fillcolor="#47e539ff"] ;
463 -> 471 ;
472 [label="Size <= 36.5\ngini = 0.37\nsamples = 59\nvalue = [7, 77, 0, 15]\nclass = Alto", fillcolor="#47e539bc"] ;
462 -> 472 ;
473 [label="Rooms <= 1.5\ngini = 0.49\nsamples = 10\nvalue = [0, 8, 0, 10]\nclass = Baixo", fillcolor="#d739e533"] ;
472 -> 473 ;
474 [label="Condo <= 275.0\ngini = 0.48\nsamples = 9\nvalue = [0, 7, 0, 10]\nclass = Baixo", fillcolor="#d739e54d"] ;
473 -> 474 ;
475 [label="Condo <= 100.0\ngini = 0.42\nsamples = 6\nvalue = [0, 7, 0, 3]\nclass = Alto", fillcolor="#47e53992"] ;
474 -> 475 ;
476 [label="Size <= 31.0\ngini = 0.5\nsamples = 3\nvalue = [0, 2, 0, 2]\nclass = Alto", fillcolor="#47e53900"] ;
475 -> 476 ;
477 [label="gini = 0.0\nsamples = 1\nvalue = [0, 2, 0, 0]\nclass = Alto", fillcolor="#47e539ff"] ;
476 -> 477 ;
478 [label="gini = 0.0\nsamples = 2\nvalue = [0, 0, 0, 2]\nclass = Baixo", fillcolor="#d739e5ff"] ;
476 -> 478 ;
479 [label="Size <= 35.5\ngini = 0.28\nsamples = 3\nvalue = [0, 5, 0, 1]\nclass = Alto", fillcolor="#47e539cc"] ;
475 -> 479 ;
480 [label="gini = 0.0\nsamples = 2\nvalue = [0, 5, 0, 0]\nclass = Alto", fillcolor="#47e539ff"] ;
479 -> 480 ;
481 [label="gini = 0.0\nsamples = 1\nvalue = [0, 0, 0, 1]\nclass = Baixo", fillcolor="#d739e5ff"] ;
479 -> 481 ;
482 [label="gini = 0.0\nsamples = 3\nvalue = [0, 0, 0, 7]\nclass = Baixo", fillcolor="#d739e5ff"] ;
474 -> 482 ;
483 [label="gini = 0.0\nsamples = 1\nvalue = [0, 1, 0, 0]\nclass = Alto", fillcolor="#47e539ff"] ;
473 -> 483 ;
484 [label="Rooms <= 1.5\ngini = 0.26\nsamples = 49\nvalue = [7, 69, 0, 5]\nclass = Alto", fillcolor="#47e539d6"] ;
472 -> 484 ;
485 [label="Condo <= 283.5\ngini = 0.63\nsamples = 11\nvalue = [7, 6, 0, 3]\nclass = Muito Alto", fillcolor="#e581391a"] ;
484 -> 485 ;
486 [label="Condo <= 100.0\ngini = 0.6\nsamples = 9\nvalue = [2, 6, 0, 3]\nclass = Alto", fillcolor="#47e53960"] ;
485 -> 486 ;
487 [label="Size <= 38.5\ngini = 0.64\nsamples = 5\nvalue = [2, 1, 0, 2]\nclass = Muito Alto", fillcolor="#e5813900"] ;
486 -> 487 ;
488 [label="gini = 0.0\nsamples = 1\nvalue = [0, 0, 0, 1]\nclass = Baixo", fillcolor="#d739e5ff"] ;
487 -> 488 ;
489 [label="gini = 0.62\nsamples = 4\nvalue = [2, 1, 0, 1]\nclass = Muito Alto", fillcolor="#e5813955"] ;
487 -> 489 ;
490 [label="Size <= 39.5\ngini = 0.28\nsamples = 4\nvalue = [0, 5, 0, 1]\nclass = Alto", fillcolor="#47e539cc"] ;
486 -> 490 ;
491 [label="gini = 0.0\nsamples = 3\nvalue = [0, 5, 0, 0]\nclass = Alto", fillcolor="#47e539ff"] ;
490 -> 491 ;
492 [label="gini = 0.0\nsamples = 1\nvalue = [0, 0, 0, 1]\nclass = Baixo", fillcolor="#d739e5ff"] ;
490 -> 492 ;
493 [label="gini = 0.0\nsamples = 2\nvalue = [5, 0, 0, 0]\nclass = Muito Alto", fillcolor="#e58139ff"] ;
485 -> 493 ;
494 [label="Condo <= 215.0\ngini = 0.06\nsamples = 38\nvalue = [0, 63, 0, 2]\nclass = Alto", fillcolor="#47e539f7"] ;
484 -> 494 ;
495 [label="gini = 0.0\nsamples = 25\nvalue = [0, 38, 0, 0]\nclass = Alto", fillcolor="#47e539ff"] ;
494 -> 495 ;
496 [label="Size <= 38.5\ngini = 0.14\nsamples = 13\nvalue = [0, 25, 0, 2]\nclass = Alto", fillcolor="#47e539eb"] ;
494 -> 496 ;
497 [label="gini = 0.0\nsamples = 2\nvalue = [0, 5, 0, 0]\nclass = Alto", fillcolor="#47e539ff"] ;
496 -> 497 ;
498 [label="Size <= 40.5\ngini = 0.17\nsamples = 11\nvalue = [0, 20, 0, 2]\nclass = Alto", fillcolor="#47e539e6"] ;
496 -> 498 ;
499 [label="Condo <= 260.0\ngini = 0.32\nsamples = 3\nvalue = [0, 4, 0, 1]\nclass = Alto", fillcolor="#47e539bf"] ;
498 -> 499 ;
500 [label="gini = 0.0\nsamples = 1\nvalue = [0, 0, 0, 1]\nclass = Baixo", fillcolor="#d739e5ff"] ;
499 -> 500 ;
501 [label="gini = 0.0\nsamples = 2\nvalue = [0, 4, 0, 0]\nclass = Alto", fillcolor="#47e539ff"] ;
499 -> 501 ;
502 [label="Condo <= 225.0\ngini = 0.11\nsamples = 8\nvalue = [0, 16, 0, 1]\nclass = Alto", fillcolor="#47e539ef"] ;
498 -> 502 ;
503 [label="gini = 0.0\nsamples = 1\nvalue = [0, 0, 0, 1]\nclass = Baixo", fillcolor="#d739e5ff"] ;
502 -> 503 ;
504 [label="gini = 0.0\nsamples = 7\nvalue = [0, 16, 0, 0]\nclass = Alto", fillcolor="#47e539ff"] ;
502 -> 504 ;
505 [label="Suites <= 0.5\ngini = 0.56\nsamples = 128\nvalue = [10, 100, 3, 98]\nclass = Alto", fillcolor="#47e53905"] ;
461 -> 505 ;
506 [label="Condo <= 75.0\ngini = 0.53\nsamples = 44\nvalue = [3, 41, 0, 37]\nclass = Alto", fillcolor="#47e53917"] ;
505 -> 506 ;
507 [label="Toilets <= 1.5\ngini = 0.45\nsamples = 18\nvalue = [2, 8, 0, 23]\nclass = Baixo", fillcolor="#d739e599"] ;
506 -> 507 ;
508 [label="Size <= 46.5\ngini = 0.48\nsamples = 16\nvalue = [2, 8, 0, 20]\nclass = Baixo", fillcolor="#d739e58b"] ;
507 -> 508 ;
509 [label="gini = 0.0\nsamples = 2\nvalue = [0, 2, 0, 0]\nclass = Alto", fillcolor="#47e539ff"] ;
508 -> 509 ;
510 [label="Size <= 52.5\ngini = 0.44\nsamples = 14\nvalue = [2, 6, 0, 20]\nclass = Baixo", fillcolor="#d739e5a2"] ;
508 -> 510 ;
511 [label="Size <= 48.5\ngini = 0.28\nsamples = 10\nvalue = [2, 1, 0, 16]\nclass = Baixo", fillcolor="#d739e5d2"] ;
510 -> 511 ;
512 [label="Size <= 47.5\ngini = 0.3\nsamples = 5\nvalue = [2, 0, 0, 9]\nclass = Baixo", fillcolor="#d739e5c6"] ;
511 -> 512 ;
513 [label="gini = 0.0\nsamples = 2\nvalue = [0, 0, 0, 2]\nclass = Baixo", fillcolor="#d739e5ff"] ;
512 -> 513 ;
514 [label="gini = 0.35\nsamples = 3\nvalue = [2, 0, 0, 7]\nclass = Baixo", fillcolor="#d739e5b6"] ;
512 -> 514 ;
515 [label="Size <= 49.5\ngini = 0.22\nsamples = 5\nvalue = [0, 1, 0, 7]\nclass = Baixo", fillcolor="#d739e5db"] ;
511 -> 515 ;
516 [label="gini = 0.0\nsamples = 1\nvalue = [0, 0, 0, 2]\nclass = Baixo", fillcolor="#d739e5ff"] ;
515 -> 516 ;
517 [label="Size <= 50.5\ngini = 0.28\nsamples = 4\nvalue = [0, 1, 0, 5]\nclass = Baixo", fillcolor="#d739e5cc"] ;
515 -> 517 ;
518 [label="gini = 0.38\nsamples = 3\nvalue = [0, 1, 0, 3]\nclass = Baixo", fillcolor="#d739e5aa"] ;
517 -> 518 ;
519 [label="gini = 0.0\nsamples = 1\nvalue = [0, 0, 0, 2]\nclass = Baixo", fillcolor="#d739e5ff"] ;
517 -> 519 ;
520 [label="Size <= 54.5\ngini = 0.49\nsamples = 4\nvalue = [0, 5, 0, 4]\nclass = Alto", fillcolor="#47e53933"] ;
510 -> 520 ;
521 [label="gini = 0.0\nsamples = 1\nvalue = [0, 4, 0, 0]\nclass = Alto", fillcolor="#47e539ff"] ;
520 -> 521 ;
522 [label="Size <= 55.5\ngini = 0.32\nsamples = 3\nvalue = [0, 1, 0, 4]\nclass = Baixo", fillcolor="#d739e5bf"] ;
520 -> 522 ;
523 [label="gini = 0.0\nsamples = 1\nvalue = [0, 0, 0, 3]\nclass = Baixo", fillcolor="#d739e5ff"] ;
522 -> 523 ;
524 [label="gini = 0.5\nsamples = 2\nvalue = [0, 1, 0, 1]\nclass = Alto", fillcolor="#47e53900"] ;
522 -> 524 ;
525 [label="gini = 0.0\nsamples = 2\nvalue = [0, 0, 0, 3]\nclass = Baixo", fillcolor="#d739e5ff"] ;
507 -> 525 ;
526 [label="Condo <= 247.5\ngini = 0.44\nsamples = 26\nvalue = [1, 33, 0, 14]\nclass = Alto", fillcolor="#47e5398f"] ;
506 -> 526 ;
527 [label="gini = 0.0\nsamples = 7\nvalue = [0, 17, 0, 0]\nclass = Alto", fillcolor="#47e539ff"] ;
526 -> 527 ;
528 [label="Size <= 46.5\ngini = 0.53\nsamples = 19\nvalue = [1, 16, 0, 14]\nclass = Alto", fillcolor="#47e5391e"] ;
526 -> 528 ;
529 [label="Size <= 45.5\ngini = 0.32\nsamples = 6\nvalue = [0, 2, 0, 8]\nclass = Baixo", fillcolor="#d739e5bf"] ;
528 -> 529 ;
530 [label="Condo <= 279.0\ngini = 0.32\nsamples = 3\nvalue = [0, 1, 0, 4]\nclass = Baixo", fillcolor="#d739e5bf"] ;
529 -> 530 ;
531 [label="gini = 0.0\nsamples = 2\nvalue = [0, 0, 0, 4]\nclass = Baixo", fillcolor="#d739e5ff"] ;
530 -> 531 ;
532 [label="gini = 0.0\nsamples = 1\nvalue = [0, 1, 0, 0]\nclass = Alto", fillcolor="#47e539ff"] ;
530 -> 532 ;
533 [label="Condo <= 254.0\ngini = 0.32\nsamples = 3\nvalue = [0, 1, 0, 4]\nclass = Baixo", fillcolor="#d739e5bf"] ;
529 -> 533 ;
534 [label="gini = 0.0\nsamples = 1\nvalue = [0, 1, 0, 0]\nclass = Alto", fillcolor="#47e539ff"] ;
533 -> 534 ;
535 [label="gini = 0.0\nsamples = 2\nvalue = [0, 0, 0, 4]\nclass = Baixo", fillcolor="#d739e5ff"] ;
533 -> 535 ;
536 [label="Size <= 51.0\ngini = 0.47\nsamples = 13\nvalue = [1, 14, 0, 6]\nclass = Alto", fillcolor="#47e53988"] ;
528 -> 536 ;
537 [label="Size <= 49.5\ngini = 0.41\nsamples = 12\nvalue = [1, 14, 0, 4]\nclass = Alto", fillcolor="#47e539aa"] ;
536 -> 537 ;
538 [label="Size <= 47.5\ngini = 0.38\nsamples = 10\nvalue = [1, 13, 0, 3]\nclass = Alto", fillcolor="#47e539b6"] ;
537 -> 538 ;
539 [label="Condo <= 295.0\ngini = 0.38\nsamples = 6\nvalue = [0, 9, 0, 3]\nclass = Alto", fillcolor="#47e539aa"] ;
538 -> 539 ;
540 [label="gini = 0.0\nsamples = 4\nvalue = [0, 5, 0, 0]\nclass = Alto", fillcolor="#47e539ff"] ;
539 -> 540 ;
541 [label="Condo <= 309.5\ngini = 0.49\nsamples = 2\nvalue = [0, 4, 0, 3]\nclass = Alto", fillcolor="#47e53940"] ;
539 -> 541 ;
542 [label="gini = 0.0\nsamples = 1\nvalue = [0, 0, 0, 3]\nclass = Baixo", fillcolor="#d739e5ff"] ;
541 -> 542 ;
543 [label="gini = 0.0\nsamples = 1\nvalue = [0, 4, 0, 0]\nclass = Alto", fillcolor="#47e539ff"] ;
541 -> 543 ;
544 [label="Rooms <= 1.5\ngini = 0.32\nsamples = 4\nvalue = [1, 4, 0, 0]\nclass = Alto", fillcolor="#47e539bf"] ;
538 -> 544 ;
545 [label="gini = 0.0\nsamples = 1\nvalue = [1, 0, 0, 0]\nclass = Muito Alto", fillcolor="#e58139ff"] ;
544 -> 545 ;
546 [label="gini = 0.0\nsamples = 3\nvalue = [0, 4, 0, 0]\nclass = Alto", fillcolor="#47e539ff"] ;
544 -> 546 ;
547 [label="Condo <= 284.5\ngini = 0.5\nsamples = 2\nvalue = [0, 1, 0, 1]\nclass = Alto", fillcolor="#47e53900"] ;
537 -> 547 ;
548 [label="gini = 0.0\nsamples = 1\nvalue = [0, 1, 0, 0]\nclass = Alto", fillcolor="#47e539ff"] ;
547 -> 548 ;
549 [label="gini = 0.0\nsamples = 1\nvalue = [0, 0, 0, 1]\nclass = Baixo", fillcolor="#d739e5ff"] ;
547 -> 549 ;
550 [label="gini = 0.0\nsamples = 1\nvalue = [0, 0, 0, 2]\nclass = Baixo", fillcolor="#d739e5ff"] ;
536 -> 550 ;
551 [label="Rooms <= 2.5\ngini = 0.57\nsamples = 84\nvalue = [7, 59, 3, 61]\nclass = Baixo", fillcolor="#d739e507"] ;
505 -> 551 ;
552 [label="Size <= 49.5\ngini = 0.57\nsamples = 83\nvalue = [7, 57, 3, 61]\nclass = Baixo", fillcolor="#d739e50e"] ;
551 -> 552 ;
553 [label="Condo <= 50.0\ngini = 0.52\nsamples = 43\nvalue = [0, 42, 3, 28]\nclass = Alto", fillcolor="#47e5394f"] ;
552 -> 553 ;
554 [label="Rooms <= 1.5\ngini = 0.56\nsamples = 26\nvalue = [0, 18, 3, 21]\nclass = Baixo", fillcolor="#d739e520"] ;
553 -> 554 ;
555 [label="Size <= 46.5\ngini = 0.5\nsamples = 2\nvalue = [0, 0, 1, 1]\nclass = Médio", fillcolor="#399de500"] ;
554 -> 555 ;
556 [label="gini = 0.0\nsamples = 1\nvalue = [0, 0, 0, 1]\nclass = Baixo", fillcolor="#d739e5ff"] ;
555 -> 556 ;
557 [label="gini = 0.0\nsamples = 1\nvalue = [0, 0, 1, 0]\nclass = Médio", fillcolor="#399de5ff"] ;
555 -> 557 ;
558 [label="Size <= 45.5\ngini = 0.54\nsamples = 24\nvalue = [0, 18, 2, 20]\nclass = Baixo", fillcolor="#d739e517"] ;
554 -> 558 ;
559 [label="gini = 0.41\nsamples = 6\nvalue = [0, 2, 0, 5]\nclass = Baixo", fillcolor="#d739e599"] ;
558 -> 559 ;
560 [label="Size <= 46.5\ngini = 0.55\nsamples = 18\nvalue = [0, 16, 2, 15]\nclass = Alto", fillcolor="#47e5390e"] ;
558 -> 560 ;
561 [label="gini = 0.0\nsamples = 3\nvalue = [0, 5, 0, 0]\nclass = Alto", fillcolor="#47e539ff"] ;
560 -> 561 ;
562 [label="Size <= 48.5\ngini = 0.55\nsamples = 15\nvalue = [0, 11, 2, 15]\nclass = Baixo", fillcolor="#d739e53c"] ;
560 -> 562 ;
563 [label="Size <= 47.5\ngini = 0.46\nsamples = 8\nvalue = [0, 6, 0, 11]\nclass = Baixo", fillcolor="#d739e574"] ;
562 -> 563 ;
564 [label="gini = 0.5\nsamples = 6\nvalue = [0, 6, 0, 7]\nclass = Baixo", fillcolor="#d739e524"] ;
563 -> 564 ;
565 [label="gini = 0.0\nsamples = 2\nvalue = [0, 0, 0, 4]\nclass = Baixo", fillcolor="#d739e5ff"] ;
563 -> 565 ;
566 [label="gini = 0.63\nsamples = 7\nvalue = [0, 5, 2, 4]\nclass = Alto", fillcolor="#47e53924"] ;
562 -> 566 ;
567 [label="Condo <= 306.5\ngini = 0.35\nsamples = 17\nvalue = [0, 24, 0, 7]\nclass = Alto", fillcolor="#47e539b5"] ;
553 -> 567 ;
568 [label="Condo <= 255.0\ngini = 0.29\nsamples = 16\nvalue = [0, 24, 0, 5]\nclass = Alto", fillcolor="#47e539ca"] ;
567 -> 568 ;
569 [label="Size <= 45.5\ngini = 0.41\nsamples = 7\nvalue = [0, 10, 0, 4]\nclass = Alto", fillcolor="#47e53999"] ;
568 -> 569 ;
570 [label="Condo <= 206.0\ngini = 0.49\nsamples = 4\nvalue = [0, 3, 0, 4]\nclass = Baixo", fillcolor="#d739e540"] ;
569 -> 570 ;
571 [label="gini = 0.0\nsamples = 1\nvalue = [0, 0, 0, 3]\nclass = Baixo", fillcolor="#d739e5ff"] ;
570 -> 571 ;
572 [label="Condo <= 242.5\ngini = 0.38\nsamples = 3\nvalue = [0, 3, 0, 1]\nclass = Alto", fillcolor="#47e539aa"] ;
570 -> 572 ;
573 [label="gini = 0.0\nsamples = 2\nvalue = [0, 3, 0, 0]\nclass = Alto", fillcolor="#47e539ff"] ;
572 -> 573 ;
574 [label="gini = 0.0\nsamples = 1\nvalue = [0, 0, 0, 1]\nclass = Baixo", fillcolor="#d739e5ff"] ;
572 -> 574 ;
575 [label="gini = 0.0\nsamples = 3\nvalue = [0, 7, 0, 0]\nclass = Alto", fillcolor="#47e539ff"] ;
569 -> 575 ;
576 [label="Condo <= 295.0\ngini = 0.12\nsamples = 9\nvalue = [0, 14, 0, 1]\nclass = Alto", fillcolor="#47e539ed"] ;
568 -> 576 ;
577 [label="gini = 0.0\nsamples = 6\nvalue = [0, 10, 0, 0]\nclass = Alto", fillcolor="#47e539ff"] ;
576 -> 577 ;
578 [label="Size <= 47.5\ngini = 0.32\nsamples = 3\nvalue = [0, 4, 0, 1]\nclass = Alto", fillcolor="#47e539bf"] ;
576 -> 578 ;
579 [label="gini = 0.0\nsamples = 2\nvalue = [0, 4, 0, 0]\nclass = Alto", fillcolor="#47e539ff"] ;
578 -> 579 ;
580 [label="gini = 0.0\nsamples = 1\nvalue = [0, 0, 0, 1]\nclass = Baixo", fillcolor="#d739e5ff"] ;
578 -> 580 ;
581 [label="gini = 0.0\nsamples = 1\nvalue = [0, 0, 0, 2]\nclass = Baixo", fillcolor="#d739e5ff"] ;
567 -> 581 ;
582 [label="Size <= 52.5\ngini = 0.55\nsamples = 40\nvalue = [7, 15, 0, 33]\nclass = Baixo", fillcolor="#d739e573"] ;
552 -> 582 ;
583 [label="Size <= 51.5\ngini = 0.59\nsamples = 17\nvalue = [3, 10, 0, 13]\nclass = Baixo", fillcolor="#d739e530"] ;
582 -> 583 ;
584 [label="Condo <= 260.0\ngini = 0.56\nsamples = 15\nvalue = [3, 6, 0, 13]\nclass = Baixo", fillcolor="#d739e570"] ;
583 -> 584 ;
585 [label="Size <= 50.5\ngini = 0.48\nsamples = 11\nvalue = [3, 2, 0, 11]\nclass = Baixo", fillcolor="#d739e59d"] ;
584 -> 585 ;
586 [label="Condo <= 110.0\ngini = 0.46\nsamples = 9\nvalue = [3, 1, 0, 9]\nclass = Baixo", fillcolor="#d739e599"] ;
585 -> 586 ;
587 [label="gini = 0.51\nsamples = 7\nvalue = [3, 1, 0, 7]\nclass = Baixo", fillcolor="#d739e580"] ;
586 -> 587 ;
588 [label="gini = 0.0\nsamples = 2\nvalue = [0, 0, 0, 2]\nclass = Baixo", fillcolor="#d739e5ff"] ;
586 -> 588 ;
589 [label="gini = 0.44\nsamples = 2\nvalue = [0, 1, 0, 2]\nclass = Baixo", fillcolor="#d739e57f"] ;
585 -> 589 ;
590 [label="Size <= 50.5\ngini = 0.44\nsamples = 4\nvalue = [0, 4, 0, 2]\nclass = Alto", fillcolor="#47e5397f"] ;
584 -> 590 ;
591 [label="Condo <= 290.0\ngini = 0.32\nsamples = 3\nvalue = [0, 4, 0, 1]\nclass = Alto", fillcolor="#47e539bf"] ;
590 -> 591 ;
592 [label="gini = 0.0\nsamples = 2\nvalue = [0, 4, 0, 0]\nclass = Alto", fillcolor="#47e539ff"] ;
591 -> 592 ;
593 [label="gini = 0.0\nsamples = 1\nvalue = [0, 0, 0, 1]\nclass = Baixo", fillcolor="#d739e5ff"] ;
591 -> 593 ;
594 [label="gini = 0.0\nsamples = 1\nvalue = [0, 0, 0, 1]\nclass = Baixo", fillcolor="#d739e5ff"] ;
590 -> 594 ;
595 [label="gini = 0.0\nsamples = 2\nvalue = [0, 4, 0, 0]\nclass = Alto", fillcolor="#47e539ff"] ;
583 -> 595 ;
596 [label="Condo <= 125.0\ngini = 0.48\nsamples = 23\nvalue = [4, 5, 0, 20]\nclass = Baixo", fillcolor="#d739e59f"] ;
582 -> 596 ;
597 [label="Size <= 53.5\ngini = 0.52\nsamples = 15\nvalue = [4, 3, 0, 13]\nclass = Baixo", fillcolor="#d739e58f"] ;
596 -> 597 ;
598 [label="Condo <= 25.0\ngini = 0.15\nsamples = 9\nvalue = [1, 0, 0, 11]\nclass = Baixo", fillcolor="#d739e5e8"] ;
597 -> 598 ;
599 [label="gini = 0.0\nsamples = 8\nvalue = [0, 0, 0, 11]\nclass = Baixo", fillcolor="#d739e5ff"] ;
598 -> 599 ;
600 [label="gini = 0.0\nsamples = 1\nvalue = [1, 0, 0, 0]\nclass = Muito Alto", fillcolor="#e58139ff"] ;
598 -> 600 ;
601 [label="Size <= 54.5\ngini = 0.66\nsamples = 6\nvalue = [3, 3, 0, 2]\nclass = Muito Alto", fillcolor="#e5813900"] ;
597 -> 601 ;
602 [label="gini = 0.0\nsamples = 1\nvalue = [1, 0, 0, 0]\nclass = Muito Alto", fillcolor="#e58139ff"] ;
601 -> 602 ;
603 [label="Size <= 55.5\ngini = 0.65\nsamples = 5\nvalue = [2, 3, 0, 2]\nclass = Alto", fillcolor="#47e53933"] ;
601 -> 603 ;
604 [label="gini = 0.64\nsamples = 3\nvalue = [2, 2, 0, 1]\nclass = Muito Alto", fillcolor="#e5813900"] ;
603 -> 604 ;
605 [label="gini = 0.5\nsamples = 2\nvalue = [0, 1, 0, 1]\nclass = Alto", fillcolor="#47e53900"] ;
603 -> 605 ;
606 [label="Size <= 55.5\ngini = 0.35\nsamples = 8\nvalue = [0, 2, 0, 7]\nclass = Baixo", fillcolor="#d739e5b6"] ;
596 -> 606 ;
607 [label="Size <= 53.5\ngini = 0.44\nsamples = 6\nvalue = [0, 2, 0, 4]\nclass = Baixo", fillcolor="#d739e57f"] ;
606 -> 607 ;
608 [label="gini = 0.0\nsamples = 1\nvalue = [0, 0, 0, 1]\nclass = Baixo", fillcolor="#d739e5ff"] ;
607 -> 608 ;
609 [label="Condo <= 235.0\ngini = 0.48\nsamples = 5\nvalue = [0, 2, 0, 3]\nclass = Baixo", fillcolor="#d739e555"] ;
607 -> 609 ;
610 [label="gini = 0.0\nsamples = 1\nvalue = [0, 0, 0, 1]\nclass = Baixo", fillcolor="#d739e5ff"] ;
609 -> 610 ;
611 [label="Condo <= 275.0\ngini = 0.5\nsamples = 4\nvalue = [0, 2, 0, 2]\nclass = Alto", fillcolor="#47e53900"] ;
609 -> 611 ;
612 [label="gini = 0.0\nsamples = 1\nvalue = [0, 1, 0, 0]\nclass = Alto", fillcolor="#47e539ff"] ;
611 -> 612 ;
613 [label="Condo <= 290.0\ngini = 0.44\nsamples = 3\nvalue = [0, 1, 0, 2]\nclass = Baixo", fillcolor="#d739e57f"] ;
611 -> 613 ;
614 [label="gini = 0.0\nsamples = 1\nvalue = [0, 0, 0, 1]\nclass = Baixo", fillcolor="#d739e5ff"] ;
613 -> 614 ;
615 [label="Condo <= 304.0\ngini = 0.5\nsamples = 2\nvalue = [0, 1, 0, 1]\nclass = Alto", fillcolor="#47e53900"] ;
613 -> 615 ;
616 [label="gini = 0.0\nsamples = 1\nvalue = [0, 1, 0, 0]\nclass = Alto", fillcolor="#47e539ff"] ;
615 -> 616 ;
617 [label="gini = 0.0\nsamples = 1\nvalue = [0, 0, 0, 1]\nclass = Baixo", fillcolor="#d739e5ff"] ;
615 -> 617 ;
618 [label="gini = 0.0\nsamples = 2\nvalue = [0, 0, 0, 3]\nclass = Baixo", fillcolor="#d739e5ff"] ;
606 -> 618 ;
619 [label="gini = 0.0\nsamples = 1\nvalue = [0, 2, 0, 0]\nclass = Alto", fillcolor="#47e539ff"] ;
551 -> 619 ;
620 [label="Rooms <= 1.5\ngini = 0.62\nsamples = 256\nvalue = [126, 67, 9, 215]\nclass = Baixo", fillcolor="#d739e54e"] ;
460 -> 620 ;
621 [label="Size <= 40.5\ngini = 0.62\nsamples = 85\nvalue = [66, 15, 5, 57]\nclass = Muito Alto", fillcolor="#e581391b"] ;
620 -> 621 ;
622 [label="Condo <= 406.0\ngini = 0.61\nsamples = 46\nvalue = [24, 13, 0, 39]\nclass = Baixo", fillcolor="#d739e54a"] ;
621 -> 622 ;
623 [label="Condo <= 334.5\ngini = 0.49\nsamples = 21\nvalue = [4, 8, 0, 25]\nclass = Baixo", fillcolor="#d739e595"] ;
622 -> 623 ;
624 [label="Condo <= 325.0\ngini = 0.44\nsamples = 3\nvalue = [0, 6, 0, 3]\nclass = Alto", fillcolor="#47e5397f"] ;
623 -> 624 ;
625 [label="gini = 0.49\nsamples = 2\nvalue = [0, 4, 0, 3]\nclass = Alto", fillcolor="#47e53940"] ;
624 -> 625 ;
626 [label="gini = 0.0\nsamples = 1\nvalue = [0, 2, 0, 0]\nclass = Alto", fillcolor="#47e539ff"] ;
624 -> 626 ;
627 [label="Condo <= 395.0\ngini = 0.36\nsamples = 18\nvalue = [4, 2, 0, 22]\nclass = Baixo", fillcolor="#d739e5bf"] ;
623 -> 627 ;
628 [label="Condo <= 372.5\ngini = 0.26\nsamples = 9\nvalue = [1, 1, 0, 12]\nclass = Baixo", fillcolor="#d739e5d8"] ;
627 -> 628 ;
629 [label="Toilets <= 1.5\ngini = 0.45\nsamples = 5\nvalue = [1, 1, 0, 5]\nclass = Baixo", fillcolor="#d739e5aa"] ;
628 -> 629 ;
630 [label="Condo <= 357.5\ngini = 0.62\nsamples = 4\nvalue = [1, 1, 0, 2]\nclass = Baixo", fillcolor="#d739e555"] ;
629 -> 630 ;
631 [label="Size <= 32.5\ngini = 0.44\nsamples = 3\nvalue = [0, 1, 0, 2]\nclass = Baixo", fillcolor="#d739e57f"] ;
630 -> 631 ;
632 [label="gini = 0.0\nsamples = 1\nvalue = [0, 1, 0, 0]\nclass = Alto", fillcolor="#47e539ff"] ;
631 -> 632 ;
633 [label="gini = 0.0\nsamples = 2\nvalue = [0, 0, 0, 2]\nclass = Baixo", fillcolor="#d739e5ff"] ;
631 -> 633 ;
634 [label="gini = 0.0\nsamples = 1\nvalue = [1, 0, 0, 0]\nclass = Muito Alto", fillcolor="#e58139ff"] ;
630 -> 634 ;
635 [label="gini = 0.0\nsamples = 1\nvalue = [0, 0, 0, 3]\nclass = Baixo", fillcolor="#d739e5ff"] ;
629 -> 635 ;
636 [label="gini = 0.0\nsamples = 4\nvalue = [0, 0, 0, 7]\nclass = Baixo", fillcolor="#d739e5ff"] ;
628 -> 636 ;
637 [label="Suites <= 0.5\ngini = 0.44\nsamples = 9\nvalue = [3, 1, 0, 10]\nclass = Baixo", fillcolor="#d739e5a2"] ;
627 -> 637 ;
638 [label="gini = 0.0\nsamples = 1\nvalue = [2, 0, 0, 0]\nclass = Muito Alto", fillcolor="#e58139ff"] ;
637 -> 638 ;
639 [label="Size <= 33.0\ngini = 0.29\nsamples = 8\nvalue = [1, 1, 0, 10]\nclass = Baixo", fillcolor="#d739e5d1"] ;
637 -> 639 ;
640 [label="gini = 0.44\nsamples = 2\nvalue = [0, 1, 0, 2]\nclass = Baixo", fillcolor="#d739e57f"] ;
639 -> 640 ;
641 [label="Size <= 38.5\ngini = 0.2\nsamples = 6\nvalue = [1, 0, 0, 8]\nclass = Baixo", fillcolor="#d739e5df"] ;
639 -> 641 ;
642 [label="gini = 0.0\nsamples = 3\nvalue = [0, 0, 0, 6]\nclass = Baixo", fillcolor="#d739e5ff"] ;
641 -> 642 ;
643 [label="Size <= 39.5\ngini = 0.44\nsamples = 3\nvalue = [1, 0, 0, 2]\nclass = Baixo", fillcolor="#d739e57f"] ;
641 -> 643 ;
644 [label="gini = 0.0\nsamples = 1\nvalue = [1, 0, 0, 0]\nclass = Muito Alto", fillcolor="#e58139ff"] ;
643 -> 644 ;
645 [label="gini = 0.0\nsamples = 2\nvalue = [0, 0, 0, 2]\nclass = Baixo", fillcolor="#d739e5ff"] ;
643 -> 645 ;
646 [label="Condo <= 961.0\ngini = 0.59\nsamples = 25\nvalue = [20, 5, 0, 14]\nclass = Muito Alto", fillcolor="#e581393d"] ;
622 -> 646 ;
647 [label="Size <= 39.0\ngini = 0.58\nsamples = 23\nvalue = [20, 5, 0, 11]\nclass = Muito Alto", fillcolor="#e581395c"] ;
646 -> 647 ;
648 [label="Condo <= 475.0\ngini = 0.47\nsamples = 17\nvalue = [15, 0, 0, 9]\nclass = Muito Alto", fillcolor="#e5813966"] ;
647 -> 648 ;
649 [label="gini = 0.0\nsamples = 3\nvalue = [4, 0, 0, 0]\nclass = Muito Alto", fillcolor="#e58139ff"] ;
648 -> 649 ;
650 [label="Size <= 36.0\ngini = 0.5\nsamples = 14\nvalue = [11, 0, 0, 9]\nclass = Muito Alto", fillcolor="#e581392e"] ;
648 -> 650 ;
651 [label="Suites <= 0.5\ngini = 0.44\nsamples = 9\nvalue = [8, 0, 0, 4]\nclass = Muito Alto", fillcolor="#e581397f"] ;
650 -> 651 ;
652 [label="gini = 0.0\nsamples = 2\nvalue = [0, 0, 0, 3]\nclass = Baixo", fillcolor="#d739e5ff"] ;
651 -> 652 ;
653 [label="Size <= 33.5\ngini = 0.2\nsamples = 7\nvalue = [8, 0, 0, 1]\nclass = Muito Alto", fillcolor="#e58139df"] ;
651 -> 653 ;
654 [label="Size <= 31.5\ngini = 0.44\nsamples = 3\nvalue = [2, 0, 0, 1]\nclass = Muito Alto", fillcolor="#e581397f"] ;
653 -> 654 ;
655 [label="gini = 0.0\nsamples = 1\nvalue = [1, 0, 0, 0]\nclass = Muito Alto", fillcolor="#e58139ff"] ;
654 -> 655 ;
656 [label="Condo <= 530.0\ngini = 0.5\nsamples = 2\nvalue = [1, 0, 0, 1]\nclass = Muito Alto", fillcolor="#e5813900"] ;
654 -> 656 ;
657 [label="gini = 0.0\nsamples = 1\nvalue = [1, 0, 0, 0]\nclass = Muito Alto", fillcolor="#e58139ff"] ;
656 -> 657 ;
658 [label="gini = 0.0\nsamples = 1\nvalue = [0, 0, 0, 1]\nclass = Baixo", fillcolor="#d739e5ff"] ;
656 -> 658 ;
659 [label="gini = 0.0\nsamples = 4\nvalue = [6, 0, 0, 0]\nclass = Muito Alto", fillcolor="#e58139ff"] ;
653 -> 659 ;
660 [label="Toilets <= 1.5\ngini = 0.47\nsamples = 5\nvalue = [3, 0, 0, 5]\nclass = Baixo", fillcolor="#d739e566"] ;
650 -> 660 ;
661 [label="Condo <= 600.0\ngini = 0.38\nsamples = 3\nvalue = [3, 0, 0, 1]\nclass = Muito Alto", fillcolor="#e58139aa"] ;
660 -> 661 ;
662 [label="gini = 0.0\nsamples = 1\nvalue = [0, 0, 0, 1]\nclass = Baixo", fillcolor="#d739e5ff"] ;
661 -> 662 ;
663 [label="gini = 0.0\nsamples = 2\nvalue = [3, 0, 0, 0]\nclass = Muito Alto", fillcolor="#e58139ff"] ;
661 -> 663 ;
664 [label="gini = 0.0\nsamples = 2\nvalue = [0, 0, 0, 4]\nclass = Baixo", fillcolor="#d739e5ff"] ;
660 -> 664 ;
665 [label="Suites <= 0.5\ngini = 0.62\nsamples = 6\nvalue = [5, 5, 0, 2]\nclass = Muito Alto", fillcolor="#e5813900"] ;
647 -> 665 ;
666 [label="Condo <= 475.0\ngini = 0.48\nsamples = 2\nvalue = [0, 3, 0, 2]\nclass = Alto", fillcolor="#47e53955"] ;
665 -> 666 ;
667 [label="gini = 0.0\nsamples = 1\nvalue = [0, 0, 0, 2]\nclass = Baixo", fillcolor="#d739e5ff"] ;
666 -> 667 ;
668 [label="gini = 0.0\nsamples = 1\nvalue = [0, 3, 0, 0]\nclass = Alto", fillcolor="#47e539ff"] ;
666 -> 668 ;
669 [label="Condo <= 516.0\ngini = 0.41\nsamples = 4\nvalue = [5, 2, 0, 0]\nclass = Muito Alto", fillcolor="#e5813999"] ;
665 -> 669 ;
670 [label="Condo <= 480.0\ngini = 0.44\nsamples = 2\nvalue = [1, 2, 0, 0]\nclass = Alto", fillcolor="#47e5397f"] ;
669 -> 670 ;
671 [label="gini = 0.0\nsamples = 1\nvalue = [1, 0, 0, 0]\nclass = Muito Alto", fillcolor="#e58139ff"] ;
670 -> 671 ;
672 [label="gini = 0.0\nsamples = 1\nvalue = [0, 2, 0, 0]\nclass = Alto", fillcolor="#47e539ff"] ;
670 -> 672 ;
673 [label="gini = 0.0\nsamples = 2\nvalue = [4, 0, 0, 0]\nclass = Muito Alto", fillcolor="#e58139ff"] ;
669 -> 673 ;
674 [label="gini = 0.0\nsamples = 2\nvalue = [0, 0, 0, 3]\nclass = Baixo", fillcolor="#d739e5ff"] ;
646 -> 674 ;
675 [label="Condo <= 471.0\ngini = 0.53\nsamples = 39\nvalue = [42, 2, 5, 18]\nclass = Muito Alto", fillcolor="#e581397d"] ;
621 -> 675 ;
676 [label="Size <= 47.5\ngini = 0.46\nsamples = 10\nvalue = [4, 0, 2, 14]\nclass = Baixo", fillcolor="#d739e59f"] ;
675 -> 676 ;
677 [label="Condo <= 375.0\ngini = 0.15\nsamples = 5\nvalue = [1, 0, 0, 11]\nclass = Baixo", fillcolor="#d739e5e8"] ;
676 -> 677 ;
678 [label="gini = 0.0\nsamples = 3\nvalue = [0, 0, 0, 10]\nclass = Baixo", fillcolor="#d739e5ff"] ;
677 -> 678 ;
679 [label="Size <= 43.5\ngini = 0.5\nsamples = 2\nvalue = [1, 0, 0, 1]\nclass = Muito Alto", fillcolor="#e5813900"] ;
677 -> 679 ;
680 [label="gini = 0.0\nsamples = 1\nvalue = [0, 0, 0, 1]\nclass = Baixo", fillcolor="#d739e5ff"] ;
679 -> 680 ;
681 [label="gini = 0.0\nsamples = 1\nvalue = [1, 0, 0, 0]\nclass = Muito Alto", fillcolor="#e58139ff"] ;
679 -> 681 ;
682 [label="Toilets <= 1.5\ngini = 0.66\nsamples = 5\nvalue = [3, 0, 2, 3]\nclass = Muito Alto", fillcolor="#e5813900"] ;
676 -> 682 ;
683 [label="gini = 0.0\nsamples = 2\nvalue = [2, 0, 0, 0]\nclass = Muito Alto", fillcolor="#e58139ff"] ;
682 -> 683 ;
684 [label="Size <= 52.0\ngini = 0.61\nsamples = 3\nvalue = [1, 0, 2, 3]\nclass = Baixo", fillcolor="#d739e540"] ;
682 -> 684 ;
685 [label="Condo <= 375.0\ngini = 0.44\nsamples = 2\nvalue = [1, 0, 2, 0]\nclass = Médio", fillcolor="#399de57f"] ;
684 -> 685 ;
686 [label="gini = 0.0\nsamples = 1\nvalue = [0, 0, 2, 0]\nclass = Médio", fillcolor="#399de5ff"] ;
685 -> 686 ;
687 [label="gini = 0.0\nsamples = 1\nvalue = [1, 0, 0, 0]\nclass = Muito Alto", fillcolor="#e58139ff"] ;
685 -> 687 ;
688 [label="gini = 0.0\nsamples = 1\nvalue = [0, 0, 0, 3]\nclass = Baixo", fillcolor="#d739e5ff"] ;
684 -> 688 ;
689 [label="Condo <= 856.5\ngini = 0.33\nsamples = 29\nvalue = [38, 2, 3, 4]\nclass = Muito Alto", fillcolor="#e58139ca"] ;
675 -> 689 ;
690 [label="Toilets <= 1.5\ngini = 0.19\nsamples = 24\nvalue = [36, 2, 2, 0]\nclass = Muito Alto", fillcolor="#e58139e4"] ;
689 -> 690 ;
691 [label="Condo <= 588.5\ngini = 0.19\nsamples = 13\nvalue = [17, 0, 2, 0]\nclass = Muito Alto", fillcolor="#e58139e1"] ;
690 -> 691 ;
692 [label="Condo <= 563.5\ngini = 0.41\nsamples = 5\nvalue = [5, 0, 2, 0]\nclass = Muito Alto", fillcolor="#e5813999"] ;
691 -> 692 ;
693 [label="gini = 0.0\nsamples = 4\nvalue = [5, 0, 0, 0]\nclass = Muito Alto", fillcolor="#e58139ff"] ;
692 -> 693 ;
694 [label="gini = 0.0\nsamples = 1\nvalue = [0, 0, 2, 0]\nclass = Médio", fillcolor="#399de5ff"] ;
692 -> 694 ;
695 [label="gini = 0.0\nsamples = 8\nvalue = [12, 0, 0, 0]\nclass = Muito Alto", fillcolor="#e58139ff"] ;
691 -> 695 ;
696 [label="Size <= 48.5\ngini = 0.17\nsamples = 11\nvalue = [19, 2, 0, 0]\nclass = Muito Alto", fillcolor="#e58139e4"] ;
690 -> 696 ;
697 [label="Size <= 46.5\ngini = 0.35\nsamples = 6\nvalue = [7, 2, 0, 0]\nclass = Muito Alto", fillcolor="#e58139b6"] ;
696 -> 697 ;
698 [label="gini = 0.0\nsamples = 4\nvalue = [6, 0, 0, 0]\nclass = Muito Alto", fillcolor="#e58139ff"] ;
697 -> 698 ;
699 [label="Condo <= 695.0\ngini = 0.44\nsamples = 2\nvalue = [1, 2, 0, 0]\nclass = Alto", fillcolor="#47e5397f"] ;
697 -> 699 ;
700 [label="gini = 0.0\nsamples = 1\nvalue = [0, 2, 0, 0]\nclass = Alto", fillcolor="#47e539ff"] ;
699 -> 700 ;
701 [label="gini = 0.0\nsamples = 1\nvalue = [1, 0, 0, 0]\nclass = Muito Alto", fillcolor="#e58139ff"] ;
699 -> 701 ;
702 [label="gini = 0.0\nsamples = 5\nvalue = [12, 0, 0, 0]\nclass = Muito Alto", fillcolor="#e58139ff"] ;
696 -> 702 ;
703 [label="Condo <= 965.0\ngini = 0.57\nsamples = 5\nvalue = [2, 0, 1, 4]\nclass = Baixo", fillcolor="#d739e566"] ;
689 -> 703 ;
704 [label="gini = 0.0\nsamples = 3\nvalue = [0, 0, 0, 4]\nclass = Baixo", fillcolor="#d739e5ff"] ;
703 -> 704 ;
705 [label="Condo <= 1115.5\ngini = 0.44\nsamples = 2\nvalue = [2, 0, 1, 0]\nclass = Muito Alto", fillcolor="#e581397f"] ;
703 -> 705 ;
706 [label="gini = 0.0\nsamples = 1\nvalue = [2, 0, 0, 0]\nclass = Muito Alto", fillcolor="#e58139ff"] ;
705 -> 706 ;
707 [label="gini = 0.0\nsamples = 1\nvalue = [0, 0, 1, 0]\nclass = Médio", fillcolor="#399de5ff"] ;
705 -> 707 ;
708 [label="Condo <= 660.0\ngini = 0.58\nsamples = 171\nvalue = [60, 52, 4, 158]\nclass = Baixo", fillcolor="#d739e575"] ;
620 -> 708 ;
709 [label="Size <= 53.5\ngini = 0.55\nsamples = 160\nvalue = [43, 52, 1, 153]\nclass = Baixo", fillcolor="#d739e583"] ;
708 -> 709 ;
710 [label="Condo <= 403.5\ngini = 0.48\nsamples = 115\nvalue = [20, 37, 0, 122]\nclass = Baixo", fillcolor="#d739e599"] ;
709 -> 710 ;
711 [label="Condo <= 325.0\ngini = 0.49\nsamples = 63\nvalue = [3, 35, 0, 64]\nclass = Baixo", fillcolor="#d739e56e"] ;
710 -> 711 ;
712 [label="gini = 0.0\nsamples = 3\nvalue = [0, 0, 0, 7]\nclass = Baixo", fillcolor="#d739e5ff"] ;
711 -> 712 ;
713 [label="Size <= 51.5\ngini = 0.5\nsamples = 60\nvalue = [3, 35, 0, 57]\nclass = Baixo", fillcolor="#d739e55e"] ;
711 -> 713 ;
714 [label="Condo <= 391.0\ngini = 0.51\nsamples = 49\nvalue = [1, 34, 0, 42]\nclass = Baixo", fillcolor="#d739e52f"] ;
713 -> 714 ;
715 [label="Suites <= 0.5\ngini = 0.52\nsamples = 32\nvalue = [1, 24, 0, 20]\nclass = Alto", fillcolor="#47e53929"] ;
714 -> 715 ;
716 [label="Size <= 50.5\ngini = 0.5\nsamples = 11\nvalue = [0, 6, 0, 6]\nclass = Alto", fillcolor="#47e53900"] ;
715 -> 716 ;
717 [label="Condo <= 352.5\ngini = 0.48\nsamples = 10\nvalue = [0, 6, 0, 4]\nclass = Alto", fillcolor="#47e53955"] ;
716 -> 717 ;
718 [label="Condo <= 340.0\ngini = 0.41\nsamples = 7\nvalue = [0, 5, 0, 2]\nclass = Alto", fillcolor="#47e53999"] ;
717 -> 718 ;
719 [label="Size <= 46.5\ngini = 0.5\nsamples = 2\nvalue = [0, 1, 0, 1]\nclass = Alto", fillcolor="#47e53900"] ;
718 -> 719 ;
720 [label="gini = 0.0\nsamples = 1\nvalue = [0, 1, 0, 0]\nclass = Alto", fillcolor="#47e539ff"] ;
719 -> 720 ;
721 [label="gini = 0.0\nsamples = 1\nvalue = [0, 0, 0, 1]\nclass = Baixo", fillcolor="#d739e5ff"] ;
719 -> 721 ;
722 [label="Size <= 47.5\ngini = 0.32\nsamples = 5\nvalue = [0, 4, 0, 1]\nclass = Alto", fillcolor="#47e539bf"] ;
718 -> 722 ;
723 [label="gini = 0.5\nsamples = 2\nvalue = [0, 1, 0, 1]\nclass = Alto", fillcolor="#47e53900"] ;
722 -> 723 ;
724 [label="gini = 0.0\nsamples = 3\nvalue = [0, 3, 0, 0]\nclass = Alto", fillcolor="#47e539ff"] ;
722 -> 724 ;
725 [label="Size <= 48.5\ngini = 0.44\nsamples = 3\nvalue = [0, 1, 0, 2]\nclass = Baixo", fillcolor="#d739e57f"] ;
717 -> 725 ;
726 [label="gini = 0.0\nsamples = 2\nvalue = [0, 0, 0, 2]\nclass = Baixo", fillcolor="#d739e5ff"] ;
725 -> 726 ;
727 [label="gini = 0.0\nsamples = 1\nvalue = [0, 1, 0, 0]\nclass = Alto", fillcolor="#47e539ff"] ;
725 -> 727 ;
728 [label="gini = 0.0\nsamples = 1\nvalue = [0, 0, 0, 2]\nclass = Baixo", fillcolor="#d739e5ff"] ;
716 -> 728 ;
729 [label="Condo <= 389.0\ngini = 0.52\nsamples = 21\nvalue = [1, 18, 0, 14]\nclass = Alto", fillcolor="#47e53936"] ;
715 -> 729 ;
730 [label="Size <= 44.0\ngini = 0.53\nsamples = 20\nvalue = [1, 15, 0, 14]\nclass = Alto", fillcolor="#47e53910"] ;
729 -> 730 ;
731 [label="gini = 0.0\nsamples = 1\nvalue = [0, 2, 0, 0]\nclass = Alto", fillcolor="#47e539ff"] ;
730 -> 731 ;
732 [label="Condo <= 384.0\ngini = 0.53\nsamples = 19\nvalue = [1, 13, 0, 14]\nclass = Baixo", fillcolor="#d739e511"] ;
730 -> 732 ;
733 [label="Size <= 47.5\ngini = 0.54\nsamples = 18\nvalue = [1, 13, 0, 12]\nclass = Alto", fillcolor="#47e53912"] ;
732 -> 733 ;
734 [label="Condo <= 360.0\ngini = 0.48\nsamples = 5\nvalue = [0, 4, 0, 6]\nclass = Baixo", fillcolor="#d739e555"] ;
733 -> 734 ;
735 [label="Size <= 46.0\ngini = 0.49\nsamples = 4\nvalue = [0, 4, 0, 3]\nclass = Alto", fillcolor="#47e53940"] ;
734 -> 735 ;
736 [label="gini = 0.38\nsamples = 2\nvalue = [0, 3, 0, 1]\nclass = Alto", fillcolor="#47e539aa"] ;
735 -> 736 ;
737 [label="gini = 0.44\nsamples = 2\nvalue = [0, 1, 0, 2]\nclass = Baixo", fillcolor="#d739e57f"] ;
735 -> 737 ;
738 [label="gini = 0.0\nsamples = 1\nvalue = [0, 0, 0, 3]\nclass = Baixo", fillcolor="#d739e5ff"] ;
734 -> 738 ;
739 [label="Size <= 49.0\ngini = 0.54\nsamples = 13\nvalue = [1, 9, 0, 6]\nclass = Alto", fillcolor="#47e5394c"] ;
733 -> 739 ;
740 [label="Condo <= 365.0\ngini = 0.28\nsamples = 6\nvalue = [0, 5, 0, 1]\nclass = Alto", fillcolor="#47e539cc"] ;
739 -> 740 ;
741 [label="gini = 0.0\nsamples = 2\nvalue = [0, 2, 0, 0]\nclass = Alto", fillcolor="#47e539ff"] ;
740 -> 741 ;
742 [label="gini = 0.38\nsamples = 4\nvalue = [0, 3, 0, 1]\nclass = Alto", fillcolor="#47e539aa"] ;
740 -> 742 ;
743 [label="Condo <= 365.0\ngini = 0.58\nsamples = 7\nvalue = [1, 4, 0, 5]\nclass = Baixo", fillcolor="#d739e52a"] ;
739 -> 743 ;
744 [label="Condo <= 345.0\ngini = 0.32\nsamples = 4\nvalue = [0, 1, 0, 4]\nclass = Baixo", fillcolor="#d739e5bf"] ;
743 -> 744 ;
745 [label="gini = 0.0\nsamples = 1\nvalue = [0, 0, 0, 1]\nclass = Baixo", fillcolor="#d739e5ff"] ;
744 -> 745 ;
746 [label="gini = 0.38\nsamples = 3\nvalue = [0, 1, 0, 3]\nclass = Baixo", fillcolor="#d739e5aa"] ;
744 -> 746 ;
747 [label="gini = 0.56\nsamples = 3\nvalue = [1, 3, 0, 1]\nclass = Alto", fillcolor="#47e5397f"] ;
743 -> 747 ;
748 [label="gini = 0.0\nsamples = 1\nvalue = [0, 0, 0, 2]\nclass = Baixo", fillcolor="#d739e5ff"] ;
732 -> 748 ;
749 [label="gini = 0.0\nsamples = 1\nvalue = [0, 3, 0, 0]\nclass = Alto", fillcolor="#47e539ff"] ;
729 -> 749 ;
750 [label="Suites <= 0.5\ngini = 0.43\nsamples = 17\nvalue = [0, 10, 0, 22]\nclass = Baixo", fillcolor="#d739e58b"] ;
714 -> 750 ;
751 [label="gini = 0.0\nsamples = 2\nvalue = [0, 0, 0, 6]\nclass = Baixo", fillcolor="#d739e5ff"] ;
750 -> 751 ;
752 [label="Condo <= 394.5\ngini = 0.47\nsamples = 15\nvalue = [0, 10, 0, 16]\nclass = Baixo", fillcolor="#d739e560"] ;
750 -> 752 ;
753 [label="gini = 0.0\nsamples = 2\nvalue = [0, 0, 0, 6]\nclass = Baixo", fillcolor="#d739e5ff"] ;
752 -> 753 ;
754 [label="Size <= 47.5\ngini = 0.5\nsamples = 13\nvalue = [0, 10, 0, 10]\nclass = Alto", fillcolor="#47e53900"] ;
752 -> 754 ;
755 [label="gini = 0.0\nsamples = 4\nvalue = [0, 0, 0, 8]\nclass = Baixo", fillcolor="#d739e5ff"] ;
754 -> 755 ;
756 [label="Condo <= 398.5\ngini = 0.28\nsamples = 9\nvalue = [0, 10, 0, 2]\nclass = Alto", fillcolor="#47e539cc"] ;
754 -> 756 ;
757 [label="gini = 0.0\nsamples = 1\nvalue = [0, 1, 0, 0]\nclass = Alto", fillcolor="#47e539ff"] ;
756 -> 757 ;
758 [label="Size <= 50.5\ngini = 0.3\nsamples = 8\nvalue = [0, 9, 0, 2]\nclass = Alto", fillcolor="#47e539c6"] ;
756 -> 758 ;
759 [label="gini = 0.0\nsamples = 5\nvalue = [0, 7, 0, 0]\nclass = Alto", fillcolor="#47e539ff"] ;
758 -> 759 ;
760 [label="gini = 0.5\nsamples = 3\nvalue = [0, 2, 0, 2]\nclass = Alto", fillcolor="#47e53900"] ;
758 -> 760 ;
761 [label="Size <= 52.5\ngini = 0.29\nsamples = 11\nvalue = [2, 1, 0, 15]\nclass = Baixo", fillcolor="#d739e5cf"] ;
713 -> 761 ;
762 [label="Toilets <= 1.5\ngini = 0.32\nsamples = 4\nvalue = [0, 1, 0, 4]\nclass = Baixo", fillcolor="#d739e5bf"] ;
761 -> 762 ;
763 [label="Condo <= 373.5\ngini = 0.5\nsamples = 2\nvalue = [0, 1, 0, 1]\nclass = Alto", fillcolor="#47e53900"] ;
762 -> 763 ;
764 [label="gini = 0.0\nsamples = 1\nvalue = [0, 0, 0, 1]\nclass = Baixo", fillcolor="#d739e5ff"] ;
763 -> 764 ;
765 [label="gini = 0.0\nsamples = 1\nvalue = [0, 1, 0, 0]\nclass = Alto", fillcolor="#47e539ff"] ;
763 -> 765 ;
766 [label="gini = 0.0\nsamples = 2\nvalue = [0, 0, 0, 3]\nclass = Baixo", fillcolor="#d739e5ff"] ;
762 -> 766 ;
767 [label="Suites <= 0.5\ngini = 0.26\nsamples = 7\nvalue = [2, 0, 0, 11]\nclass = Baixo", fillcolor="#d739e5d1"] ;
761 -> 767 ;
768 [label="gini = 0.0\nsamples = 1\nvalue = [0, 0, 0, 3]\nclass = Baixo", fillcolor="#d739e5ff"] ;
767 -> 768 ;
769 [label="Condo <= 355.0\ngini = 0.32\nsamples = 6\nvalue = [2, 0, 0, 8]\nclass = Baixo", fillcolor="#d739e5bf"] ;
767 -> 769 ;
770 [label="gini = 0.0\nsamples = 2\nvalue = [0, 0, 0, 3]\nclass = Baixo", fillcolor="#d739e5ff"] ;
769 -> 770 ;
771 [label="Condo <= 370.0\ngini = 0.41\nsamples = 4\nvalue = [2, 0, 0, 5]\nclass = Baixo", fillcolor="#d739e599"] ;
769 -> 771 ;
772 [label="gini = 0.5\nsamples = 2\nvalue = [2, 0, 0, 2]\nclass = Muito Alto", fillcolor="#e5813900"] ;
771 -> 772 ;
773 [label="gini = 0.0\nsamples = 2\nvalue = [0, 0, 0, 3]\nclass = Baixo", fillcolor="#d739e5ff"] ;
771 -> 773 ;
774 [label="Condo <= 564.5\ngini = 0.38\nsamples = 52\nvalue = [17, 2, 0, 58]\nclass = Baixo", fillcolor="#d739e5ae"] ;
710 -> 774 ;
775 [label="Toilets <= 1.5\ngini = 0.32\nsamples = 44\nvalue = [10, 2, 0, 50]\nclass = Baixo", fillcolor="#d739e5c4"] ;
774 -> 775 ;
776 [label="Condo <= 448.0\ngini = 0.44\nsamples = 17\nvalue = [8, 0, 0, 17]\nclass = Baixo", fillcolor="#d739e587"] ;
775 -> 776 ;
777 [label="gini = 0.0\nsamples = 6\nvalue = [0, 0, 0, 6]\nclass = Baixo", fillcolor="#d739e5ff"] ;
776 -> 777 ;
778 [label="Size <= 51.5\ngini = 0.49\nsamples = 11\nvalue = [8, 0, 0, 11]\nclass = Baixo", fillcolor="#d739e546"] ;
776 -> 778 ;
779 [label="Condo <= 510.0\ngini = 0.5\nsamples = 9\nvalue = [8, 0, 0, 8]\nclass = Muito Alto", fillcolor="#e5813900"] ;
778 -> 779 ;
780 [label="Condo <= 494.5\ngini = 0.49\nsamples = 7\nvalue = [8, 0, 0, 6]\nclass = Muito Alto", fillcolor="#e5813940"] ;
779 -> 780 ;
781 [label="Condo <= 469.5\ngini = 0.49\nsamples = 4\nvalue = [4, 0, 0, 5]\nclass = Baixo", fillcolor="#d739e533"] ;
780 -> 781 ;
782 [label="Size <= 50.5\ngini = 0.49\nsamples = 3\nvalue = [4, 0, 0, 3]\nclass = Muito Alto", fillcolor="#e5813940"] ;
781 -> 782 ;
783 [label="gini = 0.0\nsamples = 2\nvalue = [0, 0, 0, 3]\nclass = Baixo", fillcolor="#d739e5ff"] ;
782 -> 783 ;
784 [label="gini = 0.0\nsamples = 1\nvalue = [4, 0, 0, 0]\nclass = Muito Alto", fillcolor="#e58139ff"] ;
782 -> 784 ;
785 [label="gini = 0.0\nsamples = 1\nvalue = [0, 0, 0, 2]\nclass = Baixo", fillcolor="#d739e5ff"] ;
781 -> 785 ;
786 [label="Size <= 49.0\ngini = 0.32\nsamples = 3\nvalue = [4, 0, 0, 1]\nclass = Muito Alto", fillcolor="#e58139bf"] ;
780 -> 786 ;
787 [label="gini = 0.0\nsamples = 1\nvalue = [1, 0, 0, 0]\nclass = Muito Alto", fillcolor="#e58139ff"] ;
786 -> 787 ;
788 [label="gini = 0.38\nsamples = 2\nvalue = [3, 0, 0, 1]\nclass = Muito Alto", fillcolor="#e58139aa"] ;
786 -> 788 ;
789 [label="gini = 0.0\nsamples = 2\nvalue = [0, 0, 0, 2]\nclass = Baixo", fillcolor="#d739e5ff"] ;
779 -> 789 ;
790 [label="gini = 0.0\nsamples = 2\nvalue = [0, 0, 0, 3]\nclass = Baixo", fillcolor="#d739e5ff"] ;
778 -> 790 ;
791 [label="Size <= 47.5\ngini = 0.2\nsamples = 27\nvalue = [2, 2, 0, 33]\nclass = Baixo", fillcolor="#d739e5e2"] ;
775 -> 791 ;
792 [label="Condo <= 458.5\ngini = 0.32\nsamples = 4\nvalue = [0, 1, 0, 4]\nclass = Baixo", fillcolor="#d739e5bf"] ;
791 -> 792 ;
793 [label="gini = 0.0\nsamples = 3\nvalue = [0, 0, 0, 4]\nclass = Baixo", fillcolor="#d739e5ff"] ;
792 -> 793 ;
794 [label="gini = 0.0\nsamples = 1\nvalue = [0, 1, 0, 0]\nclass = Alto", fillcolor="#47e539ff"] ;
792 -> 794 ;
795 [label="Size <= 51.5\ngini = 0.17\nsamples = 23\nvalue = [2, 1, 0, 29]\nclass = Baixo", fillcolor="#d739e5e6"] ;
791 -> 795 ;
796 [label="Size <= 49.5\ngini = 0.09\nsamples = 16\nvalue = [1, 0, 0, 21]\nclass = Baixo", fillcolor="#d739e5f3"] ;
795 -> 796 ;
797 [label="gini = 0.0\nsamples = 6\nvalue = [0, 0, 0, 8]\nclass = Baixo", fillcolor="#d739e5ff"] ;
796 -> 797 ;
798 [label="Condo <= 418.0\ngini = 0.13\nsamples = 10\nvalue = [1, 0, 0, 13]\nclass = Baixo", fillcolor="#d739e5eb"] ;
796 -> 798 ;
799 [label="Condo <= 415.5\ngini = 0.44\nsamples = 2\nvalue = [1, 0, 0, 2]\nclass = Baixo", fillcolor="#d739e57f"] ;
798 -> 799 ;
800 [label="gini = 0.0\nsamples = 1\nvalue = [0, 0, 0, 2]\nclass = Baixo", fillcolor="#d739e5ff"] ;
799 -> 800 ;
801 [label="gini = 0.0\nsamples = 1\nvalue = [1, 0, 0, 0]\nclass = Muito Alto", fillcolor="#e58139ff"] ;
799 -> 801 ;
802 [label="gini = 0.0\nsamples = 8\nvalue = [0, 0, 0, 11]\nclass = Baixo", fillcolor="#d739e5ff"] ;
798 -> 802 ;
803 [label="Size <= 52.5\ngini = 0.34\nsamples = 7\nvalue = [1, 1, 0, 8]\nclass = Baixo", fillcolor="#d739e5c6"] ;
795 -> 803 ;
804 [label="Condo <= 455.0\ngini = 0.32\nsamples = 4\nvalue = [0, 1, 0, 4]\nclass = Baixo", fillcolor="#d739e5bf"] ;
803 -> 804 ;
805 [label="gini = 0.0\nsamples = 1\nvalue = [0, 0, 0, 1]\nclass = Baixo", fillcolor="#d739e5ff"] ;
804 -> 805 ;
806 [label="Condo <= 487.5\ngini = 0.38\nsamples = 3\nvalue = [0, 1, 0, 3]\nclass = Baixo", fillcolor="#d739e5aa"] ;
804 -> 806 ;
807 [label="gini = 0.44\nsamples = 2\nvalue = [0, 1, 0, 2]\nclass = Baixo", fillcolor="#d739e57f"] ;
806 -> 807 ;
808 [label="gini = 0.0\nsamples = 1\nvalue = [0, 0, 0, 1]\nclass = Baixo", fillcolor="#d739e5ff"] ;
806 -> 808 ;
809 [label="Condo <= 447.5\ngini = 0.32\nsamples = 3\nvalue = [1, 0, 0, 4]\nclass = Baixo", fillcolor="#d739e5bf"] ;
803 -> 809 ;
810 [label="gini = 0.0\nsamples = 1\nvalue = [1, 0, 0, 0]\nclass = Muito Alto", fillcolor="#e58139ff"] ;
809 -> 810 ;
811 [label="gini = 0.0\nsamples = 2\nvalue = [0, 0, 0, 4]\nclass = Baixo", fillcolor="#d739e5ff"] ;
809 -> 811 ;
812 [label="Condo <= 569.5\ngini = 0.5\nsamples = 8\nvalue = [7, 0, 0, 8]\nclass = Baixo", fillcolor="#d739e520"] ;
774 -> 812 ;
813 [label="gini = 0.0\nsamples = 1\nvalue = [3, 0, 0, 0]\nclass = Muito Alto", fillcolor="#e58139ff"] ;
812 -> 813 ;
814 [label="Size <= 51.5\ngini = 0.44\nsamples = 7\nvalue = [4, 0, 0, 8]\nclass = Baixo", fillcolor="#d739e57f"] ;
812 -> 814 ;
815 [label="Size <= 48.5\ngini = 0.5\nsamples = 4\nvalue = [4, 0, 0, 4]\nclass = Muito Alto", fillcolor="#e5813900"] ;
814 -> 815 ;
816 [label="gini = 0.0\nsamples = 1\nvalue = [0, 0, 0, 3]\nclass = Baixo", fillcolor="#d739e5ff"] ;
815 -> 816 ;
817 [label="Condo <= 640.0\ngini = 0.32\nsamples = 3\nvalue = [4, 0, 0, 1]\nclass = Muito Alto", fillcolor="#e58139bf"] ;
815 -> 817 ;
818 [label="gini = 0.0\nsamples = 2\nvalue = [4, 0, 0, 0]\nclass = Muito Alto", fillcolor="#e58139ff"] ;
817 -> 818 ;
819 [label="gini = 0.0\nsamples = 1\nvalue = [0, 0, 0, 1]\nclass = Baixo", fillcolor="#d739e5ff"] ;
817 -> 819 ;
820 [label="gini = 0.0\nsamples = 3\nvalue = [0, 0, 0, 4]\nclass = Baixo", fillcolor="#d739e5ff"] ;
814 -> 820 ;
