digraph Tree {
node [shape=box, style="filled, rounded", color="black", fontname=helvetica] ;
edge [fontname=helvetica] ;
0 [label="Toilets <= 2.5\ngini = 0.75\nsamples = 2833\nvalue = [1162, 1164, 1093, 1069]\nclass = Alto", fillcolor="#47e53900"] ;
1 [label="Size <= 57.5\ngini = 0.73\nsamples = 2403\nvalue = [1086, 1164, 485, 1064]\nclass = Alto", fillcolor="#47e53907"] ;
0 -> 1 [labeldistance=2.5, labelangle=45, headlabel="True"] ;
2 [label="Condo <= 322.5\ngini = 0.56\nsamples = 1196\nvalue = [197, 1084, 9, 598]\nclass = Alto", fillcolor="#47e53960"] ;
1 -> 2 ;
3 [label="Condo <= 37.5\ngini = 0.36\nsamples = 725\nvalue = [42, 896, 0, 216]\nclass = Alto", fillcolor="#47e539b9"] ;
2 -> 3 ;
4 [label="Toilets <= 1.5\ngini = 0.52\nsamples = 282\nvalue = [33, 274, 0, 137]\nclass = Alto", fillcolor="#47e53972"] ;
3 -> 4 ;
5 [label="Size <= 44.5\ngini = 0.52\nsamples = 99\nvalue = [17, 105, 0, 43]\nclass = Alto", fillcolor="#47e53982"] ;
4 -> 5 ;
6 [label="Rooms <= 1.5\ngini = 0.29\nsamples = 45\nvalue = [2, 69, 0, 12]\nclass = Alto", fillcolor="#47e539cd"] ;
5 -> 6 ;
7 [label="Size <= 36.5\ngini = 0.53\nsamples = 16\nvalue = [2, 20, 0, 12]\nclass = Alto", fillcolor="#47e5395d"] ;
6 -> 7 ;
8 [label="Size <= 30.5\ngini = 0.42\nsamples = 8\nvalue = [0, 5, 0, 12]\nclass = Baixo", fillcolor="#d739e595"] ;
7 -> 8 ;
9 [label="gini = 0.0\nsamples = 2\nvalue = [0, 4, 0, 0]\nclass = Alto", fillcolor="#47e539ff"] ;
8 -> 9 ;
10 [label="Size <= 32.5\ngini = 0.14\nsamples = 6\nvalue = [0, 1, 0, 12]\nclass = Baixo", fillcolor="#d739e5ea"] ;
8 -> 10 ;
11 [label="gini = 0.0\nsamples = 1\nvalue = [0, 0, 0, 4]\nclass = Baixo", fillcolor="#d739e5ff"] ;
10 -> 11 ;
12 [label="Size <= 34.5\ngini = 0.2\nsamples = 5\nvalue = [0, 1, 0, 8]\nclass = Baixo", fillcolor="#d739e5df"] ;
10 -> 12 ;
13 [label="gini = 0.32\nsamples = 2\nvalue = [0, 1, 0, 4]\nclass = Baixo", fillcolor="#d739e5bf"] ;
12 -> 13 ;
14 [label="gini = 0.0\nsamples = 3\nvalue = [0, 0, 0, 4]\nclass = Baixo", fillcolor="#d739e5ff"] ;
12 -> 14 ;
15 [label="Swimming Pool <= 0.5\ngini = 0.21\nsamples = 8\nvalue = [2, 15, 0, 0]\nclass = Alto", fillcolor="#47e539dd"] ;
7 -> 15 ;
16 [label="Size <= 38.5\ngini = 0.3\nsamples = 5\nvalue = [2, 9, 0, 0]\nclass = Alto", fillcolor="#47e539c6"] ;
15 -> 16 ;
17 [label="gini = 0.48\nsamples = 3\nvalue = [2, 3, 0, 0]\nclass = Alto", fillcolor="#47e53955"] ;
16 -> 17 ;
18 [label="gini = 0.0\nsamples = 2\nvalue = [0, 6, 0, 0]\nclass = Alto", fillcolor="#47e539ff"] ;
16 -> 18 ;
19 [label="gini = 0.0\nsamples = 3\nvalue = [0, 6, 0, 0]\nclass = Alto", fillcolor="#47e539ff"] ;
15 -> 19 ;
20 [label="gini = 0.0\nsamples = 29\nvalue = [0, 49, 0, 0]\nclass = Alto", fillcolor="#47e539ff"] ;
6 -> 20 ;
21 [label="Size <= 55.5\ngini = 0.63\nsamples = 54\nvalue = [15, 36, 0, 31]\nclass = Alto", fillcolor="#47e53919"] ;
5 -> 21 ;
22 [label="Swimming Pool <= 0.5\ngini = 0.64\nsamples = 51\nvalue = [15, 33, 0, 31]\nclass = Alto", fillcolor="#47e5390b"] ;
21 -> 22 ;
23 [label="Condo <= 12.5\ngini = 0.54\nsamples = 29\nvalue = [5, 26, 0, 12]\nclass = Alto", fillcolor="#47e53973"] ;
22 -> 23 ;
24 [label="Rooms <= 1.5\ngini = 0.53\nsamples = 28\nvalue = [5, 26, 0, 11]\nclass = Alto", fillcolor="#47e5397b"] ;
23 -> 24 ;
25 [label="Size <= 52.0\ngini = 0.64\nsamples = 4\nvalue = [4, 2, 0, 3]\nclass = Muito Alto", fillcolor="#e581392a"] ;
24 -> 25 ;
26 [label="Size <= 49.5\ngini = 0.44\nsamples = 3\nvalue = [4, 2, 0, 0]\nclass = Muito Alto", fillcolor="#e581397f"] ;
25 -> 26 ;
27 [label="gini = 0.0\nsamples = 1\nvalue = [3, 0, 0, 0]\nclass = Muito Alto", fillcolor="#e58139ff"] ;
26 -> 27 ;
28 [label="gini = 0.44\nsamples = 2\nvalue = [1, 2, 0, 0]\nclass = Alto", fillcolor="#47e5397f"] ;
26 -> 28 ;
29 [label="gini = 0.0\nsamples = 1\nvalue = [0, 0, 0, 3]\nclass = Baixo", fillcolor="#d739e5ff"] ;
25 -> 29 ;
30 [label="Size <= 50.5\ngini = 0.41\nsamples = 24\nvalue = [1, 24, 0, 8]\nclass = Alto", fillcolor="#47e539a3"] ;
24 -> 30 ;
31 [label="Size <= 46.5\ngini = 0.29\nsamples = 19\nvalue = [1, 20, 0, 3]\nclass = Alto", fillcolor="#47e539ce"] ;
30 -> 31 ;
32 [label="gini = 0.0\nsamples = 4\nvalue = [0, 4, 0, 0]\nclass = Alto", fillcolor="#47e539ff"] ;
31 -> 32 ;
33 [label="Size <= 49.5\ngini = 0.34\nsamples = 15\nvalue = [1, 16, 0, 3]\nclass = Alto", fillcolor="#47e539c3"] ;
31 -> 33 ;
34 [label="Size <= 48.5\ngini = 0.4\nsamples = 9\nvalue = [1, 9, 0, 2]\nclass = Alto", fillcolor="#47e539b2"] ;
33 -> 34 ;
35 [label="gini = 0.37\nsamples = 7\nvalue = [1, 7, 0, 1]\nclass = Alto", fillcolor="#47e539bf"] ;
34 -> 35 ;
36 [label="gini = 0.44\nsamples = 2\nvalue = [0, 2, 0, 1]\nclass = Alto", fillcolor="#47e5397f"] ;
34 -> 36 ;
37 [label="gini = 0.22\nsamples = 6\nvalue = [0, 7, 0, 1]\nclass = Alto", fillcolor="#47e539db"] ;
33 -> 37 ;
38 [label="Size <= 51.5\ngini = 0.49\nsamples = 5\nvalue = [0, 4, 0, 5]\nclass = Baixo", fillcolor="#d739e533"] ;
30 -> 38 ;
39 [label="gini = 0.32\nsamples = 2\nvalue = [0, 1, 0, 4]\nclass = Baixo", fillcolor="#d739e5bf"] ;
38 -> 39 ;
40 [label="Size <= 53.5\ngini = 0.38\nsamples = 3\nvalue = [0, 3, 0, 1]\nclass = Alto", fillcolor="#47e539aa"] ;
38 -> 40 ;
41 [label="gini = 0.44\nsamples = 2\nvalue = [0, 2, 0, 1]\nclass = Alto", fillcolor="#47e5397f"] ;
40 -> 41 ;
42 [label="gini = 0.0\nsamples = 1\nvalue = [0, 1, 0, 0]\nclass = Alto", fillcolor="#47e539ff"] ;
40 -> 42 ;
43 [label="gini = 0.0\nsamples = 1\nvalue = [0, 0, 0, 1]\nclass = Baixo", fillcolor="#d739e5ff"] ;
23 -> 43 ;
44 [label="Size <= 48.5\ngini = 0.61\nsamples = 22\nvalue = [10, 7, 0, 19]\nclass = Baixo", fillcolor="#d739e558"] ;
22 -> 44 ;
45 [label="Rooms <= 1.5\ngini = 0.46\nsamples = 8\nvalue = [4, 0, 0, 7]\nclass = Baixo", fillcolor="#d739e56d"] ;
44 -> 45 ;
46 [label="gini = 0.0\nsamples = 1\nvalue = [2, 0, 0, 0]\nclass = Muito Alto", fillcolor="#e58139ff"] ;
45 -> 46 ;
47 [label="Size <= 47.5\ngini = 0.35\nsamples = 7\nvalue = [2, 0, 0, 7]\nclass = Baixo", fillcolor="#d739e5b6"] ;
45 -> 47 ;
48 [label="gini = 0.0\nsamples = 4\nvalue = [0, 0, 0, 5]\nclass = Baixo", fillcolor="#d739e5ff"] ;
47 -> 48 ;
49 [label="gini = 0.5\nsamples = 3\nvalue = [2, 0, 0, 2]\nclass = Muito Alto", fillcolor="#e5813900"] ;
47 -> 49 ;
50 [label="Size <= 49.5\ngini = 0.63\nsamples = 14\nvalue = [6, 7, 0, 12]\nclass = Baixo", fillcolor="#d739e547"] ;
44 -> 50 ;
51 [label="Rooms <= 1.5\ngini = 0.56\nsamples = 3\nvalue = [1, 3, 0, 1]\nclass = Alto", fillcolor="#47e5397f"] ;
50 -> 51 ;
52 [label="gini = 0.0\nsamples = 1\nvalue = [1, 0, 0, 0]\nclass = Muito Alto", fillcolor="#e58139ff"] ;
51 -> 52 ;
53 [label="gini = 0.38\nsamples = 2\nvalue = [0, 3, 0, 1]\nclass = Alto", fillcolor="#47e539aa"] ;
51 -> 53 ;
54 [label="Rooms <= 1.5\ngini = 0.6\nsamples = 11\nvalue = [5, 4, 0, 11]\nclass = Baixo", fillcolor="#d739e566"] ;
50 -> 54 ;
55 [label="gini = 0.0\nsamples = 1\nvalue = [2, 0, 0, 0]\nclass = Muito Alto", fillcolor="#e58139ff"] ;
54 -> 55 ;
56 [label="Size <= 54.5\ngini = 0.55\nsamples = 10\nvalue = [3, 4, 0, 11]\nclass = Baixo", fillcolor="#d739e580"] ;
54 -> 56 ;
57 [label="Size <= 53.0\ngini = 0.6\nsamples = 8\nvalue = [3, 4, 0, 8]\nclass = Baixo", fillcolor="#d739e55d"] ;
56 -> 57 ;
58 [label="Size <= 50.5\ngini = 0.54\nsamples = 7\nvalue = [3, 2, 0, 8]\nclass = Baixo", fillcolor="#d739e580"] ;
57 -> 58 ;
59 [label="gini = 0.41\nsamples = 3\nvalue = [0, 2, 0, 5]\nclass = Baixo", fillcolor="#d739e599"] ;
58 -> 59 ;
60 [label="Size <= 51.5\ngini = 0.5\nsamples = 4\nvalue = [3, 0, 0, 3]\nclass = Muito Alto", fillcolor="#e5813900"] ;
58 -> 60 ;
61 [label="gini = 0.0\nsamples = 1\nvalue = [1, 0, 0, 0]\nclass = Muito Alto", fillcolor="#e58139ff"] ;
60 -> 61 ;
62 [label="gini = 0.48\nsamples = 3\nvalue = [2, 0, 0, 3]\nclass = Baixo", fillcolor="#d739e555"] ;
60 -> 62 ;
63 [label="gini = 0.0\nsamples = 1\nvalue = [0, 2, 0, 0]\nclass = Alto", fillcolor="#47e539ff"] ;
57 -> 63 ;
64 [label="gini = 0.0\nsamples = 2\nvalue = [0, 0, 0, 3]\nclass = Baixo", fillcolor="#d739e5ff"] ;
56 -> 64 ;
65 [label="gini = 0.0\nsamples = 3\nvalue = [0, 3, 0, 0]\nclass = Alto", fillcolor="#47e539ff"] ;
21 -> 65 ;
66 [label="Swimming Pool <= 0.5\ngini = 0.52\nsamples = 183\nvalue = [16, 169, 0, 94]\nclass = Alto", fillcolor="#47e53967"] ;
4 -> 66 ;
67 [label="Condo <= 1.5\ngini = 0.28\nsamples = 97\nvalue = [5, 124, 0, 19]\nclass = Alto", fillcolor="#47e539d0"] ;
66 -> 67 ;
68 [label="Size <= 54.5\ngini = 0.28\nsamples = 96\nvalue = [5, 123, 0, 19]\nclass = Alto", fillcolor="#47e539cf"] ;
67 -> 68 ;
69 [label="Rooms <= 1.5\ngini = 0.23\nsamples = 89\nvalue = [5, 118, 0, 12]\nclass = Alto", fillcolor="#47e539dc"] ;
68 -> 69 ;
70 [label="Size <= 32.5\ngini = 0.62\nsamples = 7\nvalue = [2, 5, 0, 3]\nclass = Alto", fillcolor="#47e53949"] ;
69 -> 70 ;
71 [label="gini = 0.0\nsamples = 3\nvalue = [0, 4, 0, 0]\nclass = Alto", fillcolor="#47e539ff"] ;
70 -> 71 ;
72 [label="Size <= 34.0\ngini = 0.61\nsamples = 4\nvalue = [2, 1, 0, 3]\nclass = Baixo", fillcolor="#d739e540"] ;
70 -> 72 ;
73 [label="gini = 0.0\nsamples = 1\nvalue = [2, 0, 0, 0]\nclass = Muito Alto", fillcolor="#e58139ff"] ;
72 -> 73 ;
74 [label="Size <= 40.5\ngini = 0.38\nsamples = 3\nvalue = [0, 1, 0, 3]\nclass = Baixo", fillcolor="#d739e5aa"] ;
72 -> 74 ;
75 [label="Size <= 36.5\ngini = 0.5\nsamples = 2\nvalue = [0, 1, 0, 1]\nclass = Alto", fillcolor="#47e53900"] ;
74 -> 75 ;
76 [label="gini = 0.0\nsamples = 1\nvalue = [0, 0, 0, 1]\nclass = Baixo", fillcolor="#d739e5ff"] ;
75 -> 76 ;
77 [label="gini = 0.0\nsamples = 1\nvalue = [0, 1, 0, 0]\nclass = Alto", fillcolor="#47e539ff"] ;
75 -> 77 ;
78 [label="gini = 0.0\nsamples = 1\nvalue = [0, 0, 0, 2]\nclass = Baixo", fillcolor="#d739e5ff"] ;
74 -> 78 ;
79 [label="Size <= 49.5\ngini = 0.18\nsamples = 82\nvalue = [3, 113, 0, 9]\nclass = Alto", fillcolor="#47e539e5"] ;
69 -> 79 ;
80 [label="Size <= 43.5\ngini = 0.06\nsamples = 62\nvalue = [0, 92, 0, 3]\nclass = Alto", fillcolor="#47e539f7"] ;
79 -> 80 ;
81 [label="gini = 0.0\nsamples = 36\nvalue = [0, 59, 0, 0]\nclass = Alto", fillcolor="#47e539ff"] ;
80 -> 81 ;
82 [label="Size <= 48.5\ngini = 0.15\nsamples = 26\nvalue = [0, 33, 0, 3]\nclass = Alto", fillcolor="#47e539e8"] ;
80 -> 82 ;
83 [label="Size <= 47.5\ngini = 0.19\nsamples = 21\nvalue = [0, 25, 0, 3]\nclass = Alto", fillcolor="#47e539e0"] ;
82 -> 83 ;
84 [label="Size <= 44.5\ngini = 0.1\nsamples = 14\nvalue = [0, 17, 0, 1]\nclass = Alto", fillcolor="#47e539f0"] ;
83 -> 84 ;
85 [label="gini = 0.22\nsamples = 5\nvalue = [0, 7, 0, 1]\nclass = Alto", fillcolor="#47e539db"] ;
84 -> 85 ;
86 [label="gini = 0.0\nsamples = 9\nvalue = [0, 10, 0, 0]\nclass = Alto", fillcolor="#47e539ff"] ;
84 -> 86 ;
87 [label="gini = 0.32\nsamples = 7\nvalue = [0, 8, 0, 2]\nclass = Alto", fillcolor="#47e539bf"] ;
83 -> 87 ;
88 [label="gini = 0.0\nsamples = 5\nvalue = [0, 8, 0, 0]\nclass = Alto", fillcolor="#47e539ff"] ;
82 -> 88 ;
89 [label="Size <= 50.5\ngini = 0.46\nsamples = 20\nvalue = [3, 21, 0, 6]\nclass = Alto", fillcolor="#47e5399f"] ;
79 -> 89 ;
90 [label="gini = 0.49\nsamples = 7\nvalue = [0, 4, 0, 5]\nclass = Baixo", fillcolor="#d739e533"] ;
89 -> 90 ;
91 [label="Size <= 52.5\ngini = 0.32\nsamples = 13\nvalue = [3, 17, 0, 1]\nclass = Alto", fillcolor="#47e539c6"] ;
89 -> 91 ;
92 [label="Size <= 51.5\ngini = 0.24\nsamples = 10\nvalue = [1, 13, 0, 1]\nclass = Alto", fillcolor="#47e539db"] ;
91 -> 92 ;
93 [label="Rooms <= 2.5\ngini = 0.38\nsamples = 3\nvalue = [0, 3, 0, 1]\nclass = Alto", fillcolor="#47e539aa"] ;
92 -> 93 ;
94 [label="gini = 0.0\nsamples = 2\nvalue = [0, 3, 0, 0]\nclass = Alto", fillcolor="#47e539ff"] ;
93 -> 94 ;
95 [label="gini = 0.0\nsamples = 1\nvalue = [0, 0, 0, 1]\nclass = Baixo", fillcolor="#d739e5ff"] ;
93 -> 95 ;
96 [label="Rooms <= 2.5\ngini = 0.17\nsamples = 7\nvalue = [1, 10, 0, 0]\nclass = Alto", fillcolor="#47e539e6"] ;
92 -> 96 ;
97 [label="gini = 0.18\nsamples = 6\nvalue = [1, 9, 0, 0]\nclass = Alto", fillcolor="#47e539e3"] ;
96 -> 97 ;
98 [label="gini = 0.0\nsamples = 1\nvalue = [0, 1, 0, 0]\nclass = Alto", fillcolor="#47e539ff"] ;
96 -> 98 ;
99 [label="Size <= 53.5\ngini = 0.44\nsamples = 3\nvalue = [2, 4, 0, 0]\nclass = Alto", fillcolor="#47e5397f"] ;
91 -> 99 ;
100 [label="gini = 0.0\nsamples = 1\nvalue = [2, 0, 0, 0]\nclass = Muito Alto", fillcolor="#e58139ff"] ;
99 -> 100 ;
101 [label="gini = 0.0\nsamples = 2\nvalue = [0, 4, 0, 0]\nclass = Alto", fillcolor="#47e539ff"] ;
99 -> 101 ;
102 [label="Rooms <= 2.5\ngini = 0.49\nsamples = 7\nvalue = [0, 5, 0, 7]\nclass = Baixo", fillcolor="#d739e549"] ;
68 -> 102 ;
103 [label="Size <= 55.5\ngini = 0.49\nsamples = 5\nvalue = [0, 3, 0, 4]\nclass = Baixo", fillcolor="#d739e540"] ;
102 -> 103 ;
104 [label="gini = 0.44\nsamples = 2\nvalue = [0, 2, 0, 1]\nclass = Alto", fillcolor="#47e5397f"] ;
103 -> 104 ;
105 [label="gini = 0.38\nsamples = 3\nvalue = [0, 1, 0, 3]\nclass = Baixo", fillcolor="#d739e5aa"] ;
103 -> 105 ;
106 [label="Size <= 56.0\ngini = 0.48\nsamples = 2\nvalue = [0, 2, 0, 3]\nclass = Baixo", fillcolor="#d739e555"] ;
102 -> 106 ;
107 [label="gini = 0.0\nsamples = 1\nvalue = [0, 0, 0, 3]\nclass = Baixo", fillcolor="#d739e5ff"] ;
106 -> 107 ;
108 [label="gini = 0.0\nsamples = 1\nvalue = [0, 2, 0, 0]\nclass = Alto", fillcolor="#47e539ff"] ;
106 -> 108 ;
109 [label="gini = 0.0\nsamples = 1\nvalue = [0, 1, 0, 0]\nclass = Alto", fillcolor="#47e539ff"] ;
67 -> 109 ;
110 [label="Size <= 44.5\ngini = 0.55\nsamples = 86\nvalue = [11, 45, 0, 75]\nclass = Baixo", fillcolor="#d739e559"] ;
66 -> 110 ;
111 [label="Rooms <= 1.5\ngini = 0.49\nsamples = 32\nvalue = [4, 34, 0, 14]\nclass = Alto", fillcolor="#47e53986"] ;
110 -> 111 ;
112 [label="Size <= 37.5\ngini = 0.58\nsamples = 12\nvalue = [4, 4, 0, 11]\nclass = Baixo", fillcolor="#d739e577"] ;
111 -> 112 ;
113 [label="Size <= 35.5\ngini = 0.22\nsamples = 4\nvalue = [1, 0, 0, 7]\nclass = Baixo", fillcolor="#d739e5db"] ;
112 -> 113 ;
114 [label="Size <= 33.5\ngini = 0.38\nsamples = 2\nvalue = [1, 0, 0, 3]\nclass = Baixo", fillcolor="#d739e5aa"] ;
113 -> 114 ;
115 [label="gini = 0.0\nsamples = 1\nvalue = [0, 0, 0, 3]\nclass = Baixo", fillcolor="#d739e5ff"] ;
114 -> 115 ;
116 [label="gini = 0.0\nsamples = 1\nvalue = [1, 0, 0, 0]\nclass = Muito Alto", fillcolor="#e58139ff"] ;
114 -> 116 ;
117 [label="gini = 0.0\nsamples = 2\nvalue = [0, 0, 0, 4]\nclass = Baixo", fillcolor="#d739e5ff"] ;
113 -> 117 ;
118 [label="Size <= 38.5\ngini = 0.66\nsamples = 8\nvalue = [3, 4, 0, 4]\nclass = Alto", fillcolor="#47e53900"] ;
112 -> 118 ;
119 [label="gini = 0.38\nsamples = 3\nvalue = [0, 3, 0, 1]\nclass = Alto", fillcolor="#47e539aa"] ;
118 -> 119 ;
120 [label="Size <= 41.5\ngini = 0.61\nsamples = 5\nvalue = [3, 1, 0, 3]\nclass = Muito Alto", fillcolor="#e5813900"] ;
118 -> 120 ;
121 [label="Size <= 40.5\ngini = 0.38\nsamples = 3\nvalue = [3, 0, 0, 1]\nclass = Muito Alto", fillcolor="#e58139aa"] ;
120 -> 121 ;
122 [label="Size <= 39.5\ngini = 0.5\nsamples = 2\nvalue = [1, 0, 0, 1]\nclass = Muito Alto", fillcolor="#e5813900"] ;
121 -> 122 ;
123 [label="gini = 0.0\nsamples = 1\nvalue = [1, 0, 0, 0]\nclass = Muito Alto", fillcolor="#e58139ff"] ;
122 -> 123 ;
124 [label="gini = 0.0\nsamples = 1\nvalue = [0, 0, 0, 1]\nclass = Baixo", fillcolor="#d739e5ff"] ;
122 -> 124 ;
125 [label="gini = 0.0\nsamples = 1\nvalue = [2, 0, 0, 0]\nclass = Muito Alto", fillcolor="#e58139ff"] ;
121 -> 125 ;
126 [label="Size <= 42.5\ngini = 0.44\nsamples = 2\nvalue = [0, 1, 0, 2]\nclass = Baixo", fillcolor="#d739e57f"] ;
120 -> 126 ;
127 [label="gini = 0.0\nsamples = 1\nvalue = [0, 0, 0, 2]\nclass = Baixo", fillcolor="#d739e5ff"] ;
126 -> 127 ;
128 [label="gini = 0.0\nsamples = 1\nvalue = [0, 1, 0, 0]\nclass = Alto", fillcolor="#47e539ff"] ;
126 -> 128 ;
129 [label="Size <= 43.5\ngini = 0.17\nsamples = 20\nvalue = [0, 30, 0, 3]\nclass = Alto", fillcolor="#47e539e6"] ;
111 -> 129 ;
130 [label="Size <= 39.5\ngini = 0.07\nsamples = 17\nvalue = [0, 25, 0, 1]\nclass = Alto", fillcolor="#47e539f5"] ;
129 -> 130 ;
131 [label="Size <= 38.0\ngini = 0.44\nsamples = 2\nvalue = [0, 2, 0, 1]\nclass = Alto", fillcolor="#47e5397f"] ;
130 -> 131 ;
132 [label="gini = 0.0\nsamples = 1\nvalue = [0, 2, 0, 0]\nclass = Alto", fillcolor="#47e539ff"] ;
131 -> 132 ;
133 [label="gini = 0.0\nsamples = 1\nvalue = [0, 0, 0, 1]\nclass = Baixo", fillcolor="#d739e5ff"] ;
131 -> 133 ;
134 [label="gini = 0.0\nsamples = 15\nvalue = [0, 23, 0, 0]\nclass = Alto", fillcolor="#47e539ff"] ;
130 -> 134 ;
135 [label="gini = 0.41\nsamples = 3\nvalue = [0, 5, 0, 2]\nclass = Alto", fillcolor="#47e53999"] ;
129 -> 135 ;
136 [label="Suites <= 0.5\ngini = 0.38\nsamples = 54\nvalue = [7, 11, 0, 61]\nclass = Baixo", fillcolor="#d739e5bc"] ;
110 -> 136 ;
137 [label="gini = 0.0\nsamples = 1\nvalue = [0, 0, 0, 1]\nclass = Baixo", fillcolor="#d739e5ff"] ;
136 -> 137 ;
138 [label="Size <= 47.5\ngini = 0.38\nsamples = 53\nvalue = [7, 11, 0, 60]\nclass = Baixo", fillcolor="#d739e5ba"] ;
136 -> 138 ;
139 [label="Size <= 45.5\ngini = 0.5\nsamples = 15\nvalue = [1, 7, 0, 13]\nclass = Baixo", fillcolor="#d739e56d"] ;
138 -> 139 ;
140 [label="gini = 0.36\nsamples = 9\nvalue = [1, 2, 0, 11]\nclass = Baixo", fillcolor="#d739e5bf"] ;
139 -> 140 ;
141 [label="Size <= 46.5\ngini = 0.41\nsamples = 6\nvalue = [0, 5, 0, 2]\nclass = Alto", fillcolor="#47e53999"] ;
139 -> 141 ;
142 [label="gini = 0.38\nsamples = 3\nvalue = [0, 3, 0, 1]\nclass = Alto", fillcolor="#47e539aa"] ;
141 -> 142 ;
143 [label="gini = 0.44\nsamples = 3\nvalue = [0, 2, 0, 1]\nclass = Alto", fillcolor="#47e5397f"] ;
141 -> 143 ;
144 [label="Size <= 53.5\ngini = 0.3\nsamples = 38\nvalue = [6, 4, 0, 47]\nclass = Baixo", fillcolor="#d739e5cd"] ;
138 -> 144 ;
145 [label="Size <= 52.0\ngini = 0.21\nsamples = 28\nvalue = [2, 3, 0, 39]\nclass = Baixo", fillcolor="#d739e5e0"] ;
144 -> 145 ;
146 [label="Size <= 50.5\ngini = 0.27\nsamples = 22\nvalue = [2, 3, 0, 28]\nclass = Baixo", fillcolor="#d739e5d4"] ;
145 -> 146 ;
147 [label="Size <= 49.5\ngini = 0.16\nsamples = 15\nvalue = [1, 1, 0, 22]\nclass = Baixo", fillcolor="#d739e5e9"] ;
146 -> 147 ;
148 [label="Size <= 48.5\ngini = 0.14\nsamples = 7\nvalue = [0, 1, 0, 12]\nclass = Baixo", fillcolor="#d739e5ea"] ;
147 -> 148 ;
149 [label="gini = 0.0\nsamples = 1\nvalue = [0, 0, 0, 3]\nclass = Baixo", fillcolor="#d739e5ff"] ;
148 -> 149 ;
150 [label="gini = 0.18\nsamples = 6\nvalue = [0, 1, 0, 9]\nclass = Baixo", fillcolor="#d739e5e3"] ;
148 -> 150 ;
151 [label="gini = 0.17\nsamples = 8\nvalue = [1, 0, 0, 10]\nclass = Baixo", fillcolor="#d739e5e6"] ;
147 -> 151 ;
152 [label="gini = 0.49\nsamples = 7\nvalue = [1, 2, 0, 6]\nclass = Baixo", fillcolor="#d739e592"] ;
146 -> 152 ;
153 [label="gini = 0.0\nsamples = 6\nvalue = [0, 0, 0, 11]\nclass = Baixo", fillcolor="#d739e5ff"] ;
145 -> 153 ;
154 [label="Size <= 55.5\ngini = 0.52\nsamples = 10\nvalue = [4, 1, 0, 8]\nclass = Baixo", fillcolor="#d739e571"] ;
144 -> 154 ;
155 [label="Size <= 54.5\ngini = 0.5\nsamples = 6\nvalue = [4, 1, 0, 1]\nclass = Muito Alto", fillcolor="#e5813999"] ;
154 -> 155 ;
156 [label="gini = 0.38\nsamples = 4\nvalue = [3, 0, 0, 1]\nclass = Muito Alto", fillcolor="#e58139aa"] ;
155 -> 156 ;
157 [label="gini = 0.5\nsamples = 2\nvalue = [1, 1, 0, 0]\nclass = Muito Alto", fillcolor="#e5813900"] ;
155 -> 157 ;
158 [label="gini = 0.0\nsamples = 4\nvalue = [0, 0, 0, 7]\nclass = Baixo", fillcolor="#d739e5ff"] ;
154 -> 158 ;
159 [label="Rooms <= 1.5\ngini = 0.22\nsamples = 443\nvalue = [9, 622, 0, 79]\nclass = Alto", fillcolor="#47e539db"] ;
3 -> 159 ;
160 [label="Size <= 35.5\ngini = 0.39\nsamples = 59\nvalue = [8, 71, 0, 14]\nclass = Alto", fillcolor="#47e539b8"] ;
159 -> 160 ;
161 [label="Toilets <= 1.5\ngini = 0.15\nsamples = 33\nvalue = [1, 45, 0, 3]\nclass = Alto", fillcolor="#47e539e9"] ;
160 -> 161 ;
162 [label="Condo <= 286.0\ngini = 0.07\nsamples = 19\nvalue = [0, 28, 0, 1]\nclass = Alto", fillcolor="#47e539f6"] ;
161 -> 162 ;
163 [label="gini = 0.0\nsamples = 17\nvalue = [0, 26, 0, 0]\nclass = Alto", fillcolor="#47e539ff"] ;
162 -> 163 ;
164 [label="Swimming Pool <= 0.5\ngini = 0.44\nsamples = 2\nvalue = [0, 2, 0, 1]\nclass = Alto", fillcolor="#47e5397f"] ;
162 -> 164 ;
165 [label="gini = 0.0\nsamples = 1\nvalue = [0, 2, 0, 0]\nclass = Alto", fillcolor="#47e539ff"] ;
164 -> 165 ;
166 [label="gini = 0.0\nsamples = 1\nvalue = [0, 0, 0, 1]\nclass = Baixo", fillcolor="#d739e5ff"] ;
164 -> 166 ;
167 [label="Swimming Pool <= 0.5\ngini = 0.26\nsamples = 14\nvalue = [1, 17, 0, 2]\nclass = Alto", fillcolor="#47e539d4"] ;
161 -> 167 ;
168 [label="Condo <= 309.5\ngini = 0.24\nsamples = 10\nvalue = [1, 13, 0, 1]\nclass = Alto", fillcolor="#47e539db"] ;
167 -> 168 ;
169 [label="gini = 0.0\nsamples = 8\nvalue = [0, 13, 0, 0]\nclass = Alto", fillcolor="#47e539ff"] ;
168 -> 169 ;
170 [label="Condo <= 319.5\ngini = 0.5\nsamples = 2\nvalue = [1, 0, 0, 1]\nclass = Muito Alto", fillcolor="#e5813900"] ;
168 -> 170 ;
171 [label="gini = 0.0\nsamples = 1\nvalue = [0, 0, 0, 1]\nclass = Baixo", fillcolor="#d739e5ff"] ;
170 -> 171 ;
172 [label="gini = 0.0\nsamples = 1\nvalue = [1, 0, 0, 0]\nclass = Muito Alto", fillcolor="#e58139ff"] ;
170 -> 172 ;
173 [label="Condo <= 295.0\ngini = 0.32\nsamples = 4\nvalue = [0, 4, 0, 1]\nclass = Alto", fillcolor="#47e539bf"] ;
167 -> 173 ;
174 [label="gini = 0.0\nsamples = 2\nvalue = [0, 3, 0, 0]\nclass = Alto", fillcolor="#47e539ff"] ;
173 -> 174 ;
175 [label="gini = 0.5\nsamples = 2\nvalue = [0, 1, 0, 1]\nclass = Alto", fillcolor="#47e53900"] ;
173 -> 175 ;
176 [label="Condo <= 281.0\ngini = 0.56\nsamples = 26\nvalue = [7, 26, 0, 11]\nclass = Alto", fillcolor="#47e53974"] ;
160 -> 176 ;
177 [label="Condo <= 172.5\ngini = 0.19\nsamples = 10\nvalue = [0, 17, 0, 2]\nclass = Alto", fillcolor="#47e539e1"] ;
176 -> 177 ;
178 [label="Suites <= 0.5\ngini = 0.44\nsamples = 2\nvalue = [0, 1, 0, 2]\nclass = Baixo", fillcolor="#d739e57f"] ;
177 -> 178 ;
179 [label="gini = 0.0\nsamples = 1\nvalue = [0, 0, 0, 2]\nclass = Baixo", fillcolor="#d739e5ff"] ;
178 -> 179 ;
180 [label="gini = 0.0\nsamples = 1\nvalue = [0, 1, 0, 0]\nclass = Alto", fillcolor="#47e539ff"] ;
178 -> 180 ;
181 [label="gini = 0.0\nsamples = 8\nvalue = [0, 16, 0, 0]\nclass = Alto", fillcolor="#47e539ff"] ;
177 -> 181 ;
182 [label="Condo <= 318.0\ngini = 0.66\nsamples = 16\nvalue = [7, 9, 0, 9]\nclass = Alto", fillcolor="#47e53900"] ;
176 -> 182 ;
183 [label="Size <= 39.5\ngini = 0.66\nsamples = 15\nvalue = [7, 6, 0, 9]\nclass = Baixo", fillcolor="#d739e522"] ;
182 -> 183 ;
184 [label="Toilets <= 1.5\ngini = 0.44\nsamples = 5\nvalue = [0, 2, 0, 4]\nclass = Baixo", fillcolor="#d739e57f"] ;
183 -> 184 ;
185 [label="gini = 0.0\nsamples = 2\nvalue = [0, 0, 0, 3]\nclass = Baixo", fillcolor="#d739e5ff"] ;
184 -> 185 ;
186 [label="Size <= 37.0\ngini = 0.44\nsamples = 3\nvalue = [0, 2, 0, 1]\nclass = Alto", fillcolor="#47e5397f"] ;
184 -> 186 ;
187 [label="gini = 0.5\nsamples = 2\nvalue = [0, 1, 0, 1]\nclass = Alto", fillcolor="#47e53900"] ;
186 -> 187 ;
188 [label="gini = 0.0\nsamples = 1\nvalue = [0, 1, 0, 0]\nclass = Alto", fillcolor="#47e539ff"] ;
186 -> 188 ;
189 [label="Condo <= 305.0\ngini = 0.65\nsamples = 10\nvalue = [7, 4, 0, 5]\nclass = Muito Alto", fillcolor="#e581392e"] ;
183 -> 189 ;
190 [label="Suites <= 0.5\ngini = 0.64\nsamples = 7\nvalue = [2, 4, 0, 4]\nclass = Alto", fillcolor="#47e53900"] ;
189 -> 190 ;
191 [label="Size <= 44.5\ngini = 0.44\nsamples = 2\nvalue = [0, 2, 0, 1]\nclass = Alto", fillcolor="#47e5397f"] ;
190 -> 191 ;
192 [label="gini = 0.0\nsamples = 1\nvalue = [0, 0, 0, 1]\nclass = Baixo", fillcolor="#d739e5ff"] ;
191 -> 192 ;
193 [label="gini = 0.0\nsamples = 1\nvalue = [0, 2, 0, 0]\nclass = Alto", fillcolor="#47e539ff"] ;
191 -> 193 ;
194 [label="Size <= 43.5\ngini = 0.65\nsamples = 5\nvalue = [2, 2, 0, 3]\nclass = Baixo", fillcolor="#d739e533"] ;
190 -> 194 ;
195 [label="Size <= 41.5\ngini = 0.5\nsamples = 2\nvalue = [2, 2, 0, 0]\nclass = Muito Alto", fillcolor="#e5813900"] ;
194 -> 195 ;
196 [label="gini = 0.0\nsamples = 1\nvalue = [2, 0, 0, 0]\nclass = Muito Alto", fillcolor="#e58139ff"] ;
195 -> 196 ;
197 [label="gini = 0.0\nsamples = 1\nvalue = [0, 2, 0, 0]\nclass = Alto", fillcolor="#47e539ff"] ;
195 -> 197 ;
198 [label="gini = 0.0\nsamples = 3\nvalue = [0, 0, 0, 3]\nclass = Baixo", fillcolor="#d739e5ff"] ;
194 -> 198 ;
199 [label="Size <= 46.0\ngini = 0.28\nsamples = 3\nvalue = [5, 0, 0, 1]\nclass = Muito Alto", fillcolor="#e58139cc"] ;
189 -> 199 ;
200 [label="gini = 0.0\nsamples = 1\nvalue = [4, 0, 0, 0]\nclass = Muito Alto", fillcolor="#e58139ff"] ;
199 -> 200 ;
201 [label="Size <= 52.5\ngini = 0.5\nsamples = 2\nvalue = [1, 0, 0, 1]\nclass = Muito Alto", fillcolor="#e5813900"] ;
199 -> 201 ;
202 [label="gini = 0.0\nsamples = 1\nvalue = [0, 0, 0, 1]\nclass = Baixo", fillcolor="#d739e5ff"] ;
201 -> 202 ;
203 [label="gini = 0.0\nsamples = 1\nvalue = [1, 0, 0, 0]\nclass = Muito Alto", fillcolor="#e58139ff"] ;
201 -> 203 ;
204 [label="gini = 0.0\nsamples = 1\nvalue = [0, 3, 0, 0]\nclass = Alto", fillcolor="#47e539ff"] ;
182 -> 204 ;
205 [label="Condo <= 269.5\ngini = 0.19\nsamples = 384\nvalue = [1, 551, 0, 65]\nclass = Alto", fillcolor="#47e539e1"] ;
159 -> 205 ;
206 [label="Size <= 31.0\ngini = 0.08\nsamples = 269\nvalue = [0, 414, 0, 18]\nclass = Alto", fillcolor="#47e539f4"] ;
205 -> 206 ;
207 [label="gini = 0.0\nsamples = 1\nvalue = [0, 0, 0, 1]\nclass = Baixo", fillcolor="#d739e5ff"] ;
206 -> 207 ;
208 [label="Size <= 49.5\ngini = 0.08\nsamples = 268\nvalue = [0, 414, 0, 17]\nclass = Alto", fillcolor="#47e539f5"] ;
206 -> 208 ;
209 [label="Condo <= 257.5\ngini = 0.03\nsamples = 174\nvalue = [0, 277, 0, 4]\nclass = Alto", fillcolor="#47e539fb"] ;
208 -> 209 ;
210 [label="Suites <= 0.5\ngini = 0.02\nsamples = 165\nvalue = [0, 266, 0, 3]\nclass = Alto", fillcolor="#47e539fc"] ;
209 -> 210 ;
211 [label="Size <= 41.5\ngini = 0.02\nsamples = 69\nvalue = [0, 111, 0, 1]\nclass = Alto", fillcolor="#47e539fd"] ;
210 -> 211 ;
212 [label="Condo <= 195.0\ngini = 0.05\nsamples = 25\nvalue = [0, 39, 0, 1]\nclass = Alto", fillcolor="#47e539f8"] ;
211 -> 212 ;
213 [label="gini = 0.0\nsamples = 15\nvalue = [0, 23, 0, 0]\nclass = Alto", fillcolor="#47e539ff"] ;
212 -> 213 ;
214 [label="Condo <= 205.0\ngini = 0.11\nsamples = 10\nvalue = [0, 16, 0, 1]\nclass = Alto", fillcolor="#47e539ef"] ;
212 -> 214 ;
215 [label="Size <= 40.5\ngini = 0.15\nsamples = 7\nvalue = [0, 11, 0, 1]\nclass = Alto", fillcolor="#47e539e8"] ;
214 -> 215 ;
216 [label="gini = 0.0\nsamples = 5\nvalue = [0, 9, 0, 0]\nclass = Alto", fillcolor="#47e539ff"] ;
215 -> 216 ;
217 [label="gini = 0.44\nsamples = 2\nvalue = [0, 2, 0, 1]\nclass = Alto", fillcolor="#47e5397f"] ;
215 -> 217 ;
218 [label="gini = 0.0\nsamples = 3\nvalue = [0, 5, 0, 0]\nclass = Alto", fillcolor="#47e539ff"] ;
214 -> 218 ;
219 [label="gini = 0.0\nsamples = 44\nvalue = [0, 72, 0, 0]\nclass = Alto", fillcolor="#47e539ff"] ;
211 -> 219 ;
220 [label="Swimming Pool <= 0.5\ngini = 0.03\nsamples = 96\nvalue = [0, 155, 0, 2]\nclass = Alto", fillcolor="#47e539fc"] ;
210 -> 220 ;
221 [label="Size <= 35.5\ngini = 0.03\nsamples = 75\nvalue = [0, 116, 0, 2]\nclass = Alto", fillcolor="#47e539fb"] ;
220 -> 221 ;
222 [label="Condo <= 165.0\ngini = 0.44\nsamples = 3\nvalue = [0, 2, 0, 1]\nclass = Alto", fillcolor="#47e5397f"] ;
221 -> 222 ;
223 [label="gini = 0.0\nsamples = 1\nvalue = [0, 1, 0, 0]\nclass = Alto", fillcolor="#47e539ff"] ;
222 -> 223 ;
224 [label="Condo <= 190.0\ngini = 0.5\nsamples = 2\nvalue = [0, 1, 0, 1]\nclass = Alto", fillcolor="#47e53900"] ;
222 -> 224 ;
225 [label="gini = 0.0\nsamples = 1\nvalue = [0, 0, 0, 1]\nclass = Baixo", fillcolor="#d739e5ff"] ;
224 -> 225 ;
226 [label="gini = 0.0\nsamples = 1\nvalue = [0, 1, 0, 0]\nclass = Alto", fillcolor="#47e539ff"] ;
224 -> 226 ;
227 [label="Rooms <= 2.5\ngini = 0.02\nsamples = 72\nvalue = [0, 114, 0, 1]\nclass = Alto", fillcolor="#47e539fd"] ;
221 -> 227 ;
228 [label="Condo <= 210.0\ngini = 0.02\nsamples = 70\nvalue = [0, 111, 0, 1]\nclass = Alto", fillcolor="#47e539fd"] ;
227 -> 228 ;
229 [label="gini = 0.0\nsamples = 52\nvalue = [0, 86, 0, 0]\nclass = Alto", fillcolor="#47e539ff"] ;
228 -> 229 ;
230 [label="Size <= 45.5\ngini = 0.07\nsamples = 18\nvalue = [0, 25, 0, 1]\nclass = Alto", fillcolor="#47e539f5"] ;
228 -> 230 ;
231 [label="gini = 0.0\nsamples = 6\nvalue = [0, 9, 0, 0]\nclass = Alto", fillcolor="#47e539ff"] ;
230 -> 231 ;
232 [label="Size <= 46.5\ngini = 0.11\nsamples = 12\nvalue = [0, 16, 0, 1]\nclass = Alto", fillcolor="#47e539ef"] ;
230 -> 232 ;
233 [label="Condo <= 235.0\ngini = 0.22\nsamples = 5\nvalue = [0, 7, 0, 1]\nclass = Alto", fillcolor="#47e539db"] ;
232 -> 233 ;
234 [label="gini = 0.0\nsamples = 1\nvalue = [0, 0, 0, 1]\nclass = Baixo", fillcolor="#d739e5ff"] ;
233 -> 234 ;
235 [label="gini = 0.0\nsamples = 4\nvalue = [0, 7, 0, 0]\nclass = Alto", fillcolor="#47e539ff"] ;
233 -> 235 ;
236 [label="gini = 0.0\nsamples = 7\nvalue = [0, 9, 0, 0]\nclass = Alto", fillcolor="#47e539ff"] ;
232 -> 236 ;
237 [label="gini = 0.0\nsamples = 2\nvalue = [0, 3, 0, 0]\nclass = Alto", fillcolor="#47e539ff"] ;
227 -> 237 ;
238 [label="gini = 0.0\nsamples = 21\nvalue = [0, 39, 0, 0]\nclass = Alto", fillcolor="#47e539ff"] ;
220 -> 238 ;
239 [label="Suites <= 0.5\ngini = 0.15\nsamples = 9\nvalue = [0, 11, 0, 1]\nclass = Alto", fillcolor="#47e539e8"] ;
209 -> 239 ;
240 [label="Size <= 47.5\ngini = 0.38\nsamples = 2\nvalue = [0, 3, 0, 1]\nclass = Alto", fillcolor="#47e539aa"] ;
239 -> 240 ;
241 [label="gini = 0.0\nsamples = 1\nvalue = [0, 0, 0, 1]\nclass = Baixo", fillcolor="#d739e5ff"] ;
240 -> 241 ;
242 [label="gini = 0.0\nsamples = 1\nvalue = [0, 3, 0, 0]\nclass = Alto", fillcolor="#47e539ff"] ;
240 -> 242 ;
243 [label="gini = 0.0\nsamples = 7\nvalue = [0, 8, 0, 0]\nclass = Alto", fillcolor="#47e539ff"] ;
239 -> 243 ;
244 [label="Condo <= 195.0\ngini = 0.16\nsamples = 94\nvalue = [0, 137, 0, 13]\nclass = Alto", fillcolor="#47e539e7"] ;
208 -> 244 ;
245 [label="gini = 0.0\nsamples = 47\nvalue = [0, 75, 0, 0]\nclass = Alto", fillcolor="#47e539ff"] ;
244 -> 245 ;
246 [label="Size <= 52.5\ngini = 0.29\nsamples = 47\nvalue = [0, 62, 0, 13]\nclass = Alto", fillcolor="#47e539ca"] ;
244 -> 246 ;
247 [label="Size <= 50.5\ngini = 0.2\nsamples = 28\nvalue = [0, 40, 0, 5]\nclass = Alto", fillcolor="#47e539df"] ;
246 -> 247 ;
248 [label="Suites <= 0.5\ngini = 0.38\nsamples = 10\nvalue = [0, 12, 0, 4]\nclass = Alto", fillcolor="#47e539aa"] ;
247 -> 248 ;
249 [label="Swimming Pool <= 0.5\ngini = 0.49\nsamples = 4\nvalue = [0, 4, 0, 3]\nclass = Alto", fillcolor="#47e53940"] ;
248 -> 249 ;
250 [label="Condo <= 225.0\ngini = 0.48\nsamples = 3\nvalue = [0, 2, 0, 3]\nclass = Baixo", fillcolor="#d739e555"] ;
249 -> 250 ;
251 [label="gini = 0.0\nsamples = 1\nvalue = [0, 1, 0, 0]\nclass = Alto", fillcolor="#47e539ff"] ;
250 -> 251 ;
252 [label="Condo <= 252.5\ngini = 0.38\nsamples = 2\nvalue = [0, 1, 0, 3]\nclass = Baixo", fillcolor="#d739e5aa"] ;
250 -> 252 ;
253 [label="gini = 0.0\nsamples = 1\nvalue = [0, 0, 0, 3]\nclass = Baixo", fillcolor="#d739e5ff"] ;
252 -> 253 ;
254 [label="gini = 0.0\nsamples = 1\nvalue = [0, 1, 0, 0]\nclass = Alto", fillcolor="#47e539ff"] ;
252 -> 254 ;
255 [label="gini = 0.0\nsamples = 1\nvalue = [0, 2, 0, 0]\nclass = Alto", fillcolor="#47e539ff"] ;
249 -> 255 ;
256 [label="Condo <= 237.5\ngini = 0.2\nsamples = 6\nvalue = [0, 8, 0, 1]\nclass = Alto", fillcolor="#47e539df"] ;
248 -> 256 ;
257 [label="gini = 0.0\nsamples = 2\nvalue = [0, 3, 0, 0]\nclass = Alto", fillcolor="#47e539ff"] ;
256 -> 257 ;
258 [label="Condo <= 252.5\ngini = 0.28\nsamples = 4\nvalue = [0, 5, 0, 1]\nclass = Alto", fillcolor="#47e539cc"] ;
256 -> 258 ;
259 [label="gini = 0.38\nsamples = 3\nvalue = [0, 3, 0, 1]\nclass = Alto", fillcolor="#47e539aa"] ;
258 -> 259 ;
260 [label="gini = 0.0\nsamples = 1\nvalue = [0, 2, 0, 0]\nclass = Alto", fillcolor="#47e539ff"] ;
258 -> 260 ;
261 [label="Toilets <= 1.5\ngini = 0.07\nsamples = 18\nvalue = [0, 28, 0, 1]\nclass = Alto", fillcolor="#47e539f6"] ;
247 -> 261 ;
262 [label="gini = 0.0\nsamples = 11\nvalue = [0, 18, 0, 0]\nclass = Alto", fillcolor="#47e539ff"] ;
261 -> 262 ;
263 [label="Condo <= 201.0\ngini = 0.17\nsamples = 7\nvalue = [0, 10, 0, 1]\nclass = Alto", fillcolor="#47e539e6"] ;
261 -> 263 ;
264 [label="Swimming Pool <= 0.5\ngini = 0.5\nsamples = 2\nvalue = [0, 1, 0, 1]\nclass = Alto", fillcolor="#47e53900"] ;
263 -> 264 ;
265 [label="gini = 0.0\nsamples = 1\nvalue = [0, 0, 0, 1]\nclass = Baixo", fillcolor="#d739e5ff"] ;
264 -> 265 ;
266 [label="gini = 0.0\nsamples = 1\nvalue = [0, 1, 0, 0]\nclass = Alto", fillcolor="#47e539ff"] ;
264 -> 266 ;
267 [label="gini = 0.0\nsamples = 5\nvalue = [0, 9, 0, 0]\nclass = Alto", fillcolor="#47e539ff"] ;
263 -> 267 ;
268 [label="Rooms <= 2.5\ngini = 0.39\nsamples = 19\nvalue = [0, 22, 0, 8]\nclass = Alto", fillcolor="#47e539a2"] ;
246 -> 268 ;
269 [label="Toilets <= 1.5\ngini = 0.37\nsamples = 18\nvalue = [0, 22, 0, 7]\nclass = Alto", fillcolor="#47e539ae"] ;
268 -> 269 ;
270 [label="gini = 0.0\nsamples = 6\nvalue = [0, 9, 0, 0]\nclass = Alto", fillcolor="#47e539ff"] ;
269 -> 270 ;
271 [label="Size <= 55.5\ngini = 0.45\nsamples = 12\nvalue = [0, 13, 0, 7]\nclass = Alto", fillcolor="#47e53976"] ;
269 -> 271 ;
272 [label="Swimming Pool <= 0.5\ngini = 0.5\nsamples = 9\nvalue = [0, 7, 0, 7]\nclass = Alto", fillcolor="#47e53900"] ;
271 -> 272 ;
273 [label="Condo <= 222.5\ngini = 0.35\nsamples = 6\nvalue = [0, 7, 0, 2]\nclass = Alto", fillcolor="#47e539b6"] ;
272 -> 273 ;
274 [label="gini = 0.0\nsamples = 1\nvalue = [0, 0, 0, 1]\nclass = Baixo", fillcolor="#d739e5ff"] ;
273 -> 274 ;
275 [label="Size <= 53.5\ngini = 0.22\nsamples = 5\nvalue = [0, 7, 0, 1]\nclass = Alto", fillcolor="#47e539db"] ;
273 -> 275 ;
276 [label="gini = 0.0\nsamples = 2\nvalue = [0, 3, 0, 0]\nclass = Alto", fillcolor="#47e539ff"] ;
275 -> 276 ;
277 [label="Size <= 54.5\ngini = 0.32\nsamples = 3\nvalue = [0, 4, 0, 1]\nclass = Alto", fillcolor="#47e539bf"] ;
275 -> 277 ;
278 [label="Condo <= 257.5\ngini = 0.5\nsamples = 2\nvalue = [0, 1, 0, 1]\nclass = Alto", fillcolor="#47e53900"] ;
277 -> 278 ;
279 [label="gini = 0.0\nsamples = 1\nvalue = [0, 1, 0, 0]\nclass = Alto", fillcolor="#47e539ff"] ;
278 -> 279 ;
280 [label="gini = 0.0\nsamples = 1\nvalue = [0, 0, 0, 1]\nclass = Baixo", fillcolor="#d739e5ff"] ;
278 -> 280 ;
281 [label="gini = 0.0\nsamples = 1\nvalue = [0, 3, 0, 0]\nclass = Alto", fillcolor="#47e539ff"] ;
277 -> 281 ;
282 [label="gini = 0.0\nsamples = 3\nvalue = [0, 0, 0, 5]\nclass = Baixo", fillcolor="#d739e5ff"] ;
272 -> 282 ;
283 [label="gini = 0.0\nsamples = 3\nvalue = [0, 6, 0, 0]\nclass = Alto", fillcolor="#47e539ff"] ;
271 -> 283 ;
284 [label="gini = 0.0\nsamples = 1\nvalue = [0, 0, 0, 1]\nclass = Baixo", fillcolor="#d739e5ff"] ;
268 -> 284 ;
285 [label="Swimming Pool <= 0.5\ngini = 0.39\nsamples = 115\nvalue = [1, 137, 0, 47]\nclass = Alto", fillcolor="#47e539a6"] ;
205 -> 285 ;
286 [label="Suites <= 0.5\ngini = 0.21\nsamples = 65\nvalue = [0, 90, 0, 12]\nclass = Alto", fillcolor="#47e539dd"] ;
285 -> 286 ;
287 [label="Condo <= 299.0\ngini = 0.13\nsamples = 28\nvalue = [0, 40, 0, 3]\nclass = Alto", fillcolor="#47e539ec"] ;
286 -> 287 ;
288 [label="gini = 0.0\nsamples = 20\nvalue = [0, 32, 0, 0]\nclass = Alto", fillcolor="#47e539ff"] ;
287 -> 288 ;
289 [label="Size <= 52.0\ngini = 0.4\nsamples = 8\nvalue = [0, 8, 0, 3]\nclass = Alto", fillcolor="#47e5399f"] ;
287 -> 289 ;
290 [label="Condo <= 310.0\ngini = 0.22\nsamples = 6\nvalue = [0, 7, 0, 1]\nclass = Alto", fillcolor="#47e539db"] ;
289 -> 290 ;
291 [label="Size <= 42.0\ngini = 0.38\nsamples = 4\nvalue = [0, 3, 0, 1]\nclass = Alto", fillcolor="#47e539aa"] ;
290 -> 291 ;
292 [label="gini = 0.0\nsamples = 1\nvalue = [0, 0, 0, 1]\nclass = Baixo", fillcolor="#d739e5ff"] ;
291 -> 292 ;
293 [label="gini = 0.0\nsamples = 3\nvalue = [0, 3, 0, 0]\nclass = Alto", fillcolor="#47e539ff"] ;
291 -> 293 ;
294 [label="gini = 0.0\nsamples = 2\nvalue = [0, 4, 0, 0]\nclass = Alto", fillcolor="#47e539ff"] ;
290 -> 294 ;
295 [label="gini = 0.44\nsamples = 2\nvalue = [0, 1, 0, 2]\nclass = Baixo", fillcolor="#d739e57f"] ;
289 -> 295 ;
296 [label="Rooms <= 2.5\ngini = 0.26\nsamples = 37\nvalue = [0, 50, 0, 9]\nclass = Alto", fillcolor="#47e539d1"] ;
286 -> 296 ;
297 [label="Condo <= 291.5\ngini = 0.24\nsamples = 36\nvalue = [0, 50, 0, 8]\nclass = Alto", fillcolor="#47e539d6"] ;
296 -> 297 ;
298 [label="Condo <= 278.5\ngini = 0.33\nsamples = 18\nvalue = [0, 23, 0, 6]\nclass = Alto", fillcolor="#47e539bc"] ;
297 -> 298 ;
299 [label="Condo <= 272.5\ngini = 0.26\nsamples = 7\nvalue = [0, 11, 0, 2]\nclass = Alto", fillcolor="#47e539d1"] ;
298 -> 299 ;
300 [label="Size <= 53.0\ngini = 0.32\nsamples = 5\nvalue = [0, 8, 0, 2]\nclass = Alto", fillcolor="#47e539bf"] ;
299 -> 300 ;
301 [label="gini = 0.0\nsamples = 1\nvalue = [0, 0, 0, 2]\nclass = Baixo", fillcolor="#d739e5ff"] ;
300 -> 301 ;
302 [label="gini = 0.0\nsamples = 4\nvalue = [0, 8, 0, 0]\nclass = Alto", fillcolor="#47e539ff"] ;
300 -> 302 ;
303 [label="gini = 0.0\nsamples = 2\nvalue = [0, 3, 0, 0]\nclass = Alto", fillcolor="#47e539ff"] ;
299 -> 303 ;
304 [label="Condo <= 285.0\ngini = 0.38\nsamples = 11\nvalue = [0, 12, 0, 4]\nclass = Alto", fillcolor="#47e539aa"] ;
298 -> 304 ;
305 [label="Size <= 49.5\ngini = 0.38\nsamples = 7\nvalue = [0, 9, 0, 3]\nclass = Alto", fillcolor="#47e539aa"] ;
304 -> 305 ;
306 [label="Size <= 48.0\ngini = 0.38\nsamples = 2\nvalue = [0, 1, 0, 3]\nclass = Baixo", fillcolor="#d739e5aa"] ;
305 -> 306 ;
307 [label="gini = 0.0\nsamples = 1\nvalue = [0, 1, 0, 0]\nclass = Alto", fillcolor="#47e539ff"] ;
306 -> 307 ;
308 [label="gini = 0.0\nsamples = 1\nvalue = [0, 0, 0, 3]\nclass = Baixo", fillcolor="#d739e5ff"] ;
306 -> 308 ;
309 [label="gini = 0.0\nsamples = 5\nvalue = [0, 8, 0, 0]\nclass = Alto", fillcolor="#47e539ff"] ;
305 -> 309 ;
310 [label="Size <= 47.0\ngini = 0.38\nsamples = 4\nvalue = [0, 3, 0, 1]\nclass = Alto", fillcolor="#47e539aa"] ;
304 -> 310 ;
311 [label="gini = 0.0\nsamples = 1\nvalue = [0, 1, 0, 0]\nclass = Alto", fillcolor="#47e539ff"] ;
310 -> 311 ;
312 [label="Size <= 53.0\ngini = 0.44\nsamples = 3\nvalue = [0, 2, 0, 1]\nclass = Alto", fillcolor="#47e5397f"] ;
310 -> 312 ;
313 [label="gini = 0.5\nsamples = 2\nvalue = [0, 1, 0, 1]\nclass = Alto", fillcolor="#47e53900"] ;
312 -> 313 ;
314 [label="gini = 0.0\nsamples = 1\nvalue = [0, 1, 0, 0]\nclass = Alto", fillcolor="#47e539ff"] ;
312 -> 314 ;
315 [label="Condo <= 305.0\ngini = 0.13\nsamples = 18\nvalue = [0, 27, 0, 2]\nclass = Alto", fillcolor="#47e539ec"] ;
297 -> 315 ;
316 [label="Condo <= 298.0\ngini = 0.17\nsamples = 14\nvalue = [0, 20, 0, 2]\nclass = Alto", fillcolor="#47e539e6"] ;
315 -> 316 ;
317 [label="gini = 0.0\nsamples = 2\nvalue = [0, 3, 0, 0]\nclass = Alto", fillcolor="#47e539ff"] ;
316 -> 317 ;
318 [label="Size <= 53.0\ngini = 0.19\nsamples = 12\nvalue = [0, 17, 0, 2]\nclass = Alto", fillcolor="#47e539e1"] ;
316 -> 318 ;
319 [label="gini = 0.0\nsamples = 9\nvalue = [0, 14, 0, 0]\nclass = Alto", fillcolor="#47e539ff"] ;
318 -> 319 ;
320 [label="Size <= 54.5\ngini = 0.48\nsamples = 3\nvalue = [0, 3, 0, 2]\nclass = Alto", fillcolor="#47e53955"] ;
318 -> 320 ;
321 [label="gini = 0.44\nsamples = 2\nvalue = [0, 1, 0, 2]\nclass = Baixo", fillcolor="#d739e57f"] ;
320 -> 321 ;
322 [label="gini = 0.0\nsamples = 1\nvalue = [0, 2, 0, 0]\nclass = Alto", fillcolor="#47e539ff"] ;
320 -> 322 ;
323 [label="gini = 0.0\nsamples = 4\nvalue = [0, 7, 0, 0]\nclass = Alto", fillcolor="#47e539ff"] ;
315 -> 323 ;
324 [label="gini = 0.0\nsamples = 1\nvalue = [0, 0, 0, 1]\nclass = Baixo", fillcolor="#d739e5ff"] ;
296 -> 324 ;
325 [label="Condo <= 291.0\ngini = 0.5\nsamples = 50\nvalue = [1, 47, 0, 35]\nclass = Alto", fillcolor="#47e53940"] ;
285 -> 325 ;
326 [label="Toilets <= 1.5\ngini = 0.44\nsamples = 20\nvalue = [0, 24, 0, 12]\nclass = Alto", fillcolor="#47e5397f"] ;
325 -> 326 ;
327 [label="Condo <= 273.5\ngini = 0.21\nsamples = 10\nvalue = [0, 15, 0, 2]\nclass = Alto", fillcolor="#47e539dd"] ;
326 -> 327 ;
328 [label="gini = 0.0\nsamples = 1\nvalue = [0, 0, 0, 1]\nclass = Baixo", fillcolor="#d739e5ff"] ;
327 -> 328 ;
329 [label="Size <= 47.5\ngini = 0.12\nsamples = 9\nvalue = [0, 15, 0, 1]\nclass = Alto", fillcolor="#47e539ee"] ;
327 -> 329 ;
330 [label="gini = 0.0\nsamples = 5\nvalue = [0, 9, 0, 0]\nclass = Alto", fillcolor="#47e539ff"] ;
329 -> 330 ;
331 [label="Size <= 48.5\ngini = 0.24\nsamples = 4\nvalue = [0, 6, 0, 1]\nclass = Alto", fillcolor="#47e539d4"] ;
329 -> 331 ;
332 [label="gini = 0.0\nsamples = 1\nvalue = [0, 0, 0, 1]\nclass = Baixo", fillcolor="#d739e5ff"] ;
331 -> 332 ;
333 [label="gini = 0.0\nsamples = 3\nvalue = [0, 6, 0, 0]\nclass = Alto", fillcolor="#47e539ff"] ;
331 -> 333 ;
334 [label="Size <= 52.0\ngini = 0.5\nsamples = 10\nvalue = [0, 9, 0, 10]\nclass = Baixo", fillcolor="#d739e519"] ;
326 -> 334 ;
335 [label="gini = 0.0\nsamples = 4\nvalue = [0, 6, 0, 0]\nclass = Alto", fillcolor="#47e539ff"] ;
334 -> 335 ;
336 [label="Condo <= 275.0\ngini = 0.36\nsamples = 6\nvalue = [0, 3, 0, 10]\nclass = Baixo", fillcolor="#d739e5b3"] ;
334 -> 336 ;
337 [label="Size <= 55.5\ngini = 0.48\nsamples = 3\nvalue = [0, 3, 0, 2]\nclass = Alto", fillcolor="#47e53955"] ;
336 -> 337 ;
338 [label="gini = 0.0\nsamples = 2\nvalue = [0, 3, 0, 0]\nclass = Alto", fillcolor="#47e539ff"] ;
337 -> 338 ;
339 [label="gini = 0.0\nsamples = 1\nvalue = [0, 0, 0, 2]\nclass = Baixo", fillcolor="#d739e5ff"] ;
337 -> 339 ;
340 [label="gini = 0.0\nsamples = 3\nvalue = [0, 0, 0, 8]\nclass = Baixo", fillcolor="#d739e5ff"] ;
336 -> 340 ;
341 [label="Size <= 51.5\ngini = 0.52\nsamples = 30\nvalue = [1, 23, 0, 23]\nclass = Alto", fillcolor="#47e53900"] ;
325 -> 341 ;
342 [label="Size <= 48.5\ngini = 0.45\nsamples = 16\nvalue = [0, 9, 0, 17]\nclass = Baixo", fillcolor="#d739e578"] ;
341 -> 342 ;
343 [label="Size <= 45.5\ngini = 0.49\nsamples = 10\nvalue = [0, 8, 0, 6]\nclass = Alto", fillcolor="#47e53940"] ;
342 -> 343 ;
344 [label="gini = 0.0\nsamples = 1\nvalue = [0, 2, 0, 0]\nclass = Alto", fillcolor="#47e539ff"] ;
343 -> 344 ;
345 [label="Toilets <= 1.5\ngini = 0.5\nsamples = 9\nvalue = [0, 6, 0, 6]\nclass = Alto", fillcolor="#47e53900"] ;
343 -> 345 ;
346 [label="Size <= 47.0\ngini = 0.48\nsamples = 7\nvalue = [0, 6, 0, 4]\nclass = Alto", fillcolor="#47e53955"] ;
345 -> 346 ;
347 [label="gini = 0.0\nsamples = 1\nvalue = [0, 0, 0, 1]\nclass = Baixo", fillcolor="#d739e5ff"] ;
346 -> 347 ;
348 [label="Rooms <= 2.5\ngini = 0.44\nsamples = 6\nvalue = [0, 6, 0, 3]\nclass = Alto", fillcolor="#47e5397f"] ;
346 -> 348 ;
349 [label="Condo <= 296.0\ngini = 0.38\nsamples = 5\nvalue = [0, 6, 0, 2]\nclass = Alto", fillcolor="#47e539aa"] ;
348 -> 349 ;
350 [label="gini = 0.0\nsamples = 1\nvalue = [0, 0, 0, 2]\nclass = Baixo", fillcolor="#d739e5ff"] ;
349 -> 350 ;
351 [label="gini = 0.0\nsamples = 4\nvalue = [0, 6, 0, 0]\nclass = Alto", fillcolor="#47e539ff"] ;
349 -> 351 ;
352 [label="gini = 0.0\nsamples = 1\nvalue = [0, 0, 0, 1]\nclass = Baixo", fillcolor="#d739e5ff"] ;
348 -> 352 ;
353 [label="gini = 0.0\nsamples = 2\nvalue = [0, 0, 0, 2]\nclass = Baixo", fillcolor="#d739e5ff"] ;
345 -> 353 ;
354 [label="Toilets <= 1.5\ngini = 0.15\nsamples = 6\nvalue = [0, 1, 0, 11]\nclass = Baixo", fillcolor="#d739e5e8"] ;
342 -> 354 ;
355 [label="Size <= 50.0\ngini = 0.28\nsamples = 3\nvalue = [0, 1, 0, 5]\nclass = Baixo", fillcolor="#d739e5cc"] ;
354 -> 355 ;
356 [label="gini = 0.0\nsamples = 1\nvalue = [0, 0, 0, 2]\nclass = Baixo", fillcolor="#d739e5ff"] ;
355 -> 356 ;
357 [label="gini = 0.38\nsamples = 2\nvalue = [0, 1, 0, 3]\nclass = Baixo", fillcolor="#d739e5aa"] ;
355 -> 357 ;
358 [label="gini = 0.0\nsamples = 3\nvalue = [0, 0, 0, 6]\nclass = Baixo", fillcolor="#d739e5ff"] ;
354 -> 358 ;
359 [label="Toilets <= 1.5\ngini = 0.47\nsamples = 14\nvalue = [1, 14, 0, 6]\nclass = Alto", fillcolor="#47e53988"] ;
341 -> 359 ;
360 [label="gini = 0.0\nsamples = 1\nvalue = [0, 0, 0, 1]\nclass = Baixo", fillcolor="#d739e5ff"] ;
359 -> 360 ;
361 [label="Size <= 56.5\ngini = 0.44\nsamples = 13\nvalue = [1, 14, 0, 5]\nclass = Alto", fillcolor="#47e53999"] ;
359 -> 361 ;
362 [label="Condo <= 314.0\ngini = 0.51\nsamples = 10\nvalue = [1, 10, 0, 5]\nclass = Alto", fillcolor="#47e53974"] ;
361 -> 362 ;
363 [label="Size <= 53.0\ngini = 0.49\nsamples = 7\nvalue = [0, 7, 0, 5]\nclass = Alto", fillcolor="#47e53949"] ;
362 -> 363 ;
364 [label="gini = 0.0\nsamples = 1\nvalue = [0, 1, 0, 0]\nclass = Alto", fillcolor="#47e539ff"] ;
363 -> 364 ;
365 [label="Condo <= 304.0\ngini = 0.5\nsamples = 6\nvalue = [0, 6, 0, 5]\nclass = Alto", fillcolor="#47e5392a"] ;
363 -> 365 ;
366 [label="Size <= 54.5\ngini = 0.44\nsamples = 5\nvalue = [0, 6, 0, 3]\nclass = Alto", fillcolor="#47e5397f"] ;
365 -> 366 ;
367 [label="gini = 0.5\nsamples = 2\nvalue = [0, 1, 0, 1]\nclass = Alto", fillcolor="#47e53900"] ;
366 -> 367 ;
368 [label="Size <= 55.5\ngini = 0.41\nsamples = 3\nvalue = [0, 5, 0, 2]\nclass = Alto", fillcolor="#47e53999"] ;
366 -> 368 ;
369 [label="gini = 0.0\nsamples = 1\nvalue = [0, 2, 0, 0]\nclass = Alto", fillcolor="#47e539ff"] ;
368 -> 369 ;
370 [label="gini = 0.48\nsamples = 2\nvalue = [0, 3, 0, 2]\nclass = Alto", fillcolor="#47e53955"] ;
368 -> 370 ;
371 [label="gini = 0.0\nsamples = 1\nvalue = [0, 0, 0, 2]\nclass = Baixo", fillcolor="#d739e5ff"] ;
365 -> 371 ;
372 [label="Size <= 54.5\ngini = 0.38\nsamples = 3\nvalue = [1, 3, 0, 0]\nclass = Alto", fillcolor="#47e539aa"] ;
362 -> 372 ;
373 [label="gini = 0.0\nsamples = 1\nvalue = [0, 2, 0, 0]\nclass = Alto", fillcolor="#47e539ff"] ;
372 -> 373 ;
374 [label="Size <= 55.5\ngini = 0.5\nsamples = 2\nvalue = [1, 1, 0, 0]\nclass = Muito Alto", fillcolor="#e5813900"] ;
372 -> 374 ;
375 [label="gini = 0.0\nsamples = 1\nvalue = [1, 0, 0, 0]\nclass = Muito Alto", fillcolor="#e58139ff"] ;
374 -> 375 ;
376 [label="gini = 0.0\nsamples = 1\nvalue = [0, 1, 0, 0]\nclass = Alto", fillcolor="#47e539ff"] ;
374 -> 376 ;
377 [label="gini = 0.0\nsamples = 3\nvalue = [0, 4, 0, 0]\nclass = Alto", fillcolor="#47e539ff"] ;
361 -> 377 ;
378 [label="Condo <= 575.0\ngini = 0.62\nsamples = 471\nvalue = [155, 188, 9, 382]\nclass = Baixo", fillcolor="#d739e55b"] ;
2 -> 378 ;
379 [label="Condo <= 411.0\ngini = 0.58\nsamples = 398\nvalue = [86, 186, 0, 345]\nclass = Baixo", fillcolor="#d739e55e"] ;
378 -> 379 ;
380 [label="Rooms <= 1.5\ngini = 0.56\nsamples = 226\nvalue = [27, 141, 0, 183]\nclass = Baixo", fillcolor="#d739e533"] ;
379 -> 380 ;
381 [label="Swimming Pool <= 0.5\ngini = 0.53\nsamples = 58\nvalue = [12, 20, 0, 55]\nclass = Baixo", fillcolor="#d739e585"] ;
380 -> 381 ;
382 [label="Suites <= 0.5\ngini = 0.55\nsamples = 24\nvalue = [2, 18, 0, 16]\nclass = Alto", fillcolor="#47e5391a"] ;
381 -> 382 ;
383 [label="Condo <= 347.5\ngini = 0.36\nsamples = 15\nvalue = [0, 16, 0, 5]\nclass = Alto", fillcolor="#47e539af"] ;
382 -> 383 ;
384 [label="Condo <= 341.0\ngini = 0.5\nsamples = 2\nvalue = [0, 2, 0, 2]\nclass = Alto", fillcolor="#47e53900"] ;
383 -> 384 ;
385 [label="gini = 0.0\nsamples = 1\nvalue = [0, 2, 0, 0]\nclass = Alto", fillcolor="#47e539ff"] ;
384 -> 385 ;
386 [label="gini = 0.0\nsamples = 1\nvalue = [0, 0, 0, 2]\nclass = Baixo", fillcolor="#d739e5ff"] ;
384 -> 386 ;
387 [label="Size <= 46.0\ngini = 0.29\nsamples = 13\nvalue = [0, 14, 0, 3]\nclass = Alto", fillcolor="#47e539c8"] ;
383 -> 387 ;
388 [label="gini = 0.0\nsamples = 10\nvalue = [0, 13, 0, 0]\nclass = Alto", fillcolor="#47e539ff"] ;
387 -> 388 ;
389 [label="Size <= 53.0\ngini = 0.38\nsamples = 3\nvalue = [0, 1, 0, 3]\nclass = Baixo", fillcolor="#d739e5aa"] ;
387 -> 389 ;
390 [label="gini = 0.0\nsamples = 2\nvalue = [0, 0, 0, 3]\nclass = Baixo", fillcolor="#d739e5ff"] ;
389 -> 390 ;
391 [label="gini = 0.0\nsamples = 1\nvalue = [0, 1, 0, 0]\nclass = Alto", fillcolor="#47e539ff"] ;
389 -> 391 ;
392 [label="Size <= 41.0\ngini = 0.43\nsamples = 9\nvalue = [2, 2, 0, 11]\nclass = Baixo", fillcolor="#d739e5b1"] ;
382 -> 392 ;
393 [label="Size <= 37.5\ngini = 0.5\nsamples = 2\nvalue = [1, 1, 0, 0]\nclass = Muito Alto", fillcolor="#e5813900"] ;
392 -> 393 ;
394 [label="gini = 0.0\nsamples = 1\nvalue = [0, 1, 0, 0]\nclass = Alto", fillcolor="#47e539ff"] ;
393 -> 394 ;
395 [label="gini = 0.0\nsamples = 1\nvalue = [1, 0, 0, 0]\nclass = Muito Alto", fillcolor="#e58139ff"] ;
393 -> 395 ;
396 [label="Condo <= 395.0\ngini = 0.27\nsamples = 7\nvalue = [1, 1, 0, 11]\nclass = Baixo", fillcolor="#d739e5d4"] ;
392 -> 396 ;
397 [label="Condo <= 354.5\ngini = 0.17\nsamples = 5\nvalue = [1, 0, 0, 10]\nclass = Baixo", fillcolor="#d739e5e6"] ;
396 -> 397 ;
398 [label="Size <= 48.5\ngini = 0.44\nsamples = 2\nvalue = [1, 0, 0, 2]\nclass = Baixo", fillcolor="#d739e57f"] ;
397 -> 398 ;
399 [label="gini = 0.0\nsamples = 1\nvalue = [0, 0, 0, 2]\nclass = Baixo", fillcolor="#d739e5ff"] ;
398 -> 399 ;
400 [label="gini = 0.0\nsamples = 1\nvalue = [1, 0, 0, 0]\nclass = Muito Alto", fillcolor="#e58139ff"] ;
398 -> 400 ;
401 [label="gini = 0.0\nsamples = 3\nvalue = [0, 0, 0, 8]\nclass = Baixo", fillcolor="#d739e5ff"] ;
397 -> 401 ;
402 [label="Size <= 43.5\ngini = 0.5\nsamples = 2\nvalue = [0, 1, 0, 1]\nclass = Alto", fillcolor="#47e53900"] ;
396 -> 402 ;
403 [label="gini = 0.0\nsamples = 1\nvalue = [0, 0, 0, 1]\nclass = Baixo", fillcolor="#d739e5ff"] ;
402 -> 403 ;
404 [label="gini = 0.0\nsamples = 1\nvalue = [0, 1, 0, 0]\nclass = Alto", fillcolor="#47e539ff"] ;
402 -> 404 ;
405 [label="Size <= 47.0\ngini = 0.38\nsamples = 34\nvalue = [10, 2, 0, 39]\nclass = Baixo", fillcolor="#d739e5b4"] ;
381 -> 405 ;
406 [label="Suites <= 0.5\ngini = 0.21\nsamples = 26\nvalue = [4, 1, 0, 37]\nclass = Baixo", fillcolor="#d739e5dd"] ;
405 -> 406 ;
407 [label="Condo <= 362.5\ngini = 0.3\nsamples = 7\nvalue = [2, 0, 0, 9]\nclass = Baixo", fillcolor="#d739e5c6"] ;
406 -> 407 ;
408 [label="gini = 0.0\nsamples = 5\nvalue = [0, 0, 0, 8]\nclass = Baixo", fillcolor="#d739e5ff"] ;
407 -> 408 ;
409 [label="Size <= 35.5\ngini = 0.44\nsamples = 2\nvalue = [2, 0, 0, 1]\nclass = Muito Alto", fillcolor="#e581397f"] ;
407 -> 409 ;
410 [label="gini = 0.0\nsamples = 1\nvalue = [2, 0, 0, 0]\nclass = Muito Alto", fillcolor="#e58139ff"] ;
409 -> 410 ;
411 [label="gini = 0.0\nsamples = 1\nvalue = [0, 0, 0, 1]\nclass = Baixo", fillcolor="#d739e5ff"] ;
409 -> 411 ;
412 [label="Size <= 30.5\ngini = 0.18\nsamples = 19\nvalue = [2, 1, 0, 28]\nclass = Baixo", fillcolor="#d739e5e5"] ;
406 -> 412 ;
413 [label="Condo <= 365.0\ngini = 0.5\nsamples = 2\nvalue = [0, 1, 0, 1]\nclass = Alto", fillcolor="#47e53900"] ;
412 -> 413 ;
414 [label="gini = 0.0\nsamples = 1\nvalue = [0, 1, 0, 0]\nclass = Alto", fillcolor="#47e539ff"] ;
413 -> 414 ;
415 [label="gini = 0.0\nsamples = 1\nvalue = [0, 0, 0, 1]\nclass = Baixo", fillcolor="#d739e5ff"] ;
413 -> 415 ;
416 [label="Size <= 38.0\ngini = 0.13\nsamples = 17\nvalue = [2, 0, 0, 27]\nclass = Baixo", fillcolor="#d739e5ec"] ;
412 -> 416 ;
417 [label="gini = 0.0\nsamples = 8\nvalue = [0, 0, 0, 14]\nclass = Baixo", fillcolor="#d739e5ff"] ;
416 -> 417 ;
418 [label="Size <= 39.5\ngini = 0.23\nsamples = 9\nvalue = [2, 0, 0, 13]\nclass = Baixo", fillcolor="#d739e5d8"] ;
416 -> 418 ;
419 [label="gini = 0.0\nsamples = 2\nvalue = [2, 0, 0, 0]\nclass = Muito Alto", fillcolor="#e58139ff"] ;
418 -> 419 ;
420 [label="gini = 0.0\nsamples = 7\nvalue = [0, 0, 0, 13]\nclass = Baixo", fillcolor="#d739e5ff"] ;
418 -> 420 ;
421 [label="Toilets <= 1.5\ngini = 0.49\nsamples = 8\nvalue = [6, 1, 0, 2]\nclass = Muito Alto", fillcolor="#e5813992"] ;
405 -> 421 ;
422 [label="gini = 0.0\nsamples = 4\nvalue = [4, 0, 0, 0]\nclass = Muito Alto", fillcolor="#e58139ff"] ;
421 -> 422 ;
423 [label="Size <= 52.0\ngini = 0.64\nsamples = 4\nvalue = [2, 1, 0, 2]\nclass = Muito Alto", fillcolor="#e5813900"] ;
421 -> 423 ;
424 [label="Size <= 49.0\ngini = 0.44\nsamples = 3\nvalue = [2, 1, 0, 0]\nclass = Muito Alto", fillcolor="#e581397f"] ;
423 -> 424 ;
425 [label="gini = 0.0\nsamples = 1\nvalue = [0, 1, 0, 0]\nclass = Alto", fillcolor="#47e539ff"] ;
424 -> 425 ;
426 [label="gini = 0.0\nsamples = 2\nvalue = [2, 0, 0, 0]\nclass = Muito Alto", fillcolor="#e58139ff"] ;
424 -> 426 ;
427 [label="gini = 0.0\nsamples = 1\nvalue = [0, 0, 0, 2]\nclass = Baixo", fillcolor="#d739e5ff"] ;
423 -> 427 ;
428 [label="Swimming Pool <= 0.5\ngini = 0.55\nsamples = 168\nvalue = [15, 121, 0, 128]\nclass = Baixo", fillcolor="#d739e50c"] ;
380 -> 428 ;
429 [label="Suites <= 0.5\ngini = 0.51\nsamples = 91\nvalue = [3, 78, 0, 62]\nclass = Alto", fillcolor="#47e53932"] ;
428 -> 429 ;
430 [label="Condo <= 337.0\ngini = 0.54\nsamples = 41\nvalue = [3, 31, 0, 37]\nclass = Baixo", fillcolor="#d739e526"] ;
429 -> 430 ;
431 [label="gini = 0.0\nsamples = 4\nvalue = [0, 0, 0, 9]\nclass = Baixo", fillcolor="#d739e5ff"] ;
430 -> 431 ;
432 [label="Condo <= 406.0\ngini = 0.54\nsamples = 37\nvalue = [3, 31, 0, 28]\nclass = Alto", fillcolor="#47e53917"] ;
430 -> 432 ;
433 [label="Condo <= 348.0\ngini = 0.55\nsamples = 36\nvalue = [3, 27, 0, 28]\nclass = Baixo", fillcolor="#d739e508"] ;
432 -> 433 ;
434 [label="Condo <= 343.0\ngini = 0.38\nsamples = 5\nvalue = [0, 6, 0, 2]\nclass = Alto", fillcolor="#47e539aa"] ;
433 -> 434 ;
435 [label="Size <= 48.5\ngini = 0.48\nsamples = 4\nvalue = [0, 3, 0, 2]\nclass = Alto", fillcolor="#47e53955"] ;
434 -> 435 ;
436 [label="gini = 0.0\nsamples = 1\nvalue = [0, 1, 0, 0]\nclass = Alto", fillcolor="#47e539ff"] ;
435 -> 436 ;
437 [label="Size <= 53.5\ngini = 0.5\nsamples = 3\nvalue = [0, 2, 0, 2]\nclass = Alto", fillcolor="#47e53900"] ;
435 -> 437 ;
438 [label="gini = 0.44\nsamples = 2\nvalue = [0, 1, 0, 2]\nclass = Baixo", fillcolor="#d739e57f"] ;
437 -> 438 ;
439 [label="gini = 0.0\nsamples = 1\nvalue = [0, 1, 0, 0]\nclass = Alto", fillcolor="#47e539ff"] ;
437 -> 439 ;
440 [label="gini = 0.0\nsamples = 1\nvalue = [0, 3, 0, 0]\nclass = Alto", fillcolor="#47e539ff"] ;
434 -> 440 ;
441 [label="Condo <= 367.5\ngini = 0.55\nsamples = 31\nvalue = [3, 21, 0, 26]\nclass = Baixo", fillcolor="#d739e52c"] ;
433 -> 441 ;
442 [label="Size <= 47.5\ngini = 0.57\nsamples = 14\nvalue = [3, 6, 0, 12]\nclass = Baixo", fillcolor="#d739e566"] ;
441 -> 442 ;
443 [label="Size <= 45.5\ngini = 0.61\nsamples = 4\nvalue = [3, 3, 0, 1]\nclass = Muito Alto", fillcolor="#e5813900"] ;
442 -> 443 ;
444 [label="Size <= 43.5\ngini = 0.38\nsamples = 2\nvalue = [3, 0, 0, 1]\nclass = Muito Alto", fillcolor="#e58139aa"] ;
443 -> 444 ;
445 [label="gini = 0.0\nsamples = 1\nvalue = [0, 0, 0, 1]\nclass = Baixo", fillcolor="#d739e5ff"] ;
444 -> 445 ;
446 [label="gini = 0.0\nsamples = 1\nvalue = [3, 0, 0, 0]\nclass = Muito Alto", fillcolor="#e58139ff"] ;
444 -> 446 ;
447 [label="gini = 0.0\nsamples = 2\nvalue = [0, 3, 0, 0]\nclass = Alto", fillcolor="#47e539ff"] ;
443 -> 447 ;
448 [label="Size <= 49.5\ngini = 0.34\nsamples = 10\nvalue = [0, 3, 0, 11]\nclass = Baixo", fillcolor="#d739e5b9"] ;
442 -> 448 ;
449 [label="gini = 0.0\nsamples = 4\nvalue = [0, 0, 0, 5]\nclass = Baixo", fillcolor="#d739e5ff"] ;
448 -> 449 ;
450 [label="Condo <= 355.0\ngini = 0.44\nsamples = 6\nvalue = [0, 3, 0, 6]\nclass = Baixo", fillcolor="#d739e57f"] ;
448 -> 450 ;
451 [label="Rooms <= 2.5\ngini = 0.47\nsamples = 5\nvalue = [0, 3, 0, 5]\nclass = Baixo", fillcolor="#d739e566"] ;
450 -> 451 ;
452 [label="Size <= 52.5\ngini = 0.41\nsamples = 4\nvalue = [0, 2, 0, 5]\nclass = Baixo", fillcolor="#d739e599"] ;
451 -> 452 ;
453 [label="gini = 0.0\nsamples = 1\nvalue = [0, 1, 0, 0]\nclass = Alto", fillcolor="#47e539ff"] ;
452 -> 453 ;
454 [label="Size <= 55.5\ngini = 0.28\nsamples = 3\nvalue = [0, 1, 0, 5]\nclass = Baixo", fillcolor="#d739e5cc"] ;
452 -> 454 ;
455 [label="gini = 0.0\nsamples = 1\nvalue = [0, 0, 0, 3]\nclass = Baixo", fillcolor="#d739e5ff"] ;
454 -> 455 ;
456 [label="gini = 0.44\nsamples = 2\nvalue = [0, 1, 0, 2]\nclass = Baixo", fillcolor="#d739e57f"] ;
454 -> 456 ;
457 [label="gini = 0.0\nsamples = 1\nvalue = [0, 1, 0, 0]\nclass = Alto", fillcolor="#47e539ff"] ;
451 -> 457 ;
458 [label="gini = 0.0\nsamples = 1\nvalue = [0, 0, 0, 1]\nclass = Baixo", fillcolor="#d739e5ff"] ;
450 -> 458 ;
459 [label="Size <= 49.5\ngini = 0.5\nsamples = 17\nvalue = [0, 15, 0, 14]\nclass = Alto", fillcolor="#47e53911"] ;
441 -> 459 ;
460 [label="Condo <= 399.5\ngini = 0.32\nsamples = 8\nvalue = [0, 2, 0, 8]\nclass = Baixo", fillcolor="#d739e5bf"] ;
459 -> 460 ;
461 [label="Size <= 46.0\ngini = 0.22\nsamples = 6\nvalue = [0, 1, 0, 7]\nclass = Baixo", fillcolor="#d739e5db"] ;
460 -> 461 ;
462 [label="Size <= 44.5\ngini = 0.5\nsamples = 2\nvalue = [0, 1, 0, 1]\nclass = Alto", fillcolor="#47e53900"] ;
461 -> 462 ;
463 [label="gini = 0.0\nsamples = 1\nvalue = [0, 0, 0, 1]\nclass = Baixo", fillcolor="#d739e5ff"] ;
462 -> 463 ;
464 [label="gini = 0.0\nsamples = 1\nvalue = [0, 1, 0, 0]\nclass = Alto", fillcolor="#47e539ff"] ;
462 -> 464 ;
465 [label="gini = 0.0\nsamples = 4\nvalue = [0, 0, 0, 6]\nclass = Baixo", fillcolor="#d739e5ff"] ;
461 -> 465 ;
466 [label="Size <= 47.0\ngini = 0.5\nsamples = 2\nvalue = [0, 1, 0, 1]\nclass = Alto", fillcolor="#47e53900"] ;
460 -> 466 ;
467 [label="gini = 0.0\nsamples = 1\nvalue = [0, 1, 0, 0]\nclass = Alto", fillcolor="#47e539ff"] ;
466 -> 467 ;
468 [label="gini = 0.0\nsamples = 1\nvalue = [0, 0, 0, 1]\nclass = Baixo", fillcolor="#d739e5ff"] ;
466 -> 468 ;
469 [label="Size <= 53.5\ngini = 0.43\nsamples = 9\nvalue = [0, 13, 0, 6]\nclass = Alto", fillcolor="#47e53989"] ;
459 -> 469 ;
470 [label="Size <= 51.0\ngini = 0.2\nsamples = 5\nvalue = [0, 8, 0, 1]\nclass = Alto", fillcolor="#47e539df"] ;
469 -> 470 ;
471 [label="Condo <= 385.0\ngini = 0.32\nsamples = 3\nvalue = [0, 4, 0, 1]\nclass = Alto", fillcolor="#47e539bf"] ;
470 -> 471 ;
472 [label="gini = 0.0\nsamples = 1\nvalue = [0, 2, 0, 0]\nclass = Alto", fillcolor="#47e539ff"] ;
471 -> 472 ;
473 [label="gini = 0.44\nsamples = 2\nvalue = [0, 2, 0, 1]\nclass = Alto", fillcolor="#47e5397f"] ;
471 -> 473 ;
474 [label="gini = 0.0\nsamples = 2\nvalue = [0, 4, 0, 0]\nclass = Alto", fillcolor="#47e539ff"] ;
470 -> 474 ;
475 [label="Size <= 56.5\ngini = 0.5\nsamples = 4\nvalue = [0, 5, 0, 5]\nclass = Alto", fillcolor="#47e53900"] ;
469 -> 475 ;
476 [label="gini = 0.0\nsamples = 3\nvalue = [0, 0, 0, 5]\nclass = Baixo", fillcolor="#d739e5ff"] ;
475 -> 476 ;
477 [label="gini = 0.0\nsamples = 1\nvalue = [0, 5, 0, 0]\nclass = Alto", fillcolor="#47e539ff"] ;
475 -> 477 ;
478 [label="gini = 0.0\nsamples = 1\nvalue = [0, 4, 0, 0]\nclass = Alto", fillcolor="#47e539ff"] ;
432 -> 478 ;
479 [label="Condo <= 359.5\ngini = 0.45\nsamples = 50\nvalue = [0, 47, 0, 25]\nclass = Alto", fillcolor="#47e53977"] ;
429 -> 479 ;
480 [label="Condo <= 337.0\ngini = 0.29\nsamples = 18\nvalue = [0, 23, 0, 5]\nclass = Alto", fillcolor="#47e539c8"] ;
479 -> 480 ;
481 [label="Size <= 51.5\ngini = 0.44\nsamples = 3\nvalue = [0, 1, 0, 2]\nclass = Baixo", fillcolor="#d739e57f"] ;
480 -> 481 ;
482 [label="gini = 0.0\nsamples = 1\nvalue = [0, 0, 0, 1]\nclass = Baixo", fillcolor="#d739e5ff"] ;
481 -> 482 ;
483 [label="Size <= 55.5\ngini = 0.5\nsamples = 2\nvalue = [0, 1, 0, 1]\nclass = Alto", fillcolor="#47e53900"] ;
481 -> 483 ;
484 [label="gini = 0.0\nsamples = 1\nvalue = [0, 1, 0, 0]\nclass = Alto", fillcolor="#47e539ff"] ;
483 -> 484 ;
485 [label="gini = 0.0\nsamples = 1\nvalue = [0, 0, 0, 1]\nclass = Baixo", fillcolor="#d739e5ff"] ;
483 -> 485 ;
486 [label="Condo <= 347.5\ngini = 0.21\nsamples = 15\nvalue = [0, 22, 0, 3]\nclass = Alto", fillcolor="#47e539dc"] ;
480 -> 486 ;
487 [label="gini = 0.0\nsamples = 4\nvalue = [0, 10, 0, 0]\nclass = Alto", fillcolor="#47e539ff"] ;
486 -> 487 ;
488 [label="Size <= 53.0\ngini = 0.32\nsamples = 11\nvalue = [0, 12, 0, 3]\nclass = Alto", fillcolor="#47e539bf"] ;
486 -> 488 ;
489 [label="gini = 0.0\nsamples = 9\nvalue = [0, 12, 0, 0]\nclass = Alto", fillcolor="#47e539ff"] ;
488 -> 489 ;
490 [label="gini = 0.0\nsamples = 2\nvalue = [0, 0, 0, 3]\nclass = Baixo", fillcolor="#d739e5ff"] ;
488 -> 490 ;
491 [label="Condo <= 368.5\ngini = 0.5\nsamples = 32\nvalue = [0, 24, 0, 20]\nclass = Alto", fillcolor="#47e5392a"] ;
479 -> 491 ;
492 [label="Condo <= 364.5\ngini = 0.32\nsamples = 3\nvalue = [0, 1, 0, 4]\nclass = Baixo", fillcolor="#d739e5bf"] ;
491 -> 492 ;
493 [label="Size <= 50.5\ngini = 0.5\nsamples = 2\nvalue = [0, 1, 0, 1]\nclass = Alto", fillcolor="#47e53900"] ;
492 -> 493 ;
494 [label="gini = 0.0\nsamples = 1\nvalue = [0, 1, 0, 0]\nclass = Alto", fillcolor="#47e539ff"] ;
493 -> 494 ;
495 [label="gini = 0.0\nsamples = 1\nvalue = [0, 0, 0, 1]\nclass = Baixo", fillcolor="#d739e5ff"] ;
493 -> 495 ;
496 [label="gini = 0.0\nsamples = 1\nvalue = [0, 0, 0, 3]\nclass = Baixo", fillcolor="#d739e5ff"] ;
492 -> 496 ;
497 [label="Size <= 54.5\ngini = 0.48\nsamples = 29\nvalue = [0, 23, 0, 16]\nclass = Alto", fillcolor="#47e5394e"] ;
491 -> 497 ;
498 [label="Condo <= 407.0\ngini = 0.44\nsamples = 23\nvalue = [0, 21, 0, 10]\nclass = Alto", fillcolor="#47e53986"] ;
497 -> 498 ;
499 [label="Size <= 47.5\ngini = 0.42\nsamples = 22\nvalue = [0, 21, 0, 9]\nclass = Alto", fillcolor="#47e53992"] ;
498 -> 499 ;
500 [label="gini = 0.0\nsamples = 4\nvalue = [0, 5, 0, 0]\nclass = Alto", fillcolor="#47e539ff"] ;
499 -> 500 ;
501 [label="Condo <= 402.0\ngini = 0.46\nsamples = 18\nvalue = [0, 16, 0, 9]\nclass = Alto", fillcolor="#47e53970"] ;
499 -> 501 ;
502 [label="Condo <= 385.0\ngini = 0.48\nsamples = 17\nvalue = [0, 14, 0, 9]\nclass = Alto", fillcolor="#47e5395b"] ;
501 -> 502 ;
503 [label="Size <= 51.5\ngini = 0.43\nsamples = 11\nvalue = [0, 9, 0, 4]\nclass = Alto", fillcolor="#47e5398e"] ;
502 -> 503 ;
504 [label="Size <= 49.5\ngini = 0.5\nsamples = 4\nvalue = [0, 2, 0, 2]\nclass = Alto", fillcolor="#47e53900"] ;
503 -> 504 ;
505 [label="gini = 0.0\nsamples = 1\nvalue = [0, 1, 0, 0]\nclass = Alto", fillcolor="#47e539ff"] ;
504 -> 505 ;
506 [label="Size <= 50.5\ngini = 0.44\nsamples = 3\nvalue = [0, 1, 0, 2]\nclass = Baixo", fillcolor="#d739e57f"] ;
504 -> 506 ;
507 [label="gini = 0.5\nsamples = 2\nvalue = [0, 1, 0, 1]\nclass = Alto", fillcolor="#47e53900"] ;
506 -> 507 ;
508 [label="gini = 0.0\nsamples = 1\nvalue = [0, 0, 0, 1]\nclass = Baixo", fillcolor="#d739e5ff"] ;
506 -> 508 ;
509 [label="Condo <= 375.0\ngini = 0.35\nsamples = 7\nvalue = [0, 7, 0, 2]\nclass = Alto", fillcolor="#47e539b6"] ;
503 -> 509 ;
510 [label="Size <= 53.0\ngini = 0.44\nsamples = 3\nvalue = [0, 2, 0, 1]\nclass = Alto", fillcolor="#47e5397f"] ;
509 -> 510 ;
511 [label="gini = 0.0\nsamples = 1\nvalue = [0, 1, 0, 0]\nclass = Alto", fillcolor="#47e539ff"] ;
510 -> 511 ;
512 [label="gini = 0.5\nsamples = 2\nvalue = [0, 1, 0, 1]\nclass = Alto", fillcolor="#47e53900"] ;
510 -> 512 ;
513 [label="gini = 0.28\nsamples = 4\nvalue = [0, 5, 0, 1]\nclass = Alto", fillcolor="#47e539cc"] ;
509 -> 513 ;
514 [label="Condo <= 391.5\ngini = 0.5\nsamples = 6\nvalue = [0, 5, 0, 5]\nclass = Alto", fillcolor="#47e53900"] ;
502 -> 514 ;
515 [label="gini = 0.0\nsamples = 1\nvalue = [0, 0, 0, 3]\nclass = Baixo", fillcolor="#d739e5ff"] ;
514 -> 515 ;
516 [label="Size <= 51.0\ngini = 0.41\nsamples = 5\nvalue = [0, 5, 0, 2]\nclass = Alto", fillcolor="#47e53999"] ;
514 -> 516 ;
517 [label="Condo <= 396.5\ngini = 0.44\nsamples = 3\nvalue = [0, 1, 0, 2]\nclass = Baixo", fillcolor="#d739e57f"] ;
516 -> 517 ;
518 [label="gini = 0.0\nsamples = 1\nvalue = [0, 1, 0, 0]\nclass = Alto", fillcolor="#47e539ff"] ;
517 -> 518 ;
519 [label="gini = 0.0\nsamples = 2\nvalue = [0, 0, 0, 2]\nclass = Baixo", fillcolor="#d739e5ff"] ;
517 -> 519 ;
520 [label="gini = 0.0\nsamples = 2\nvalue = [0, 4, 0, 0]\nclass = Alto", fillcolor="#47e539ff"] ;
516 -> 520 ;
521 [label="gini = 0.0\nsamples = 1\nvalue = [0, 2, 0, 0]\nclass = Alto", fillcolor="#47e539ff"] ;
501 -> 521 ;
522 [label="gini = 0.0\nsamples = 1\nvalue = [0, 0, 0, 1]\nclass = Baixo", fillcolor="#d739e5ff"] ;
498 -> 522 ;
523 [label="Condo <= 397.5\ngini = 0.38\nsamples = 6\nvalue = [0, 2, 0, 6]\nclass = Baixo", fillcolor="#d739e5aa"] ;
497 -> 523 ;
524 [label="gini = 0.0\nsamples = 3\nvalue = [0, 0, 0, 4]\nclass = Baixo", fillcolor="#d739e5ff"] ;
523 -> 524 ;
525 [label="Condo <= 402.5\ngini = 0.5\nsamples = 3\nvalue = [0, 2, 0, 2]\nclass = Alto", fillcolor="#47e53900"] ;
523 -> 525 ;
526 [label="gini = 0.44\nsamples = 2\nvalue = [0, 2, 0, 1]\nclass = Alto", fillcolor="#47e5397f"] ;
525 -> 526 ;
527 [label="gini = 0.0\nsamples = 1\nvalue = [0, 0, 0, 1]\nclass = Baixo", fillcolor="#d739e5ff"] ;
525 -> 527 ;
528 [label="Suites <= 0.5\ngini = 0.57\nsamples = 77\nvalue = [12, 43, 0, 66]\nclass = Baixo", fillcolor="#d739e54b"] ;
428 -> 528 ;
529 [label="Condo <= 405.0\ngini = 0.53\nsamples = 23\nvalue = [1, 13, 0, 16]\nclass = Baixo", fillcolor="#d739e52d"] ;
528 -> 529 ;
530 [label="Size <= 49.5\ngini = 0.52\nsamples = 22\nvalue = [1, 11, 0, 16]\nclass = Baixo", fillcolor="#d739e54b"] ;
529 -> 530 ;
531 [label="Size <= 48.5\ngini = 0.46\nsamples = 9\nvalue = [0, 7, 0, 4]\nclass = Alto", fillcolor="#47e5396d"] ;
530 -> 531 ;
532 [label="Size <= 46.5\ngini = 0.49\nsamples = 6\nvalue = [0, 3, 0, 4]\nclass = Baixo", fillcolor="#d739e540"] ;
531 -> 532 ;
533 [label="gini = 0.0\nsamples = 2\nvalue = [0, 2, 0, 0]\nclass = Alto", fillcolor="#47e539ff"] ;
532 -> 533 ;
534 [label="Size <= 47.5\ngini = 0.32\nsamples = 4\nvalue = [0, 1, 0, 4]\nclass = Baixo", fillcolor="#d739e5bf"] ;
532 -> 534 ;
535 [label="gini = 0.0\nsamples = 2\nvalue = [0, 0, 0, 2]\nclass = Baixo", fillcolor="#d739e5ff"] ;
534 -> 535 ;
536 [label="Condo <= 352.5\ngini = 0.44\nsamples = 2\nvalue = [0, 1, 0, 2]\nclass = Baixo", fillcolor="#d739e57f"] ;
534 -> 536 ;
537 [label="gini = 0.0\nsamples = 1\nvalue = [0, 1, 0, 0]\nclass = Alto", fillcolor="#47e539ff"] ;
536 -> 537 ;
538 [label="gini = 0.0\nsamples = 1\nvalue = [0, 0, 0, 2]\nclass = Baixo", fillcolor="#d739e5ff"] ;
536 -> 538 ;
539 [label="gini = 0.0\nsamples = 3\nvalue = [0, 4, 0, 0]\nclass = Alto", fillcolor="#47e539ff"] ;
531 -> 539 ;
540 [label="Size <= 52.5\ngini = 0.44\nsamples = 13\nvalue = [1, 4, 0, 12]\nclass = Baixo", fillcolor="#d739e59d"] ;
530 -> 540 ;
541 [label="Condo <= 355.0\ngini = 0.43\nsamples = 10\nvalue = [0, 4, 0, 9]\nclass = Baixo", fillcolor="#d739e58e"] ;
540 -> 541 ;
542 [label="gini = 0.0\nsamples = 3\nvalue = [0, 0, 0, 3]\nclass = Baixo", fillcolor="#d739e5ff"] ;
541 -> 542 ;
543 [label="Condo <= 389.0\ngini = 0.48\nsamples = 7\nvalue = [0, 4, 0, 6]\nclass = Baixo", fillcolor="#d739e555"] ;
541 -> 543 ;
544 [label="Condo <= 370.0\ngini = 0.5\nsamples = 3\nvalue = [0, 2, 0, 2]\nclass = Alto", fillcolor="#47e53900"] ;
543 -> 544 ;
545 [label="Size <= 51.0\ngini = 0.44\nsamples = 2\nvalue = [0, 1, 0, 2]\nclass = Baixo", fillcolor="#d739e57f"] ;
544 -> 545 ;
546 [label="gini = 0.0\nsamples = 1\nvalue = [0, 1, 0, 0]\nclass = Alto", fillcolor="#47e539ff"] ;
545 -> 546 ;
547 [label="gini = 0.0\nsamples = 1\nvalue = [0, 0, 0, 2]\nclass = Baixo", fillcolor="#d739e5ff"] ;
545 -> 547 ;
548 [label="gini = 0.0\nsamples = 1\nvalue = [0, 1, 0, 0]\nclass = Alto", fillcolor="#47e539ff"] ;
544 -> 548 ;
549 [label="Size <= 51.5\ngini = 0.44\nsamples = 4\nvalue = [0, 2, 0, 4]\nclass = Baixo", fillcolor="#d739e57f"] ;
543 -> 549 ;
550 [label="Condo <= 399.0\ngini = 0.32\nsamples = 3\nvalue = [0, 1, 0, 4]\nclass = Baixo", fillcolor="#d739e5bf"] ;
549 -> 550 ;
551 [label="gini = 0.0\nsamples = 1\nvalue = [0, 0, 0, 2]\nclass = Baixo", fillcolor="#d739e5ff"] ;
550 -> 551 ;
552 [label="gini = 0.44\nsamples = 2\nvalue = [0, 1, 0, 2]\nclass = Baixo", fillcolor="#d739e57f"] ;
550 -> 552 ;
553 [label="gini = 0.0\nsamples = 1\nvalue = [0, 1, 0, 0]\nclass = Alto", fillcolor="#47e539ff"] ;
549 -> 553 ;
554 [label="Size <= 54.5\ngini = 0.38\nsamples = 3\nvalue = [1, 0, 0, 3]\nclass = Baixo", fillcolor="#d739e5aa"] ;
540 -> 554 ;
555 [label="gini = 0.0\nsamples = 1\nvalue = [0, 0, 0, 1]\nclass = Baixo", fillcolor="#d739e5ff"] ;
554 -> 555 ;
556 [label="Condo <= 389.5\ngini = 0.44\nsamples = 2\nvalue = [1, 0, 0, 2]\nclass = Baixo", fillcolor="#d739e57f"] ;
554 -> 556 ;
557 [label="gini = 0.0\nsamples = 1\nvalue = [1, 0, 0, 0]\nclass = Muito Alto", fillcolor="#e58139ff"] ;
556 -> 557 ;
558 [label="gini = 0.0\nsamples = 1\nvalue = [0, 0, 0, 2]\nclass = Baixo", fillcolor="#d739e5ff"] ;
556 -> 558 ;
559 [label="gini = 0.0\nsamples = 1\nvalue = [0, 2, 0, 0]\nclass = Alto", fillcolor="#47e539ff"] ;
529 -> 559 ;
560 [label="Rooms <= 2.5\ngini = 0.57\nsamples = 54\nvalue = [11, 30, 0, 50]\nclass = Baixo", fillcolor="#d739e554"] ;
528 -> 560 ;
561 [label="Condo <= 389.0\ngini = 0.59\nsamples = 52\nvalue = [11, 30, 0, 45]\nclass = Baixo", fillcolor="#d739e544"] ;
560 -> 561 ;
562 [label="Size <= 52.5\ngini = 0.57\nsamples = 34\nvalue = [10, 13, 0, 33]\nclass = Baixo", fillcolor="#d739e577"] ;
561 -> 562 ;
563 [label="Size <= 50.5\ngini = 0.4\nsamples = 19\nvalue = [0, 9, 0, 23]\nclass = Baixo", fillcolor="#d739e59b"] ;
562 -> 563 ;
564 [label="Size <= 46.5\ngini = 0.44\nsamples = 17\nvalue = [0, 9, 0, 19]\nclass = Baixo", fillcolor="#d739e586"] ;
563 -> 564 ;
565 [label="Condo <= 340.0\ngini = 0.5\nsamples = 3\nvalue = [0, 3, 0, 3]\nclass = Alto", fillcolor="#47e53900"] ;
564 -> 565 ;
566 [label="gini = 0.0\nsamples = 1\nvalue = [0, 3, 0, 0]\nclass = Alto", fillcolor="#47e539ff"] ;
565 -> 566 ;
567 [label="gini = 0.0\nsamples = 2\nvalue = [0, 0, 0, 3]\nclass = Baixo", fillcolor="#d739e5ff"] ;
565 -> 567 ;
568 [label="Condo <= 334.0\ngini = 0.4\nsamples = 14\nvalue = [0, 6, 0, 16]\nclass = Baixo", fillcolor="#d739e59f"] ;
564 -> 568 ;
569 [label="gini = 0.0\nsamples = 1\nvalue = [0, 1, 0, 0]\nclass = Alto", fillcolor="#47e539ff"] ;
568 -> 569 ;
570 [label="Size <= 47.5\ngini = 0.36\nsamples = 13\nvalue = [0, 5, 0, 16]\nclass = Baixo", fillcolor="#d739e5af"] ;
568 -> 570 ;
571 [label="gini = 0.0\nsamples = 2\nvalue = [0, 0, 0, 5]\nclass = Baixo", fillcolor="#d739e5ff"] ;
570 -> 571 ;
572 [label="Size <= 49.5\ngini = 0.43\nsamples = 11\nvalue = [0, 5, 0, 11]\nclass = Baixo", fillcolor="#d739e58b"] ;
570 -> 572 ;
573 [label="Size <= 48.5\ngini = 0.38\nsamples = 6\nvalue = [0, 2, 0, 6]\nclass = Baixo", fillcolor="#d739e5aa"] ;
572 -> 573 ;
574 [label="Condo <= 365.0\ngini = 0.44\nsamples = 5\nvalue = [0, 2, 0, 4]\nclass = Baixo", fillcolor="#d739e57f"] ;
573 -> 574 ;
575 [label="Condo <= 345.0\ngini = 0.32\nsamples = 4\nvalue = [0, 1, 0, 4]\nclass = Baixo", fillcolor="#d739e5bf"] ;
574 -> 575 ;
576 [label="gini = 0.0\nsamples = 1\nvalue = [0, 0, 0, 2]\nclass = Baixo", fillcolor="#d739e5ff"] ;
575 -> 576 ;
577 [label="gini = 0.44\nsamples = 3\nvalue = [0, 1, 0, 2]\nclass = Baixo", fillcolor="#d739e57f"] ;
575 -> 577 ;
578 [label="gini = 0.0\nsamples = 1\nvalue = [0, 1, 0, 0]\nclass = Alto", fillcolor="#47e539ff"] ;
574 -> 578 ;
579 [label="gini = 0.0\nsamples = 1\nvalue = [0, 0, 0, 2]\nclass = Baixo", fillcolor="#d739e5ff"] ;
573 -> 579 ;
580 [label="Condo <= 365.0\ngini = 0.47\nsamples = 5\nvalue = [0, 3, 0, 5]\nclass = Baixo", fillcolor="#d739e566"] ;
572 -> 580 ;
581 [label="gini = 0.38\nsamples = 3\nvalue = [0, 3, 0, 1]\nclass = Alto", fillcolor="#47e539aa"] ;
580 -> 581 ;
582 [label="gini = 0.0\nsamples = 2\nvalue = [0, 0, 0, 4]\nclass = Baixo", fillcolor="#d739e5ff"] ;
580 -> 582 ;
583 [label="gini = 0.0\nsamples = 2\nvalue = [0, 0, 0, 4]\nclass = Baixo", fillcolor="#d739e5ff"] ;
563 -> 583 ;
584 [label="Condo <= 355.0\ngini = 0.62\nsamples = 15\nvalue = [10, 4, 0, 10]\nclass = Muito Alto", fillcolor="#e5813900"] ;
562 -> 584 ;
585 [label="Condo <= 340.0\ngini = 0.4\nsamples = 7\nvalue = [2, 1, 0, 9]\nclass = Baixo", fillcolor="#d739e5b2"] ;
584 -> 585 ;
586 [label="gini = 0.44\nsamples = 3\nvalue = [0, 1, 0, 2]\nclass = Baixo", fillcolor="#d739e57f"] ;
585 -> 586 ;
587 [label="Size <= 54.0\ngini = 0.35\nsamples = 4\nvalue = [2, 0, 0, 7]\nclass = Baixo", fillcolor="#d739e5b6"] ;
585 -> 587 ;
588 [label="gini = 0.0\nsamples = 1\nvalue = [0, 0, 0, 3]\nclass = Baixo", fillcolor="#d739e5ff"] ;
587 -> 588 ;
589 [label="Size <= 55.5\ngini = 0.44\nsamples = 3\nvalue = [2, 0, 0, 4]\nclass = Baixo", fillcolor="#d739e57f"] ;
587 -> 589 ;
590 [label="gini = 0.44\nsamples = 2\nvalue = [2, 0, 0, 1]\nclass = Muito Alto", fillcolor="#e581397f"] ;
589 -> 590 ;
591 [label="gini = 0.0\nsamples = 1\nvalue = [0, 0, 0, 3]\nclass = Baixo", fillcolor="#d739e5ff"] ;
589 -> 591 ;
592 [label="Condo <= 372.5\ngini = 0.49\nsamples = 8\nvalue = [8, 3, 0, 1]\nclass = Muito Alto", fillcolor="#e581398e"] ;
584 -> 592 ;
593 [label="Size <= 53.5\ngini = 0.5\nsamples = 3\nvalue = [3, 3, 0, 0]\nclass = Muito Alto", fillcolor="#e5813900"] ;
592 -> 593 ;
594 [label="gini = 0.0\nsamples = 1\nvalue = [3, 0, 0, 0]\nclass = Muito Alto", fillcolor="#e58139ff"] ;
593 -> 594 ;
595 [label="gini = 0.0\nsamples = 2\nvalue = [0, 3, 0, 0]\nclass = Alto", fillcolor="#47e539ff"] ;
593 -> 595 ;
596 [label="Size <= 53.5\ngini = 0.28\nsamples = 5\nvalue = [5, 0, 0, 1]\nclass = Muito Alto", fillcolor="#e58139cc"] ;
592 -> 596 ;
597 [label="gini = 0.0\nsamples = 1\nvalue = [0, 0, 0, 1]\nclass = Baixo", fillcolor="#d739e5ff"] ;
596 -> 597 ;
598 [label="gini = 0.0\nsamples = 4\nvalue = [5, 0, 0, 0]\nclass = Muito Alto", fillcolor="#e58139ff"] ;
596 -> 598 ;
599 [label="Size <= 47.5\ngini = 0.52\nsamples = 18\nvalue = [1, 17, 0, 12]\nclass = Alto", fillcolor="#47e53947"] ;
561 -> 599 ;
600 [label="Condo <= 396.5\ngini = 0.24\nsamples = 6\nvalue = [0, 1, 0, 6]\nclass = Baixo", fillcolor="#d739e5d4"] ;
599 -> 600 ;
601 [label="gini = 0.0\nsamples = 1\nvalue = [0, 1, 0, 0]\nclass = Alto", fillcolor="#47e539ff"] ;
600 -> 601 ;
602 [label="gini = 0.0\nsamples = 5\nvalue = [0, 0, 0, 6]\nclass = Baixo", fillcolor="#d739e5ff"] ;
600 -> 602 ;
603 [label="Size <= 53.0\ngini = 0.45\nsamples = 12\nvalue = [1, 16, 0, 6]\nclass = Alto", fillcolor="#47e53996"] ;
599 -> 603 ;
604 [label="Condo <= 391.5\ngini = 0.32\nsamples = 10\nvalue = [0, 16, 0, 4]\nclass = Alto", fillcolor="#47e539bf"] ;
603 -> 604 ;
605 [label="gini = 0.5\nsamples = 2\nvalue = [0, 1, 0, 1]\nclass = Alto", fillcolor="#47e53900"] ;
604 -> 605 ;
606 [label="Size <= 50.5\ngini = 0.28\nsamples = 8\nvalue = [0, 15, 0, 3]\nclass = Alto", fillcolor="#47e539cc"] ;
604 -> 606 ;
607 [label="gini = 0.0\nsamples = 2\nvalue = [0, 3, 0, 0]\nclass = Alto", fillcolor="#47e539ff"] ;
606 -> 607 ;
608 [label="Condo <= 398.5\ngini = 0.32\nsamples = 6\nvalue = [0, 12, 0, 3]\nclass = Alto", fillcolor="#47e539bf"] ;
606 -> 608 ;
609 [label="gini = 0.0\nsamples = 1\nvalue = [0, 4, 0, 0]\nclass = Alto", fillcolor="#47e539ff"] ;
608 -> 609 ;
610 [label="gini = 0.4\nsamples = 5\nvalue = [0, 8, 0, 3]\nclass = Alto", fillcolor="#47e5399f"] ;
608 -> 610 ;
611 [label="gini = 0.44\nsamples = 2\nvalue = [1, 0, 0, 2]\nclass = Baixo", fillcolor="#d739e57f"] ;
603 -> 611 ;
612 [label="gini = 0.0\nsamples = 2\nvalue = [0, 0, 0, 5]\nclass = Baixo", fillcolor="#d739e5ff"] ;
560 -> 612 ;
613 [label="Size <= 47.5\ngini = 0.55\nsamples = 172\nvalue = [59, 45, 0, 162]\nclass = Baixo", fillcolor="#d739e57f"] ;
379 -> 613 ;
614 [label="Condo <= 524.0\ngini = 0.65\nsamples = 40\nvalue = [16, 19, 0, 28]\nclass = Baixo", fillcolor="#d739e534"] ;
613 -> 614 ;
615 [label="Rooms <= 1.5\ngini = 0.66\nsamples = 31\nvalue = [16, 19, 0, 17]\nclass = Alto", fillcolor="#47e5390f"] ;
614 -> 615 ;
616 [label="Condo <= 420.0\ngini = 0.63\nsamples = 21\nvalue = [16, 8, 0, 9]\nclass = Muito Alto", fillcolor="#e581394a"] ;
615 -> 616 ;
617 [label="gini = 0.0\nsamples = 2\nvalue = [4, 0, 0, 0]\nclass = Muito Alto", fillcolor="#e58139ff"] ;
616 -> 617 ;
618 [label="Size <= 43.5\ngini = 0.66\nsamples = 19\nvalue = [12, 8, 0, 9]\nclass = Muito Alto", fillcolor="#e5813926"] ;
616 -> 618 ;
619 [label="Suites <= 0.5\ngini = 0.58\nsamples = 13\nvalue = [11, 3, 0, 6]\nclass = Muito Alto", fillcolor="#e581395b"] ;
618 -> 619 ;
620 [label="Swimming Pool <= 0.5\ngini = 0.6\nsamples = 8\nvalue = [7, 3, 0, 3]\nclass = Muito Alto", fillcolor="#e5813966"] ;
619 -> 620 ;
621 [label="Size <= 36.0\ngini = 0.66\nsamples = 6\nvalue = [3, 2, 0, 3]\nclass = Muito Alto", fillcolor="#e5813900"] ;
620 -> 621 ;
622 [label="gini = 0.0\nsamples = 1\nvalue = [0, 2, 0, 0]\nclass = Alto", fillcolor="#47e539ff"] ;
621 -> 622 ;
623 [label="Condo <= 437.0\ngini = 0.5\nsamples = 5\nvalue = [3, 0, 0, 3]\nclass = Muito Alto", fillcolor="#e5813900"] ;
621 -> 623 ;
624 [label="gini = 0.0\nsamples = 1\nvalue = [0, 0, 0, 1]\nclass = Baixo", fillcolor="#d739e5ff"] ;
623 -> 624 ;
625 [label="Condo <= 482.5\ngini = 0.48\nsamples = 4\nvalue = [3, 0, 0, 2]\nclass = Muito Alto", fillcolor="#e5813955"] ;
623 -> 625 ;
626 [label="Size <= 38.5\ngini = 0.38\nsamples = 3\nvalue = [3, 0, 0, 1]\nclass = Muito Alto", fillcolor="#e58139aa"] ;
625 -> 626 ;
627 [label="gini = 0.0\nsamples = 1\nvalue = [2, 0, 0, 0]\nclass = Muito Alto", fillcolor="#e58139ff"] ;
626 -> 627 ;
628 [label="Condo <= 460.0\ngini = 0.5\nsamples = 2\nvalue = [1, 0, 0, 1]\nclass = Muito Alto", fillcolor="#e5813900"] ;
626 -> 628 ;
629 [label="gini = 0.0\nsamples = 1\nvalue = [1, 0, 0, 0]\nclass = Muito Alto", fillcolor="#e58139ff"] ;
628 -> 629 ;
630 [label="gini = 0.0\nsamples = 1\nvalue = [0, 0, 0, 1]\nclass = Baixo", fillcolor="#d739e5ff"] ;
628 -> 630 ;
631 [label="gini = 0.0\nsamples = 1\nvalue = [0, 0, 0, 1]\nclass = Baixo", fillcolor="#d739e5ff"] ;
625 -> 631 ;
632 [label="Size <= 41.0\ngini = 0.32\nsamples = 2\nvalue = [4, 1, 0, 0]\nclass = Muito Alto", fillcolor="#e58139bf"] ;
620 -> 632 ;
633 [label="gini = 0.0\nsamples = 1\nvalue = [0, 1, 0, 0]\nclass = Alto", fillcolor="#47e539ff"] ;
632 -> 633 ;
634 [label="gini = 0.0\nsamples = 1\nvalue = [4, 0, 0, 0]\nclass = Muito Alto", fillcolor="#e58139ff"] ;
632 -> 634 ;
635 [label="Condo <= 455.0\ngini = 0.49\nsamples = 5\nvalue = [4, 0, 0, 3]\nclass = Muito Alto", fillcolor="#e5813940"] ;
619 -> 635 ;
636 [label="Size <= 40.0\ngini = 0.38\nsamples = 3\nvalue = [1, 0, 0, 3]\nclass = Baixo", fillcolor="#d739e5aa"] ;
635 -> 636 ;
637 [label="gini = 0.0\nsamples = 1\nvalue = [1, 0, 0, 0]\nclass = Muito Alto", fillcolor="#e58139ff"] ;
636 -> 637 ;
638 [label="gini = 0.0\nsamples = 2\nvalue = [0, 0, 0, 3]\nclass = Baixo", fillcolor="#d739e5ff"] ;
636 -> 638 ;
639 [label="gini = 0.0\nsamples = 2\nvalue = [3, 0, 0, 0]\nclass = Muito Alto", fillcolor="#e58139ff"] ;
635 -> 639 ;
640 [label="Size <= 45.5\ngini = 0.57\nsamples = 6\nvalue = [1, 5, 0, 3]\nclass = Alto", fillcolor="#47e53955"] ;
618 -> 640 ;
641 [label="Condo <= 511.5\ngini = 0.53\nsamples = 5\nvalue = [1, 5, 0, 2]\nclass = Alto", fillcolor="#47e53980"] ;
640 -> 641 ;
642 [label="Condo <= 445.0\ngini = 0.64\nsamples = 4\nvalue = [1, 2, 0, 2]\nclass = Alto", fillcolor="#47e53900"] ;
641 -> 642 ;
643 [label="gini = 0.0\nsamples = 2\nvalue = [0, 2, 0, 0]\nclass = Alto", fillcolor="#47e539ff"] ;
642 -> 643 ;
644 [label="Condo <= 480.0\ngini = 0.44\nsamples = 2\nvalue = [1, 0, 0, 2]\nclass = Baixo", fillcolor="#d739e57f"] ;
642 -> 644 ;
645 [label="gini = 0.0\nsamples = 1\nvalue = [1, 0, 0, 0]\nclass = Muito Alto", fillcolor="#e58139ff"] ;
644 -> 645 ;
646 [label="gini = 0.0\nsamples = 1\nvalue = [0, 0, 0, 2]\nclass = Baixo", fillcolor="#d739e5ff"] ;
644 -> 646 ;
647 [label="gini = 0.0\nsamples = 1\nvalue = [0, 3, 0, 0]\nclass = Alto", fillcolor="#47e539ff"] ;
641 -> 647 ;
648 [label="gini = 0.0\nsamples = 1\nvalue = [0, 0, 0, 1]\nclass = Baixo", fillcolor="#d739e5ff"] ;
640 -> 648 ;
649 [label="Toilets <= 1.5\ngini = 0.49\nsamples = 10\nvalue = [0, 11, 0, 8]\nclass = Alto", fillcolor="#47e53946"] ;
615 -> 649 ;
650 [label="Swimming Pool <= 0.5\ngini = 0.32\nsamples = 3\nvalue = [0, 4, 0, 1]\nclass = Alto", fillcolor="#47e539bf"] ;
649 -> 650 ;
651 [label="gini = 0.0\nsamples = 2\nvalue = [0, 4, 0, 0]\nclass = Alto", fillcolor="#47e539ff"] ;
650 -> 651 ;
652 [label="gini = 0.0\nsamples = 1\nvalue = [0, 0, 0, 1]\nclass = Baixo", fillcolor="#d739e5ff"] ;
650 -> 652 ;
653 [label="Condo <= 451.0\ngini = 0.5\nsamples = 7\nvalue = [0, 7, 0, 7]\nclass = Alto", fillcolor="#47e53900"] ;
649 -> 653 ;
654 [label="gini = 0.0\nsamples = 2\nvalue = [0, 0, 0, 3]\nclass = Baixo", fillcolor="#d739e5ff"] ;
653 -> 654 ;
655 [label="Size <= 46.5\ngini = 0.46\nsamples = 5\nvalue = [0, 7, 0, 4]\nclass = Alto", fillcolor="#47e5396d"] ;
653 -> 655 ;
656 [label="gini = 0.0\nsamples = 2\nvalue = [0, 5, 0, 0]\nclass = Alto", fillcolor="#47e539ff"] ;
655 -> 656 ;
657 [label="Condo <= 476.0\ngini = 0.44\nsamples = 3\nvalue = [0, 2, 0, 4]\nclass = Baixo", fillcolor="#d739e57f"] ;
655 -> 657 ;
658 [label="gini = 0.0\nsamples = 1\nvalue = [0, 2, 0, 0]\nclass = Alto", fillcolor="#47e539ff"] ;
657 -> 658 ;
659 [label="gini = 0.0\nsamples = 2\nvalue = [0, 0, 0, 4]\nclass = Baixo", fillcolor="#d739e5ff"] ;
657 -> 659 ;
660 [label="gini = 0.0\nsamples = 9\nvalue = [0, 0, 0, 11]\nclass = Baixo", fillcolor="#d739e5ff"] ;
614 -> 660 ;
661 [label="Condo <= 497.5\ngini = 0.5\nsamples = 132\nvalue = [43, 26, 0, 134]\nclass = Baixo", fillcolor="#d739e591"] ;
613 -> 661 ;
662 [label="Rooms <= 2.5\ngini = 0.46\nsamples = 81\nvalue = [18, 19, 0, 90]\nclass = Baixo", fillcolor="#d739e5a8"] ;
661 -> 662 ;
663 [label="Size <= 54.5\ngini = 0.42\nsamples = 76\nvalue = [15, 16, 0, 89]\nclass = Baixo", fillcolor="#d739e5b3"] ;
662 -> 663 ;
664 [label="Rooms <= 1.5\ngini = 0.37\nsamples = 58\nvalue = [11, 10, 0, 74]\nclass = Baixo", fillcolor="#d739e5bf"] ;
663 -> 664 ;
665 [label="Condo <= 462.0\ngini = 0.38\nsamples = 3\nvalue = [3, 0, 0, 1]\nclass = Muito Alto", fillcolor="#e58139aa"] ;
664 -> 665 ;
666 [label="gini = 0.0\nsamples = 2\nvalue = [3, 0, 0, 0]\nclass = Muito Alto", fillcolor="#e58139ff"] ;
665 -> 666 ;
667 [label="gini = 0.0\nsamples = 1\nvalue = [0, 0, 0, 1]\nclass = Baixo", fillcolor="#d739e5ff"] ;
665 -> 667 ;
668 [label="Swimming Pool <= 0.5\ngini = 0.34\nsamples = 55\nvalue = [8, 10, 0, 73]\nclass = Baixo", fillcolor="#d739e5c6"] ;
664 -> 668 ;
669 [label="Toilets <= 1.5\ngini = 0.35\nsamples = 27\nvalue = [3, 5, 0, 30]\nclass = Baixo", fillcolor="#d739e5c1"] ;
668 -> 669 ;
670 [label="Size <= 48.5\ngini = 0.48\nsamples = 15\nvalue = [3, 3, 0, 13]\nclass = Baixo", fillcolor="#d739e59f"] ;
669 -> 670 ;
671 [label="Condo <= 442.5\ngini = 0.64\nsamples = 4\nvalue = [2, 1, 0, 2]\nclass = Muito Alto", fillcolor="#e5813900"] ;
670 -> 671 ;
672 [label="gini = 0.0\nsamples = 1\nvalue = [2, 0, 0, 0]\nclass = Muito Alto", fillcolor="#e58139ff"] ;
671 -> 672 ;
673 [label="Condo <= 470.0\ngini = 0.44\nsamples = 3\nvalue = [0, 1, 0, 2]\nclass = Baixo", fillcolor="#d739e57f"] ;
671 -> 673 ;
674 [label="gini = 0.0\nsamples = 1\nvalue = [0, 0, 0, 1]\nclass = Baixo", fillcolor="#d739e5ff"] ;
673 -> 674 ;
675 [label="Condo <= 486.5\ngini = 0.5\nsamples = 2\nvalue = [0, 1, 0, 1]\nclass = Alto", fillcolor="#47e53900"] ;
673 -> 675 ;
676 [label="gini = 0.0\nsamples = 1\nvalue = [0, 1, 0, 0]\nclass = Alto", fillcolor="#47e539ff"] ;
675 -> 676 ;
677 [label="gini = 0.0\nsamples = 1\nvalue = [0, 0, 0, 1]\nclass = Baixo", fillcolor="#d739e5ff"] ;
675 -> 677 ;
678 [label="Condo <= 487.5\ngini = 0.36\nsamples = 11\nvalue = [1, 2, 0, 11]\nclass = Baixo", fillcolor="#d739e5bf"] ;
670 -> 678 ;
679 [label="Condo <= 438.5\ngini = 0.27\nsamples = 10\nvalue = [1, 1, 0, 11]\nclass = Baixo", fillcolor="#d739e5d4"] ;
678 -> 679 ;
680 [label="Condo <= 423.5\ngini = 0.45\nsamples = 5\nvalue = [1, 1, 0, 5]\nclass = Baixo", fillcolor="#d739e5aa"] ;
679 -> 680 ;
681 [label="Size <= 50.5\ngini = 0.28\nsamples = 4\nvalue = [0, 1, 0, 5]\nclass = Baixo", fillcolor="#d739e5cc"] ;
680 -> 681 ;
682 [label="gini = 0.0\nsamples = 1\nvalue = [0, 0, 0, 3]\nclass = Baixo", fillcolor="#d739e5ff"] ;
681 -> 682 ;
683 [label="gini = 0.44\nsamples = 3\nvalue = [0, 1, 0, 2]\nclass = Baixo", fillcolor="#d739e57f"] ;
681 -> 683 ;
684 [label="gini = 0.0\nsamples = 1\nvalue = [1, 0, 0, 0]\nclass = Muito Alto", fillcolor="#e58139ff"] ;
680 -> 684 ;
685 [label="gini = 0.0\nsamples = 5\nvalue = [0, 0, 0, 6]\nclass = Baixo", fillcolor="#d739e5ff"] ;
679 -> 685 ;
686 [label="gini = 0.0\nsamples = 1\nvalue = [0, 1, 0, 0]\nclass = Alto", fillcolor="#47e539ff"] ;
678 -> 686 ;
687 [label="Size <= 51.0\ngini = 0.19\nsamples = 12\nvalue = [0, 2, 0, 17]\nclass = Baixo", fillcolor="#d739e5e1"] ;
669 -> 687 ;
688 [label="Size <= 49.5\ngini = 0.32\nsamples = 8\nvalue = [0, 2, 0, 8]\nclass = Baixo", fillcolor="#d739e5bf"] ;
687 -> 688 ;
689 [label="Size <= 48.5\ngini = 0.28\nsamples = 5\nvalue = [0, 1, 0, 5]\nclass = Baixo", fillcolor="#d739e5cc"] ;
688 -> 689 ;
690 [label="Condo <= 432.0\ngini = 0.32\nsamples = 4\nvalue = [0, 1, 0, 4]\nclass = Baixo", fillcolor="#d739e5bf"] ;
689 -> 690 ;
691 [label="Condo <= 422.0\ngini = 0.5\nsamples = 2\nvalue = [0, 1, 0, 1]\nclass = Alto", fillcolor="#47e53900"] ;
690 -> 691 ;
692 [label="gini = 0.0\nsamples = 1\nvalue = [0, 0, 0, 1]\nclass = Baixo", fillcolor="#d739e5ff"] ;
691 -> 692 ;
693 [label="gini = 0.0\nsamples = 1\nvalue = [0, 1, 0, 0]\nclass = Alto", fillcolor="#47e539ff"] ;
691 -> 693 ;
694 [label="gini = 0.0\nsamples = 2\nvalue = [0, 0, 0, 3]\nclass = Baixo", fillcolor="#d739e5ff"] ;
690 -> 694 ;
695 [label="gini = 0.0\nsamples = 1\nvalue = [0, 0, 0, 1]\nclass = Baixo", fillcolor="#d739e5ff"] ;
689 -> 695 ;
696 [label="Condo <= 424.0\ngini = 0.38\nsamples = 3\nvalue = [0, 1, 0, 3]\nclass = Baixo", fillcolor="#d739e5aa"] ;
688 -> 696 ;
697 [label="gini = 0.0\nsamples = 1\nvalue = [0, 1, 0, 0]\nclass = Alto", fillcolor="#47e539ff"] ;
696 -> 697 ;
698 [label="gini = 0.0\nsamples = 2\nvalue = [0, 0, 0, 3]\nclass = Baixo", fillcolor="#d739e5ff"] ;
696 -> 698 ;
699 [label="gini = 0.0\nsamples = 4\nvalue = [0, 0, 0, 9]\nclass = Baixo", fillcolor="#d739e5ff"] ;
687 -> 699 ;
700 [label="Size <= 51.5\ngini = 0.32\nsamples = 28\nvalue = [5, 5, 0, 43]\nclass = Baixo", fillcolor="#d739e5ca"] ;
668 -> 700 ;
701 [label="Size <= 50.5\ngini = 0.28\nsamples = 18\nvalue = [5, 0, 0, 25]\nclass = Baixo", fillcolor="#d739e5cc"] ;
700 -> 701 ;
702 [label="Toilets <= 1.5\ngini = 0.24\nsamples = 16\nvalue = [4, 0, 0, 24]\nclass = Baixo", fillcolor="#d739e5d4"] ;
701 -> 702 ;
703 [label="gini = 0.0\nsamples = 2\nvalue = [0, 0, 0, 4]\nclass = Baixo", fillcolor="#d739e5ff"] ;
702 -> 703 ;
704 [label="Condo <= 425.0\ngini = 0.28\nsamples = 14\nvalue = [4, 0, 0, 20]\nclass = Baixo", fillcolor="#d739e5cc"] ;
702 -> 704 ;
705 [label="Condo <= 415.5\ngini = 0.44\nsamples = 4\nvalue = [2, 0, 0, 4]\nclass = Baixo", fillcolor="#d739e57f"] ;
704 -> 705 ;
706 [label="gini = 0.0\nsamples = 1\nvalue = [0, 0, 0, 3]\nclass = Baixo", fillcolor="#d739e5ff"] ;
705 -> 706 ;
707 [label="Condo <= 418.0\ngini = 0.44\nsamples = 3\nvalue = [2, 0, 0, 1]\nclass = Muito Alto", fillcolor="#e581397f"] ;
705 -> 707 ;
708 [label="gini = 0.0\nsamples = 1\nvalue = [1, 0, 0, 0]\nclass = Muito Alto", fillcolor="#e58139ff"] ;
707 -> 708 ;
709 [label="gini = 0.5\nsamples = 2\nvalue = [1, 0, 0, 1]\nclass = Muito Alto", fillcolor="#e5813900"] ;
707 -> 709 ;
710 [label="Size <= 49.5\ngini = 0.2\nsamples = 10\nvalue = [2, 0, 0, 16]\nclass = Baixo", fillcolor="#d739e5df"] ;
704 -> 710 ;
711 [label="Size <= 48.5\ngini = 0.41\nsamples = 5\nvalue = [2, 0, 0, 5]\nclass = Baixo", fillcolor="#d739e599"] ;
710 -> 711 ;
712 [label="gini = 0.0\nsamples = 2\nvalue = [0, 0, 0, 3]\nclass = Baixo", fillcolor="#d739e5ff"] ;
711 -> 712 ;
713 [label="Condo <= 465.0\ngini = 0.5\nsamples = 3\nvalue = [2, 0, 0, 2]\nclass = Muito Alto", fillcolor="#e5813900"] ;
711 -> 713 ;
714 [label="gini = 0.0\nsamples = 1\nvalue = [2, 0, 0, 0]\nclass = Muito Alto", fillcolor="#e58139ff"] ;
713 -> 714 ;
715 [label="gini = 0.0\nsamples = 2\nvalue = [0, 0, 0, 2]\nclass = Baixo", fillcolor="#d739e5ff"] ;
713 -> 715 ;
716 [label="gini = 0.0\nsamples = 5\nvalue = [0, 0, 0, 11]\nclass = Baixo", fillcolor="#d739e5ff"] ;
710 -> 716 ;
717 [label="Condo <= 469.5\ngini = 0.5\nsamples = 2\nvalue = [1, 0, 0, 1]\nclass = Muito Alto", fillcolor="#e5813900"] ;
701 -> 717 ;
718 [label="gini = 0.0\nsamples = 1\nvalue = [1, 0, 0, 0]\nclass = Muito Alto", fillcolor="#e58139ff"] ;
717 -> 718 ;
719 [label="gini = 0.0\nsamples = 1\nvalue = [0, 0, 0, 1]\nclass = Baixo", fillcolor="#d739e5ff"] ;
717 -> 719 ;
720 [label="Condo <= 445.0\ngini = 0.34\nsamples = 10\nvalue = [0, 5, 0, 18]\nclass = Baixo", fillcolor="#d739e5b8"] ;
700 -> 720 ;
721 [label="gini = 0.0\nsamples = 3\nvalue = [0, 0, 0, 10]\nclass = Baixo", fillcolor="#d739e5ff"] ;
720 -> 721 ;
722 [label="Suites <= 0.5\ngini = 0.47\nsamples = 7\nvalue = [0, 5, 0, 8]\nclass = Baixo", fillcolor="#d739e560"] ;
720 -> 722 ;
723 [label="gini = 0.0\nsamples = 3\nvalue = [0, 0, 0, 5]\nclass = Baixo", fillcolor="#d739e5ff"] ;
722 -> 723 ;
724 [label="Condo <= 487.5\ngini = 0.47\nsamples = 4\nvalue = [0, 5, 0, 3]\nclass = Alto", fillcolor="#47e53966"] ;
722 -> 724 ;
725 [label="Condo <= 470.0\ngini = 0.28\nsamples = 3\nvalue = [0, 5, 0, 1]\nclass = Alto", fillcolor="#47e539cc"] ;
724 -> 725 ;
726 [label="gini = 0.0\nsamples = 1\nvalue = [0, 2, 0, 0]\nclass = Alto", fillcolor="#47e539ff"] ;
725 -> 726 ;
727 [label="gini = 0.38\nsamples = 2\nvalue = [0, 3, 0, 1]\nclass = Alto", fillcolor="#47e539aa"] ;
725 -> 727 ;
728 [label="gini = 0.0\nsamples = 1\nvalue = [0, 0, 0, 2]\nclass = Baixo", fillcolor="#d739e5ff"] ;
724 -> 728 ;
729 [label="Suites <= 0.5\ngini = 0.56\nsamples = 18\nvalue = [4, 6, 0, 15]\nclass = Baixo", fillcolor="#d739e579"] ;
663 -> 729 ;
730 [label="Size <= 55.5\ngini = 0.32\nsamples = 4\nvalue = [0, 1, 0, 4]\nclass = Baixo", fillcolor="#d739e5bf"] ;
729 -> 730 ;
731 [label="gini = 0.0\nsamples = 1\nvalue = [0, 0, 0, 2]\nclass = Baixo", fillcolor="#d739e5ff"] ;
730 -> 731 ;
732 [label="Condo <= 474.5\ngini = 0.44\nsamples = 3\nvalue = [0, 1, 0, 2]\nclass = Baixo", fillcolor="#d739e57f"] ;
730 -> 732 ;
733 [label="gini = 0.0\nsamples = 2\nvalue = [0, 0, 0, 2]\nclass = Baixo", fillcolor="#d739e5ff"] ;
732 -> 733 ;
734 [label="gini = 0.0\nsamples = 1\nvalue = [0, 1, 0, 0]\nclass = Alto", fillcolor="#47e539ff"] ;
732 -> 734 ;
735 [label="Condo <= 445.0\ngini = 0.6\nsamples = 14\nvalue = [4, 5, 0, 11]\nclass = Baixo", fillcolor="#d739e566"] ;
729 -> 735 ;
736 [label="Size <= 56.0\ngini = 0.49\nsamples = 7\nvalue = [0, 5, 0, 4]\nclass = Alto", fillcolor="#47e53933"] ;
735 -> 736 ;
737 [label="Swimming Pool <= 0.5\ngini = 0.5\nsamples = 4\nvalue = [0, 3, 0, 3]\nclass = Alto", fillcolor="#47e53900"] ;
736 -> 737 ;
738 [label="gini = 0.0\nsamples = 2\nvalue = [0, 0, 0, 2]\nclass = Baixo", fillcolor="#d739e5ff"] ;
737 -> 738 ;
739 [label="Condo <= 435.0\ngini = 0.38\nsamples = 2\nvalue = [0, 3, 0, 1]\nclass = Alto", fillcolor="#47e539aa"] ;
737 -> 739 ;
740 [label="gini = 0.0\nsamples = 1\nvalue = [0, 0, 0, 1]\nclass = Baixo", fillcolor="#d739e5ff"] ;
739 -> 740 ;
741 [label="gini = 0.0\nsamples = 1\nvalue = [0, 3, 0, 0]\nclass = Alto", fillcolor="#47e539ff"] ;
739 -> 741 ;
742 [label="Swimming Pool <= 0.5\ngini = 0.44\nsamples = 3\nvalue = [0, 2, 0, 1]\nclass = Alto", fillcolor="#47e5397f"] ;
736 -> 742 ;
743 [label="gini = 0.0\nsamples = 1\nvalue = [0, 1, 0, 0]\nclass = Alto", fillcolor="#47e539ff"] ;
742 -> 743 ;
744 [label="Condo <= 428.5\ngini = 0.5\nsamples = 2\nvalue = [0, 1, 0, 1]\nclass = Alto", fillcolor="#47e53900"] ;
742 -> 744 ;
745 [label="gini = 0.0\nsamples = 1\nvalue = [0, 0, 0, 1]\nclass = Baixo", fillcolor="#d739e5ff"] ;
744 -> 745 ;
746 [label="gini = 0.0\nsamples = 1\nvalue = [0, 1, 0, 0]\nclass = Alto", fillcolor="#47e539ff"] ;
744 -> 746 ;
747 [label="Swimming Pool <= 0.5\ngini = 0.46\nsamples = 7\nvalue = [4, 0, 0, 7]\nclass = Baixo", fillcolor="#d739e56d"] ;
735 -> 747 ;
748 [label="gini = 0.0\nsamples = 1\nvalue = [0, 0, 0, 1]\nclass = Baixo", fillcolor="#d739e5ff"] ;
747 -> 748 ;
749 [label="Size <= 56.0\ngini = 0.48\nsamples = 6\nvalue = [4, 0, 0, 6]\nclass = Baixo", fillcolor="#d739e555"] ;
747 -> 749 ;
750 [label="gini = 0.44\nsamples = 3\nvalue = [1, 0, 0, 2]\nclass = Baixo", fillcolor="#d739e57f"] ;
749 -> 750 ;
751 [label="gini = 0.49\nsamples = 3\nvalue = [3, 0, 0, 4]\nclass = Baixo", fillcolor="#d739e540"] ;
749 -> 751 ;
752 [label="Swimming Pool <= 0.5\ngini = 0.61\nsamples = 5\nvalue = [3, 3, 0, 1]\nclass = Muito Alto", fillcolor="#e5813900"] ;
662 -> 752 ;
753 [label="Condo <= 432.5\ngini = 0.5\nsamples = 4\nvalue = [3, 3, 0, 0]\nclass = Muito Alto", fillcolor="#e5813900"] ;
752 -> 753 ;
754 [label="gini = 0.0\nsamples = 1\nvalue = [3, 0, 0, 0]\nclass = Muito Alto", fillcolor="#e58139ff"] ;
753 -> 754 ;
755 [label="gini = 0.0\nsamples = 3\nvalue = [0, 3, 0, 0]\nclass = Alto", fillcolor="#47e539ff"] ;
753 -> 755 ;
756 [label="gini = 0.0\nsamples = 1\nvalue = [0, 0, 0, 1]\nclass = Baixo", fillcolor="#d739e5ff"] ;
752 -> 756 ;
757 [label="Suites <= 0.5\ngini = 0.55\nsamples = 51\nvalue = [25, 7, 0, 44]\nclass = Baixo", fillcolor="#d739e55f"] ;
661 -> 757 ;
758 [label="Toilets <= 1.5\ngini = 0.6\nsamples = 23\nvalue = [12, 4, 0, 15]\nclass = Baixo", fillcolor="#d739e528"] ;
757 -> 758 ;
759 [label="Condo <= 564.0\ngini = 0.6\nsamples = 22\nvalue = [12, 4, 0, 14]\nclass = Baixo", fillcolor="#d739e51c"] ;
758 -> 759 ;
760 [label="Condo <= 555.5\ngini = 0.61\nsamples = 20\nvalue = [12, 4, 0, 11]\nclass = Muito Alto", fillcolor="#e5813910"] ;
759 -> 760 ;
761 [label="Condo <= 502.5\ngini = 0.62\nsamples = 18\nvalue = [10, 4, 0, 11]\nclass = Baixo", fillcolor="#d739e511"] ;
760 -> 761 ;
762 [label="Size <= 51.0\ngini = 0.41\nsamples = 7\nvalue = [5, 0, 0, 2]\nclass = Muito Alto", fillcolor="#e5813999"] ;
761 -> 762 ;
763 [label="gini = 0.0\nsamples = 4\nvalue = [4, 0, 0, 0]\nclass = Muito Alto", fillcolor="#e58139ff"] ;
762 -> 763 ;
764 [label="Size <= 54.5\ngini = 0.44\nsamples = 3\nvalue = [1, 0, 0, 2]\nclass = Baixo", fillcolor="#d739e57f"] ;
762 -> 764 ;
765 [label="gini = 0.0\nsamples = 2\nvalue = [0, 0, 0, 2]\nclass = Baixo", fillcolor="#d739e5ff"] ;
764 -> 765 ;
766 [label="gini = 0.0\nsamples = 1\nvalue = [1, 0, 0, 0]\nclass = Muito Alto", fillcolor="#e58139ff"] ;
764 -> 766 ;
767 [label="Size <= 52.5\ngini = 0.62\nsamples = 11\nvalue = [5, 4, 0, 9]\nclass = Baixo", fillcolor="#d739e54e"] ;
761 -> 767 ;
768 [label="Size <= 51.0\ngini = 0.41\nsamples = 4\nvalue = [0, 2, 0, 5]\nclass = Baixo", fillcolor="#d739e599"] ;
767 -> 768 ;
769 [label="Condo <= 550.5\ngini = 0.5\nsamples = 3\nvalue = [0, 2, 0, 2]\nclass = Alto", fillcolor="#47e53900"] ;
768 -> 769 ;
770 [label="gini = 0.0\nsamples = 2\nvalue = [0, 2, 0, 0]\nclass = Alto", fillcolor="#47e539ff"] ;
769 -> 770 ;
771 [label="gini = 0.0\nsamples = 1\nvalue = [0, 0, 0, 2]\nclass = Baixo", fillcolor="#d739e5ff"] ;
769 -> 771 ;
772 [label="gini = 0.0\nsamples = 1\nvalue = [0, 0, 0, 3]\nclass = Baixo", fillcolor="#d739e5ff"] ;
768 -> 772 ;
773 [label="Rooms <= 1.5\ngini = 0.63\nsamples = 7\nvalue = [5, 2, 0, 4]\nclass = Muito Alto", fillcolor="#e5813924"] ;
767 -> 773 ;
774 [label="Size <= 56.0\ngini = 0.61\nsamples = 4\nvalue = [2, 1, 0, 3]\nclass = Baixo", fillcolor="#d739e540"] ;
773 -> 774 ;
775 [label="Condo <= 535.0\ngini = 0.44\nsamples = 2\nvalue = [2, 0, 0, 1]\nclass = Muito Alto", fillcolor="#e581397f"] ;
774 -> 775 ;
776 [label="gini = 0.0\nsamples = 1\nvalue = [0, 0, 0, 1]\nclass = Baixo", fillcolor="#d739e5ff"] ;
775 -> 776 ;
777 [label="gini = 0.0\nsamples = 1\nvalue = [2, 0, 0, 0]\nclass = Muito Alto", fillcolor="#e58139ff"] ;
775 -> 777 ;
778 [label="Condo <= 518.0\ngini = 0.44\nsamples = 2\nvalue = [0, 1, 0, 2]\nclass = Baixo", fillcolor="#d739e57f"] ;
774 -> 778 ;
779 [label="gini = 0.0\nsamples = 1\nvalue = [0, 1, 0, 0]\nclass = Alto", fillcolor="#47e539ff"] ;
778 -> 779 ;
780 [label="gini = 0.0\nsamples = 1\nvalue = [0, 0, 0, 2]\nclass = Baixo", fillcolor="#d739e5ff"] ;
778 -> 780 ;
781 [label="Swimming Pool <= 0.5\ngini = 0.56\nsamples = 3\nvalue = [3, 1, 0, 1]\nclass = Muito Alto", fillcolor="#e581397f"] ;
773 -> 781 ;
782 [label="Condo <= 531.5\ngini = 0.38\nsamples = 2\nvalue = [3, 0, 0, 1]\nclass = Muito Alto", fillcolor="#e58139aa"] ;
781 -> 782 ;
783 [label="gini = 0.0\nsamples = 1\nvalue = [3, 0, 0, 0]\nclass = Muito Alto", fillcolor="#e58139ff"] ;
782 -> 783 ;
784 [label="gini = 0.0\nsamples = 1\nvalue = [0, 0, 0, 1]\nclass = Baixo", fillcolor="#d739e5ff"] ;
782 -> 784 ;
785 [label="gini = 0.0\nsamples = 1\nvalue = [0, 1, 0, 0]\nclass = Alto", fillcolor="#47e539ff"] ;
781 -> 785 ;
786 [label="gini = 0.0\nsamples = 2\nvalue = [2, 0, 0, 0]\nclass = Muito Alto", fillcolor="#e58139ff"] ;
760 -> 786 ;
787 [label="gini = 0.0\nsamples = 2\nvalue = [0, 0, 0, 3]\nclass = Baixo", fillcolor="#d739e5ff"] ;
759 -> 787 ;
788 [label="gini = 0.0\nsamples = 1\nvalue = [0, 0, 0, 1]\nclass = Baixo", fillcolor="#d739e5ff"] ;
758 -> 788 ;
789 [label="Swimming Pool <= 0.5\ngini = 0.5\nsamples = 28\nvalue = [13, 3, 0, 29]\nclass = Baixo", fillcolor="#d739e580"] ;
757 -> 789 ;
790 [label="Condo <= 530.0\ngini = 0.26\nsamples = 8\nvalue = [0, 2, 0, 11]\nclass = Baixo", fillcolor="#d739e5d1"] ;
789 -> 790 ;
791 [label="Size <= 49.0\ngini = 0.32\nsamples = 6\nvalue = [0, 2, 0, 8]\nclass = Baixo", fillcolor="#d739e5bf"] ;
790 -> 791 ;
792 [label="gini = 0.0\nsamples = 1\nvalue = [0, 1, 0, 0]\nclass = Alto", fillcolor="#47e539ff"] ;
791 -> 792 ;
793 [label="Size <= 53.5\ngini = 0.2\nsamples = 5\nvalue = [0, 1, 0, 8]\nclass = Baixo", fillcolor="#d739e5df"] ;
791 -> 793 ;
794 [label="gini = 0.0\nsamples = 4\nvalue = [0, 0, 0, 8]\nclass = Baixo", fillcolor="#d739e5ff"] ;
793 -> 794 ;
795 [label="gini = 0.0\nsamples = 1\nvalue = [0, 1, 0, 0]\nclass = Alto", fillcolor="#47e539ff"] ;
793 -> 795 ;
796 [label="gini = 0.0\nsamples = 2\nvalue = [0, 0, 0, 3]\nclass = Baixo", fillcolor="#d739e5ff"] ;
790 -> 796 ;
797 [label="Rooms <= 1.5\ngini = 0.52\nsamples = 20\nvalue = [13, 1, 0, 18]\nclass = Baixo", fillcolor="#d739e543"] ;
789 -> 797 ;
798 [label="gini = 0.0\nsamples = 3\nvalue = [6, 0, 0, 0]\nclass = Muito Alto", fillcolor="#e58139ff"] ;
797 -> 798 ;
799 [label="Condo <= 565.0\ngini = 0.45\nsamples = 17\nvalue = [7, 1, 0, 18]\nclass = Baixo", fillcolor="#d739e594"] ;
797 -> 799 ;
800 [label="Size <= 55.5\ngini = 0.42\nsamples = 16\nvalue = [6, 1, 0, 18]\nclass = Baixo", fillcolor="#d739e5a1"] ;
799 -> 800 ;
801 [label="Size <= 52.0\ngini = 0.23\nsamples = 11\nvalue = [1, 1, 0, 14]\nclass = Baixo", fillcolor="#d739e5dd"] ;
800 -> 801 ;
802 [label="gini = 0.0\nsamples = 6\nvalue = [0, 0, 0, 10]\nclass = Baixo", fillcolor="#d739e5ff"] ;
801 -> 802 ;
803 [label="Condo <= 555.0\ngini = 0.5\nsamples = 5\nvalue = [1, 1, 0, 4]\nclass = Baixo", fillcolor="#d739e599"] ;
801 -> 803 ;
804 [label="Size <= 54.0\ngini = 0.67\nsamples = 3\nvalue = [1, 1, 0, 1]\nclass = Muito Alto", fillcolor="#e5813900"] ;
803 -> 804 ;
805 [label="gini = 0.0\nsamples = 1\nvalue = [1, 0, 0, 0]\nclass = Muito Alto", fillcolor="#e58139ff"] ;
804 -> 805 ;
806 [label="Condo <= 510.0\ngini = 0.5\nsamples = 2\nvalue = [0, 1, 0, 1]\nclass = Alto", fillcolor="#47e53900"] ;
804 -> 806 ;
807 [label="gini = 0.0\nsamples = 1\nvalue = [0, 0, 0, 1]\nclass = Baixo", fillcolor="#d739e5ff"] ;
806 -> 807 ;
808 [label="gini = 0.0\nsamples = 1\nvalue = [0, 1, 0, 0]\nclass = Alto", fillcolor="#47e539ff"] ;
806 -> 808 ;
809 [label="gini = 0.0\nsamples = 2\nvalue = [0, 0, 0, 3]\nclass = Baixo", fillcolor="#d739e5ff"] ;
803 -> 809 ;
810 [label="Size <= 56.5\ngini = 0.49\nsamples = 5\nvalue = [5, 0, 0, 4]\nclass = Muito Alto", fillcolor="#e5813933"] ;
800 -> 810 ;
811 [label="Condo <= 515.0\ngini = 0.48\nsamples = 2\nvalue = [3, 0, 0, 2]\nclass = Muito Alto", fillcolor="#e5813955"] ;
810 -> 811 ;
812 [label="gini = 0.0\nsamples = 1\nvalue = [3, 0, 0, 0]\nclass = Muito Alto", fillcolor="#e58139ff"] ;
811 -> 812 ;
813 [label="gini = 0.0\nsamples = 1\nvalue = [0, 0, 0, 2]\nclass = Baixo", fillcolor="#d739e5ff"] ;
811 -> 813 ;
814 [label="Condo <= 536.0\ngini = 0.5\nsamples = 3\nvalue = [2, 0, 0, 2]\nclass = Muito Alto", fillcolor="#e5813900"] ;
810 -> 814 ;
815 [label="gini = 0.0\nsamples = 2\nvalue = [0, 0, 0, 2]\nclass = Baixo", fillcolor="#d739e5ff"] ;
814 -> 815 ;
816 [label="gini = 0.0\nsamples = 1\nvalue = [2, 0, 0, 0]\nclass = Muito Alto", fillcolor="#e58139ff"] ;
814 -> 816 ;
817 [label="gini = 0.0\nsamples = 1\nvalue = [1, 0, 0, 0]\nclass = Muito Alto", fillcolor="#e58139ff"] ;
799 -> 817 ;
818 [label="Swimming Pool <= 0.5\ngini = 0.55\nsamples = 73\nvalue = [69, 2, 9, 37]\nclass = Muito Alto", fillcolor="#e5813966"] ;
378 -> 818 ;
819 [label="Rooms <= 1.5\ngini = 0.46\nsamples = 29\nvalue = [31, 1, 0, 15]\nclass = Muito Alto", fillcolor="#e581397f"] ;
818 -> 819 ;
