digraph Tree {
node [shape=box, style="filled, rounded", color="black", fontname=helvetica] ;
edge [fontname=helvetica] ;
0 [label="Toilets <= 2.5\ngini = 0.75\nsamples = 2846\nvalue = [1179, 1121, 1117, 1071]\nclass = Muito Alto", fillcolor="#e5813904"] ;
1 [label="Toilets <= 1.5\ngini = 0.73\nsamples = 2406\nvalue = [1085, 1121, 502, 1066]\nclass = Alto", fillcolor="#47e53903"] ;
0 -> 1 [labeldistance=2.5, labelangle=45, headlabel="True"] ;
2 [label="Size <= 57.5\ngini = 0.66\nsamples = 660\nvalue = [184, 447, 52, 356]\nclass = Alto", fillcolor="#47e53922"] ;
1 -> 2 ;
3 [label="Rooms <= 1.5\ngini = 0.57\nsamples = 476\nvalue = [89, 428, 1, 242]\nclass = Alto", fillcolor="#47e5395c"] ;
2 -> 3 ;
4 [label="Condo <= 395.0\ngini = 0.67\nsamples = 107\nvalue = [57, 61, 0, 53]\nclass = Alto", fillcolor="#47e53909"] ;
3 -> 4 ;
5 [label="Size <= 48.5\ngini = 0.61\nsamples = 64\nvalue = [22, 56, 0, 30]\nclass = Alto", fillcolor="#47e53955"] ;
4 -> 5 ;
6 [label="Condo <= 25.0\ngini = 0.52\nsamples = 51\nvalue = [7, 53, 0, 25]\nclass = Alto", fillcolor="#47e53977"] ;
5 -> 6 ;
7 [label="Swimming Pool <= 0.5\ngini = 0.62\nsamples = 14\nvalue = [4, 11, 0, 10]\nclass = Alto", fillcolor="#47e53911"] ;
6 -> 7 ;
8 [label="Size <= 36.5\ngini = 0.64\nsamples = 10\nvalue = [4, 8, 0, 8]\nclass = Alto", fillcolor="#47e53900"] ;
7 -> 8 ;
9 [label="Size <= 31.5\ngini = 0.44\nsamples = 6\nvalue = [0, 4, 0, 8]\nclass = Baixo", fillcolor="#d739e57f"] ;
8 -> 9 ;
10 [label="gini = 0.0\nsamples = 1\nvalue = [0, 0, 0, 3]\nclass = Baixo", fillcolor="#d739e5ff"] ;
9 -> 10 ;
11 [label="Size <= 33.5\ngini = 0.49\nsamples = 5\nvalue = [0, 4, 0, 5]\nclass = Baixo", fillcolor="#d739e533"] ;
9 -> 11 ;
12 [label="gini = 0.0\nsamples = 2\nvalue = [0, 2, 0, 0]\nclass = Alto", fillcolor="#47e539ff"] ;
11 -> 12 ;
13 [label="Size <= 34.5\ngini = 0.41\nsamples = 3\nvalue = [0, 2, 0, 5]\nclass = Baixo", fillcolor="#d739e599"] ;
11 -> 13 ;
14 [label="gini = 0.0\nsamples = 1\nvalue = [0, 0, 0, 3]\nclass = Baixo", fillcolor="#d739e5ff"] ;
13 -> 14 ;
15 [label="Size <= 35.5\ngini = 0.5\nsamples = 2\nvalue = [0, 2, 0, 2]\nclass = Alto", fillcolor="#47e53900"] ;
13 -> 15 ;
16 [label="gini = 0.0\nsamples = 1\nvalue = [0, 2, 0, 0]\nclass = Alto", fillcolor="#47e539ff"] ;
15 -> 16 ;
17 [label="gini = 0.0\nsamples = 1\nvalue = [0, 0, 0, 2]\nclass = Baixo", fillcolor="#d739e5ff"] ;
15 -> 17 ;
18 [label="Size <= 37.5\ngini = 0.5\nsamples = 4\nvalue = [4, 4, 0, 0]\nclass = Muito Alto", fillcolor="#e5813900"] ;
8 -> 18 ;
19 [label="gini = 0.0\nsamples = 1\nvalue = [0, 2, 0, 0]\nclass = Alto", fillcolor="#47e539ff"] ;
18 -> 19 ;
20 [label="Size <= 42.0\ngini = 0.44\nsamples = 3\nvalue = [4, 2, 0, 0]\nclass = Muito Alto", fillcolor="#e581397f"] ;
18 -> 20 ;
21 [label="gini = 0.32\nsamples = 2\nvalue = [4, 1, 0, 0]\nclass = Muito Alto", fillcolor="#e58139bf"] ;
20 -> 21 ;
22 [label="gini = 0.0\nsamples = 1\nvalue = [0, 1, 0, 0]\nclass = Alto", fillcolor="#47e539ff"] ;
20 -> 22 ;
23 [label="Size <= 39.5\ngini = 0.48\nsamples = 4\nvalue = [0, 3, 0, 2]\nclass = Alto", fillcolor="#47e53955"] ;
7 -> 23 ;
24 [label="gini = 0.0\nsamples = 2\nvalue = [0, 2, 0, 0]\nclass = Alto", fillcolor="#47e539ff"] ;
23 -> 24 ;
25 [label="Size <= 44.0\ngini = 0.44\nsamples = 2\nvalue = [0, 1, 0, 2]\nclass = Baixo", fillcolor="#d739e57f"] ;
23 -> 25 ;
26 [label="gini = 0.0\nsamples = 1\nvalue = [0, 0, 0, 2]\nclass = Baixo", fillcolor="#d739e5ff"] ;
25 -> 26 ;
27 [label="gini = 0.0\nsamples = 1\nvalue = [0, 1, 0, 0]\nclass = Alto", fillcolor="#47e539ff"] ;
25 -> 27 ;
28 [label="Swimming Pool <= 0.5\ngini = 0.44\nsamples = 37\nvalue = [3, 42, 0, 15]\nclass = Alto", fillcolor="#47e53999"] ;
6 -> 28 ;
29 [label="Condo <= 273.5\ngini = 0.18\nsamples = 26\nvalue = [0, 37, 0, 4]\nclass = Alto", fillcolor="#47e539e3"] ;
28 -> 29 ;
30 [label="gini = 0.0\nsamples = 11\nvalue = [0, 20, 0, 0]\nclass = Alto", fillcolor="#47e539ff"] ;
29 -> 30 ;
31 [label="Size <= 31.5\ngini = 0.31\nsamples = 15\nvalue = [0, 17, 0, 4]\nclass = Alto", fillcolor="#47e539c3"] ;
29 -> 31 ;
32 [label="Size <= 30.5\ngini = 0.5\nsamples = 2\nvalue = [0, 1, 0, 1]\nclass = Alto", fillcolor="#47e53900"] ;
31 -> 32 ;
33 [label="gini = 0.0\nsamples = 1\nvalue = [0, 1, 0, 0]\nclass = Alto", fillcolor="#47e539ff"] ;
32 -> 33 ;
34 [label="gini = 0.0\nsamples = 1\nvalue = [0, 0, 0, 1]\nclass = Baixo", fillcolor="#d739e5ff"] ;
32 -> 34 ;
35 [label="Condo <= 275.5\ngini = 0.27\nsamples = 13\nvalue = [0, 16, 0, 3]\nclass = Alto", fillcolor="#47e539cf"] ;
31 -> 35 ;
36 [label="gini = 0.0\nsamples = 1\nvalue = [0, 0, 0, 1]\nclass = Baixo", fillcolor="#d739e5ff"] ;
35 -> 36 ;
37 [label="Size <= 34.5\ngini = 0.2\nsamples = 12\nvalue = [0, 16, 0, 2]\nclass = Alto", fillcolor="#47e539df"] ;
35 -> 37 ;
38 [label="gini = 0.0\nsamples = 3\nvalue = [0, 4, 0, 0]\nclass = Alto", fillcolor="#47e539ff"] ;
37 -> 38 ;
39 [label="Condo <= 307.5\ngini = 0.24\nsamples = 9\nvalue = [0, 12, 0, 2]\nclass = Alto", fillcolor="#47e539d4"] ;
37 -> 39 ;
40 [label="gini = 0.0\nsamples = 1\nvalue = [0, 4, 0, 0]\nclass = Alto", fillcolor="#47e539ff"] ;
39 -> 40 ;
41 [label="Condo <= 330.0\ngini = 0.32\nsamples = 8\nvalue = [0, 8, 0, 2]\nclass = Alto", fillcolor="#47e539bf"] ;
39 -> 41 ;
42 [label="gini = 0.0\nsamples = 1\nvalue = [0, 0, 0, 1]\nclass = Baixo", fillcolor="#d739e5ff"] ;
41 -> 42 ;
43 [label="Size <= 46.0\ngini = 0.2\nsamples = 7\nvalue = [0, 8, 0, 1]\nclass = Alto", fillcolor="#47e539df"] ;
41 -> 43 ;
44 [label="gini = 0.0\nsamples = 6\nvalue = [0, 8, 0, 0]\nclass = Alto", fillcolor="#47e539ff"] ;
43 -> 44 ;
45 [label="gini = 0.0\nsamples = 1\nvalue = [0, 0, 0, 1]\nclass = Baixo", fillcolor="#d739e5ff"] ;
43 -> 45 ;
46 [label="Size <= 32.5\ngini = 0.57\nsamples = 11\nvalue = [3, 5, 0, 11]\nclass = Baixo", fillcolor="#d739e56d"] ;
28 -> 46 ;
47 [label="gini = 0.0\nsamples = 1\nvalue = [0, 3, 0, 0]\nclass = Alto", fillcolor="#47e539ff"] ;
46 -> 47 ;
48 [label="Size <= 42.0\ngini = 0.48\nsamples = 10\nvalue = [3, 2, 0, 11]\nclass = Baixo", fillcolor="#d739e59d"] ;
46 -> 48 ;
49 [label="Condo <= 362.5\ngini = 0.26\nsamples = 7\nvalue = [2, 0, 0, 11]\nclass = Baixo", fillcolor="#d739e5d1"] ;
48 -> 49 ;
50 [label="gini = 0.0\nsamples = 5\nvalue = [0, 0, 0, 9]\nclass = Baixo", fillcolor="#d739e5ff"] ;
49 -> 50 ;
51 [label="Size <= 37.5\ngini = 0.5\nsamples = 2\nvalue = [2, 0, 0, 2]\nclass = Muito Alto", fillcolor="#e5813900"] ;
49 -> 51 ;
52 [label="gini = 0.0\nsamples = 1\nvalue = [2, 0, 0, 0]\nclass = Muito Alto", fillcolor="#e58139ff"] ;
51 -> 52 ;
53 [label="gini = 0.0\nsamples = 1\nvalue = [0, 0, 0, 2]\nclass = Baixo", fillcolor="#d739e5ff"] ;
51 -> 53 ;
54 [label="Condo <= 275.0\ngini = 0.44\nsamples = 3\nvalue = [1, 2, 0, 0]\nclass = Alto", fillcolor="#47e5397f"] ;
48 -> 54 ;
55 [label="gini = 0.0\nsamples = 1\nvalue = [0, 1, 0, 0]\nclass = Alto", fillcolor="#47e539ff"] ;
54 -> 55 ;
56 [label="Condo <= 309.5\ngini = 0.5\nsamples = 2\nvalue = [1, 1, 0, 0]\nclass = Muito Alto", fillcolor="#e5813900"] ;
54 -> 56 ;
57 [label="gini = 0.0\nsamples = 1\nvalue = [1, 0, 0, 0]\nclass = Muito Alto", fillcolor="#e58139ff"] ;
56 -> 57 ;
58 [label="gini = 0.0\nsamples = 1\nvalue = [0, 1, 0, 0]\nclass = Alto", fillcolor="#47e539ff"] ;
56 -> 58 ;
59 [label="Swimming Pool <= 0.5\ngini = 0.51\nsamples = 13\nvalue = [15, 3, 0, 5]\nclass = Muito Alto", fillcolor="#e581398e"] ;
5 -> 59 ;
60 [label="Size <= 51.0\ngini = 0.63\nsamples = 8\nvalue = [7, 3, 0, 5]\nclass = Muito Alto", fillcolor="#e5813933"] ;
59 -> 60 ;
61 [label="Condo <= 190.0\ngini = 0.22\nsamples = 4\nvalue = [7, 1, 0, 0]\nclass = Muito Alto", fillcolor="#e58139db"] ;
60 -> 61 ;
62 [label="Size <= 49.5\ngini = 0.38\nsamples = 3\nvalue = [3, 1, 0, 0]\nclass = Muito Alto", fillcolor="#e58139aa"] ;
61 -> 62 ;
63 [label="gini = 0.0\nsamples = 1\nvalue = [2, 0, 0, 0]\nclass = Muito Alto", fillcolor="#e58139ff"] ;
62 -> 63 ;
64 [label="gini = 0.5\nsamples = 2\nvalue = [1, 1, 0, 0]\nclass = Muito Alto", fillcolor="#e5813900"] ;
62 -> 64 ;
65 [label="gini = 0.0\nsamples = 1\nvalue = [4, 0, 0, 0]\nclass = Muito Alto", fillcolor="#e58139ff"] ;
61 -> 65 ;
66 [label="Condo <= 365.0\ngini = 0.41\nsamples = 4\nvalue = [0, 2, 0, 5]\nclass = Baixo", fillcolor="#d739e599"] ;
60 -> 66 ;
67 [label="gini = 0.0\nsamples = 3\nvalue = [0, 0, 0, 5]\nclass = Baixo", fillcolor="#d739e5ff"] ;
66 -> 67 ;
68 [label="gini = 0.0\nsamples = 1\nvalue = [0, 2, 0, 0]\nclass = Alto", fillcolor="#47e539ff"] ;
66 -> 68 ;
69 [label="gini = 0.0\nsamples = 5\nvalue = [8, 0, 0, 0]\nclass = Muito Alto", fillcolor="#e58139ff"] ;
59 -> 69 ;
70 [label="Swimming Pool <= 0.5\ngini = 0.55\nsamples = 43\nvalue = [35, 5, 0, 23]\nclass = Muito Alto", fillcolor="#e581394d"] ;
4 -> 70 ;
71 [label="Condo <= 605.0\ngini = 0.6\nsamples = 22\nvalue = [13, 4, 0, 14]\nclass = Baixo", fillcolor="#d739e50e"] ;
70 -> 71 ;
72 [label="Size <= 56.5\ngini = 0.54\nsamples = 15\nvalue = [4, 4, 0, 13]\nclass = Baixo", fillcolor="#d739e587"] ;
71 -> 72 ;
73 [label="Size <= 31.5\ngini = 0.48\nsamples = 14\nvalue = [4, 2, 0, 13]\nclass = Baixo", fillcolor="#d739e599"] ;
72 -> 73 ;
74 [label="gini = 0.0\nsamples = 1\nvalue = [0, 1, 0, 0]\nclass = Alto", fillcolor="#47e539ff"] ;
73 -> 74 ;
75 [label="Size <= 38.5\ngini = 0.43\nsamples = 13\nvalue = [4, 1, 0, 13]\nclass = Baixo", fillcolor="#d739e5a4"] ;
73 -> 75 ;
76 [label="Condo <= 437.0\ngini = 0.5\nsamples = 4\nvalue = [3, 0, 0, 3]\nclass = Muito Alto", fillcolor="#e5813900"] ;
75 -> 76 ;
77 [label="gini = 0.0\nsamples = 2\nvalue = [0, 0, 0, 3]\nclass = Baixo", fillcolor="#d739e5ff"] ;
76 -> 77 ;
78 [label="gini = 0.0\nsamples = 2\nvalue = [3, 0, 0, 0]\nclass = Muito Alto", fillcolor="#e58139ff"] ;
76 -> 78 ;
79 [label="Condo <= 451.5\ngini = 0.29\nsamples = 9\nvalue = [1, 1, 0, 10]\nclass = Baixo", fillcolor="#d739e5d1"] ;
75 -> 79 ;
80 [label="Condo <= 420.0\ngini = 0.44\nsamples = 2\nvalue = [0, 1, 0, 2]\nclass = Baixo", fillcolor="#d739e57f"] ;
79 -> 80 ;
81 [label="gini = 0.0\nsamples = 1\nvalue = [0, 0, 0, 2]\nclass = Baixo", fillcolor="#d739e5ff"] ;
80 -> 81 ;
82 [label="gini = 0.0\nsamples = 1\nvalue = [0, 1, 0, 0]\nclass = Alto", fillcolor="#47e539ff"] ;
80 -> 82 ;
83 [label="Condo <= 505.0\ngini = 0.2\nsamples = 7\nvalue = [1, 0, 0, 8]\nclass = Baixo", fillcolor="#d739e5df"] ;
79 -> 83 ;
84 [label="Condo <= 485.0\ngini = 0.32\nsamples = 4\nvalue = [1, 0, 0, 4]\nclass = Baixo", fillcolor="#d739e5bf"] ;
83 -> 84 ;
85 [label="gini = 0.0\nsamples = 2\nvalue = [0, 0, 0, 3]\nclass = Baixo", fillcolor="#d739e5ff"] ;
84 -> 85 ;
86 [label="Size <= 48.0\ngini = 0.5\nsamples = 2\nvalue = [1, 0, 0, 1]\nclass = Muito Alto", fillcolor="#e5813900"] ;
84 -> 86 ;
87 [label="gini = 0.0\nsamples = 1\nvalue = [0, 0, 0, 1]\nclass = Baixo", fillcolor="#d739e5ff"] ;
86 -> 87 ;
88 [label="gini = 0.0\nsamples = 1\nvalue = [1, 0, 0, 0]\nclass = Muito Alto", fillcolor="#e58139ff"] ;
86 -> 88 ;
89 [label="gini = 0.0\nsamples = 3\nvalue = [0, 0, 0, 4]\nclass = Baixo", fillcolor="#d739e5ff"] ;
83 -> 89 ;
90 [label="gini = 0.0\nsamples = 1\nvalue = [0, 2, 0, 0]\nclass = Alto", fillcolor="#47e539ff"] ;
72 -> 90 ;
91 [label="Size <= 41.0\ngini = 0.18\nsamples = 7\nvalue = [9, 0, 0, 1]\nclass = Muito Alto", fillcolor="#e58139e3"] ;
71 -> 91 ;
92 [label="gini = 0.0\nsamples = 3\nvalue = [5, 0, 0, 0]\nclass = Muito Alto", fillcolor="#e58139ff"] ;
91 -> 92 ;
93 [label="Size <= 43.5\ngini = 0.32\nsamples = 4\nvalue = [4, 0, 0, 1]\nclass = Muito Alto", fillcolor="#e58139bf"] ;
91 -> 93 ;
94 [label="gini = 0.0\nsamples = 1\nvalue = [0, 0, 0, 1]\nclass = Baixo", fillcolor="#d739e5ff"] ;
93 -> 94 ;
95 [label="gini = 0.0\nsamples = 3\nvalue = [4, 0, 0, 0]\nclass = Muito Alto", fillcolor="#e58139ff"] ;
93 -> 95 ;
96 [label="Condo <= 856.0\ngini = 0.45\nsamples = 21\nvalue = [22, 1, 0, 9]\nclass = Muito Alto", fillcolor="#e5813990"] ;
70 -> 96 ;
97 [label="Condo <= 575.0\ngini = 0.41\nsamples = 19\nvalue = [22, 1, 0, 7]\nclass = Muito Alto", fillcolor="#e58139a6"] ;
96 -> 97 ;
98 [label="Condo <= 431.0\ngini = 0.53\nsamples = 12\nvalue = [11, 1, 0, 7]\nclass = Muito Alto", fillcolor="#e5813955"] ;
97 -> 98 ;
99 [label="gini = 0.0\nsamples = 2\nvalue = [5, 0, 0, 0]\nclass = Muito Alto", fillcolor="#e58139ff"] ;
98 -> 99 ;
100 [label="Size <= 42.5\ngini = 0.56\nsamples = 10\nvalue = [6, 1, 0, 7]\nclass = Baixo", fillcolor="#d739e520"] ;
98 -> 100 ;
101 [label="Condo <= 475.0\ngini = 0.46\nsamples = 6\nvalue = [2, 1, 0, 7]\nclass = Baixo", fillcolor="#d739e59f"] ;
100 -> 101 ;
102 [label="Size <= 39.0\ngini = 0.5\nsamples = 2\nvalue = [2, 0, 0, 2]\nclass = Muito Alto", fillcolor="#e5813900"] ;
101 -> 102 ;
103 [label="gini = 0.0\nsamples = 1\nvalue = [2, 0, 0, 0]\nclass = Muito Alto", fillcolor="#e58139ff"] ;
102 -> 103 ;
104 [label="gini = 0.0\nsamples = 1\nvalue = [0, 0, 0, 2]\nclass = Baixo", fillcolor="#d739e5ff"] ;
102 -> 104 ;
105 [label="Size <= 39.0\ngini = 0.28\nsamples = 4\nvalue = [0, 1, 0, 5]\nclass = Baixo", fillcolor="#d739e5cc"] ;
101 -> 105 ;
106 [label="gini = 0.0\nsamples = 3\nvalue = [0, 0, 0, 5]\nclass = Baixo", fillcolor="#d739e5ff"] ;
105 -> 106 ;
107 [label="gini = 0.0\nsamples = 1\nvalue = [0, 1, 0, 0]\nclass = Alto", fillcolor="#47e539ff"] ;
105 -> 107 ;
108 [label="gini = 0.0\nsamples = 4\nvalue = [4, 0, 0, 0]\nclass = Muito Alto", fillcolor="#e58139ff"] ;
100 -> 108 ;
109 [label="gini = 0.0\nsamples = 7\nvalue = [11, 0, 0, 0]\nclass = Muito Alto", fillcolor="#e58139ff"] ;
97 -> 109 ;
110 [label="gini = 0.0\nsamples = 2\nvalue = [0, 0, 0, 2]\nclass = Baixo", fillcolor="#d739e5ff"] ;
96 -> 110 ;
111 [label="Swimming Pool <= 0.5\ngini = 0.51\nsamples = 369\nvalue = [32, 367, 1, 189]\nclass = Alto", fillcolor="#47e53971"] ;
3 -> 111 ;
112 [label="Condo <= 325.0\ngini = 0.44\nsamples = 246\nvalue = [14, 268, 0, 103]\nclass = Alto", fillcolor="#47e53995"] ;
111 -> 112 ;
113 [label="Rooms <= 2.5\ngini = 0.24\nsamples = 163\nvalue = [3, 217, 0, 32]\nclass = Alto", fillcolor="#47e539d6"] ;
112 -> 113 ;
114 [label="Condo <= 30.0\ngini = 0.25\nsamples = 157\nvalue = [3, 208, 0, 32]\nclass = Alto", fillcolor="#47e539d5"] ;
113 -> 114 ;
115 [label="Size <= 43.5\ngini = 0.41\nsamples = 45\nvalue = [3, 57, 0, 18]\nclass = Alto", fillcolor="#47e539a6"] ;
114 -> 115 ;
116 [label="gini = 0.0\nsamples = 14\nvalue = [0, 27, 0, 0]\nclass = Alto", fillcolor="#47e539ff"] ;
115 -> 116 ;
117 [label="Size <= 46.0\ngini = 0.53\nsamples = 31\nvalue = [3, 30, 0, 18]\nclass = Alto", fillcolor="#47e5395d"] ;
115 -> 117 ;
118 [label="Size <= 44.5\ngini = 0.46\nsamples = 13\nvalue = [0, 6, 0, 11]\nclass = Baixo", fillcolor="#d739e574"] ;
117 -> 118 ;
119 [label="gini = 0.48\nsamples = 3\nvalue = [0, 2, 0, 3]\nclass = Baixo", fillcolor="#d739e555"] ;
118 -> 119 ;
120 [label="gini = 0.44\nsamples = 10\nvalue = [0, 4, 0, 8]\nclass = Baixo", fillcolor="#d739e57f"] ;
118 -> 120 ;
121 [label="Size <= 48.5\ngini = 0.45\nsamples = 18\nvalue = [3, 24, 0, 7]\nclass = Alto", fillcolor="#47e539a1"] ;
117 -> 121 ;
122 [label="Size <= 47.5\ngini = 0.3\nsamples = 7\nvalue = [3, 13, 0, 0]\nclass = Alto", fillcolor="#47e539c4"] ;
121 -> 122 ;
123 [label="gini = 0.0\nsamples = 1\nvalue = [0, 2, 0, 0]\nclass = Alto", fillcolor="#47e539ff"] ;
122 -> 123 ;
124 [label="gini = 0.34\nsamples = 6\nvalue = [3, 11, 0, 0]\nclass = Alto", fillcolor="#47e539b9"] ;
122 -> 124 ;
125 [label="Size <= 55.5\ngini = 0.48\nsamples = 11\nvalue = [0, 11, 0, 7]\nclass = Alto", fillcolor="#47e5395d"] ;
121 -> 125 ;
126 [label="Size <= 50.5\ngini = 0.48\nsamples = 10\nvalue = [0, 10, 0, 7]\nclass = Alto", fillcolor="#47e5394d"] ;
125 -> 126 ;
127 [label="Size <= 49.5\ngini = 0.44\nsamples = 6\nvalue = [0, 6, 0, 3]\nclass = Alto", fillcolor="#47e5397f"] ;
126 -> 127 ;
128 [label="gini = 0.44\nsamples = 3\nvalue = [0, 4, 0, 2]\nclass = Alto", fillcolor="#47e5397f"] ;
127 -> 128 ;
129 [label="gini = 0.44\nsamples = 3\nvalue = [0, 2, 0, 1]\nclass = Alto", fillcolor="#47e5397f"] ;
127 -> 129 ;
130 [label="Size <= 52.5\ngini = 0.5\nsamples = 4\nvalue = [0, 4, 0, 4]\nclass = Alto", fillcolor="#47e53900"] ;
126 -> 130 ;
131 [label="gini = 0.5\nsamples = 2\nvalue = [0, 2, 0, 2]\nclass = Alto", fillcolor="#47e53900"] ;
130 -> 131 ;
132 [label="gini = 0.5\nsamples = 2\nvalue = [0, 2, 0, 2]\nclass = Alto", fillcolor="#47e53900"] ;
130 -> 132 ;
133 [label="gini = 0.0\nsamples = 1\nvalue = [0, 1, 0, 0]\nclass = Alto", fillcolor="#47e539ff"] ;
125 -> 133 ;
134 [label="Size <= 32.0\ngini = 0.16\nsamples = 112\nvalue = [0, 151, 0, 14]\nclass = Alto", fillcolor="#47e539e7"] ;
114 -> 134 ;
135 [label="gini = 0.0\nsamples = 1\nvalue = [0, 0, 0, 1]\nclass = Baixo", fillcolor="#d739e5ff"] ;
134 -> 135 ;
136 [label="Size <= 48.5\ngini = 0.15\nsamples = 111\nvalue = [0, 151, 0, 13]\nclass = Alto", fillcolor="#47e539e9"] ;
134 -> 136 ;
137 [label="Condo <= 297.5\ngini = 0.06\nsamples = 69\nvalue = [0, 100, 0, 3]\nclass = Alto", fillcolor="#47e539f7"] ;
136 -> 137 ;
138 [label="gini = 0.0\nsamples = 62\nvalue = [0, 92, 0, 0]\nclass = Alto", fillcolor="#47e539ff"] ;
137 -> 138 ;
139 [label="Size <= 45.5\ngini = 0.4\nsamples = 7\nvalue = [0, 8, 0, 3]\nclass = Alto", fillcolor="#47e5399f"] ;
137 -> 139 ;
140 [label="gini = 0.0\nsamples = 1\nvalue = [0, 0, 0, 1]\nclass = Baixo", fillcolor="#d739e5ff"] ;
139 -> 140 ;
141 [label="Condo <= 317.5\ngini = 0.32\nsamples = 6\nvalue = [0, 8, 0, 2]\nclass = Alto", fillcolor="#47e539bf"] ;
139 -> 141 ;
142 [label="Size <= 47.5\ngini = 0.41\nsamples = 5\nvalue = [0, 5, 0, 2]\nclass = Alto", fillcolor="#47e53999"] ;
141 -> 142 ;
143 [label="gini = 0.0\nsamples = 1\nvalue = [0, 1, 0, 0]\nclass = Alto", fillcolor="#47e539ff"] ;
142 -> 143 ;
144 [label="Condo <= 307.5\ngini = 0.44\nsamples = 4\nvalue = [0, 4, 0, 2]\nclass = Alto", fillcolor="#47e5397f"] ;
142 -> 144 ;
145 [label="gini = 0.0\nsamples = 1\nvalue = [0, 1, 0, 0]\nclass = Alto", fillcolor="#47e539ff"] ;
144 -> 145 ;
146 [label="gini = 0.48\nsamples = 3\nvalue = [0, 3, 0, 2]\nclass = Alto", fillcolor="#47e53955"] ;
144 -> 146 ;
147 [label="gini = 0.0\nsamples = 1\nvalue = [0, 3, 0, 0]\nclass = Alto", fillcolor="#47e539ff"] ;
141 -> 147 ;
148 [label="Size <= 55.5\ngini = 0.27\nsamples = 42\nvalue = [0, 51, 0, 10]\nclass = Alto", fillcolor="#47e539cd"] ;
136 -> 148 ;
149 [label="Size <= 51.5\ngini = 0.33\nsamples = 27\nvalue = [0, 30, 0, 8]\nclass = Alto", fillcolor="#47e539bb"] ;
148 -> 149 ;
150 [label="Size <= 50.5\ngini = 0.24\nsamples = 20\nvalue = [0, 25, 0, 4]\nclass = Alto", fillcolor="#47e539d6"] ;
149 -> 150 ;
151 [label="Condo <= 215.0\ngini = 0.33\nsamples = 12\nvalue = [0, 15, 0, 4]\nclass = Alto", fillcolor="#47e539bb"] ;
150 -> 151 ;
152 [label="gini = 0.0\nsamples = 4\nvalue = [0, 7, 0, 0]\nclass = Alto", fillcolor="#47e539ff"] ;
151 -> 152 ;
153 [label="Condo <= 265.0\ngini = 0.44\nsamples = 8\nvalue = [0, 8, 0, 4]\nclass = Alto", fillcolor="#47e5397f"] ;
151 -> 153 ;
154 [label="gini = 0.0\nsamples = 1\nvalue = [0, 0, 0, 3]\nclass = Baixo", fillcolor="#d739e5ff"] ;
153 -> 154 ;
155 [label="Condo <= 291.5\ngini = 0.2\nsamples = 7\nvalue = [0, 8, 0, 1]\nclass = Alto", fillcolor="#47e539df"] ;
153 -> 155 ;
156 [label="gini = 0.0\nsamples = 3\nvalue = [0, 4, 0, 0]\nclass = Alto", fillcolor="#47e539ff"] ;
155 -> 156 ;
157 [label="Condo <= 299.0\ngini = 0.32\nsamples = 4\nvalue = [0, 4, 0, 1]\nclass = Alto", fillcolor="#47e539bf"] ;
155 -> 157 ;
158 [label="gini = 0.0\nsamples = 1\nvalue = [0, 0, 0, 1]\nclass = Baixo", fillcolor="#d739e5ff"] ;
157 -> 158 ;
159 [label="gini = 0.0\nsamples = 3\nvalue = [0, 4, 0, 0]\nclass = Alto", fillcolor="#47e539ff"] ;
157 -> 159 ;
160 [label="gini = 0.0\nsamples = 8\nvalue = [0, 10, 0, 0]\nclass = Alto", fillcolor="#47e539ff"] ;
150 -> 160 ;
161 [label="Size <= 53.5\ngini = 0.49\nsamples = 7\nvalue = [0, 5, 0, 4]\nclass = Alto", fillcolor="#47e53933"] ;
149 -> 161 ;
162 [label="Condo <= 225.0\ngini = 0.48\nsamples = 4\nvalue = [0, 2, 0, 3]\nclass = Baixo", fillcolor="#d739e555"] ;
161 -> 162 ;
163 [label="gini = 0.0\nsamples = 2\nvalue = [0, 2, 0, 0]\nclass = Alto", fillcolor="#47e539ff"] ;
162 -> 163 ;
164 [label="gini = 0.0\nsamples = 2\nvalue = [0, 0, 0, 3]\nclass = Baixo", fillcolor="#d739e5ff"] ;
162 -> 164 ;
165 [label="Condo <= 282.5\ngini = 0.38\nsamples = 3\nvalue = [0, 3, 0, 1]\nclass = Alto", fillcolor="#47e539aa"] ;
161 -> 165 ;
166 [label="gini = 0.0\nsamples = 1\nvalue = [0, 0, 0, 1]\nclass = Baixo", fillcolor="#d739e5ff"] ;
165 -> 166 ;
167 [label="gini = 0.0\nsamples = 2\nvalue = [0, 3, 0, 0]\nclass = Alto", fillcolor="#47e539ff"] ;
165 -> 167 ;
168 [label="Size <= 56.5\ngini = 0.16\nsamples = 15\nvalue = [0, 21, 0, 2]\nclass = Alto", fillcolor="#47e539e7"] ;
148 -> 168 ;
169 [label="Condo <= 255.0\ngini = 0.22\nsamples = 11\nvalue = [0, 14, 0, 2]\nclass = Alto", fillcolor="#47e539db"] ;
168 -> 169 ;
170 [label="gini = 0.0\nsamples = 10\nvalue = [0, 14, 0, 0]\nclass = Alto", fillcolor="#47e539ff"] ;
169 -> 170 ;
171 [label="gini = 0.0\nsamples = 1\nvalue = [0, 0, 0, 2]\nclass = Baixo", fillcolor="#d739e5ff"] ;
169 -> 171 ;
172 [label="gini = 0.0\nsamples = 4\nvalue = [0, 7, 0, 0]\nclass = Alto", fillcolor="#47e539ff"] ;
168 -> 172 ;
173 [label="gini = 0.0\nsamples = 6\nvalue = [0, 9, 0, 0]\nclass = Alto", fillcolor="#47e539ff"] ;
113 -> 173 ;
174 [label="Condo <= 555.0\ngini = 0.56\nsamples = 83\nvalue = [11, 51, 0, 71]\nclass = Baixo", fillcolor="#d739e53e"] ;
112 -> 174 ;
175 [label="Rooms <= 2.5\ngini = 0.56\nsamples = 72\nvalue = [7, 51, 0, 55]\nclass = Baixo", fillcolor="#d739e510"] ;
174 -> 175 ;
176 [label="Condo <= 335.0\ngini = 0.56\nsamples = 70\nvalue = [7, 50, 0, 53]\nclass = Baixo", fillcolor="#d739e50d"] ;
175 -> 176 ;
177 [label="gini = 0.0\nsamples = 3\nvalue = [0, 0, 0, 5]\nclass = Baixo", fillcolor="#d739e5ff"] ;
176 -> 177 ;
178 [label="Size <= 56.5\ngini = 0.56\nsamples = 67\nvalue = [7, 50, 0, 48]\nclass = Alto", fillcolor="#47e53909"] ;
176 -> 178 ;
179 [label="Size <= 44.0\ngini = 0.54\nsamples = 66\nvalue = [5, 50, 0, 48]\nclass = Alto", fillcolor="#47e53909"] ;
178 -> 179 ;
180 [label="gini = 0.0\nsamples = 2\nvalue = [0, 0, 0, 3]\nclass = Baixo", fillcolor="#d739e5ff"] ;
179 -> 180 ;
181 [label="Condo <= 355.0\ngini = 0.54\nsamples = 64\nvalue = [5, 50, 0, 45]\nclass = Alto", fillcolor="#47e53917"] ;
179 -> 181 ;
182 [label="Condo <= 341.5\ngini = 0.47\nsamples = 11\nvalue = [1, 16, 0, 7]\nclass = Alto", fillcolor="#47e53987"] ;
181 -> 182 ;
183 [label="gini = 0.0\nsamples = 1\nvalue = [0, 1, 0, 0]\nclass = Alto", fillcolor="#47e539ff"] ;
182 -> 183 ;
184 [label="Condo <= 346.5\ngini = 0.48\nsamples = 10\nvalue = [1, 15, 0, 7]\nclass = Alto", fillcolor="#47e53980"] ;
182 -> 184 ;
185 [label="gini = 0.0\nsamples = 1\nvalue = [0, 0, 0, 1]\nclass = Baixo", fillcolor="#d739e5ff"] ;
184 -> 185 ;
186 [label="Size <= 49.5\ngini = 0.46\nsamples = 9\nvalue = [1, 15, 0, 6]\nclass = Alto", fillcolor="#47e5398f"] ;
184 -> 186 ;
187 [label="Size <= 46.0\ngini = 0.56\nsamples = 6\nvalue = [1, 7, 0, 6]\nclass = Alto", fillcolor="#47e53920"] ;
186 -> 187 ;
188 [label="gini = 0.0\nsamples = 1\nvalue = [1, 0, 0, 0]\nclass = Muito Alto", fillcolor="#e58139ff"] ;
187 -> 188 ;
189 [label="Size <= 47.5\ngini = 0.5\nsamples = 5\nvalue = [0, 7, 0, 6]\nclass = Alto", fillcolor="#47e53924"] ;
187 -> 189 ;
190 [label="gini = 0.48\nsamples = 2\nvalue = [0, 2, 0, 3]\nclass = Baixo", fillcolor="#d739e555"] ;
189 -> 190 ;
191 [label="Size <= 48.5\ngini = 0.47\nsamples = 3\nvalue = [0, 5, 0, 3]\nclass = Alto", fillcolor="#47e53966"] ;
189 -> 191 ;
192 [label="gini = 0.0\nsamples = 1\nvalue = [0, 1, 0, 0]\nclass = Alto", fillcolor="#47e539ff"] ;
191 -> 192 ;
193 [label="gini = 0.49\nsamples = 2\nvalue = [0, 4, 0, 3]\nclass = Alto", fillcolor="#47e53940"] ;
191 -> 193 ;
194 [label="gini = 0.0\nsamples = 3\nvalue = [0, 8, 0, 0]\nclass = Alto", fillcolor="#47e539ff"] ;
186 -> 194 ;
195 [label="Size <= 54.5\ngini = 0.55\nsamples = 53\nvalue = [4, 34, 0, 38]\nclass = Baixo", fillcolor="#d739e518"] ;
181 -> 195 ;
196 [label="Size <= 52.5\ngini = 0.53\nsamples = 47\nvalue = [2, 34, 0, 32]\nclass = Alto", fillcolor="#47e5390e"] ;
195 -> 196 ;
197 [label="Size <= 45.5\ngini = 0.53\nsamples = 39\nvalue = [2, 24, 0, 30]\nclass = Baixo", fillcolor="#d739e530"] ;
196 -> 197 ;
198 [label="Condo <= 460.0\ngini = 0.32\nsamples = 4\nvalue = [0, 4, 0, 1]\nclass = Alto", fillcolor="#47e539bf"] ;
197 -> 198 ;
199 [label="gini = 0.0\nsamples = 3\nvalue = [0, 4, 0, 0]\nclass = Alto", fillcolor="#47e539ff"] ;
198 -> 199 ;
200 [label="gini = 0.0\nsamples = 1\nvalue = [0, 0, 0, 1]\nclass = Baixo", fillcolor="#d739e5ff"] ;
198 -> 200 ;
201 [label="Condo <= 425.0\ngini = 0.52\nsamples = 35\nvalue = [2, 20, 0, 29]\nclass = Baixo", fillcolor="#d739e54a"] ;
197 -> 201 ;
202 [label="Size <= 47.5\ngini = 0.4\nsamples = 17\nvalue = [0, 7, 0, 18]\nclass = Baixo", fillcolor="#d739e59c"] ;
201 -> 202 ;
203 [label="gini = 0.0\nsamples = 5\nvalue = [0, 0, 0, 6]\nclass = Baixo", fillcolor="#d739e5ff"] ;
202 -> 203 ;
204 [label="Condo <= 380.0\ngini = 0.47\nsamples = 12\nvalue = [0, 7, 0, 12]\nclass = Baixo", fillcolor="#d739e56a"] ;
202 -> 204 ;
205 [label="Condo <= 365.0\ngini = 0.24\nsamples = 4\nvalue = [0, 1, 0, 6]\nclass = Baixo", fillcolor="#d739e5d4"] ;
204 -> 205 ;
206 [label="Size <= 49.5\ngini = 0.32\nsamples = 3\nvalue = [0, 1, 0, 4]\nclass = Baixo", fillcolor="#d739e5bf"] ;
205 -> 206 ;
207 [label="gini = 0.0\nsamples = 1\nvalue = [0, 0, 0, 3]\nclass = Baixo", fillcolor="#d739e5ff"] ;
206 -> 207 ;
208 [label="gini = 0.5\nsamples = 2\nvalue = [0, 1, 0, 1]\nclass = Alto", fillcolor="#47e53900"] ;
206 -> 208 ;
209 [label="gini = 0.0\nsamples = 1\nvalue = [0, 0, 0, 2]\nclass = Baixo", fillcolor="#d739e5ff"] ;
205 -> 209 ;
210 [label="Size <= 48.5\ngini = 0.5\nsamples = 8\nvalue = [0, 6, 0, 6]\nclass = Alto", fillcolor="#47e53900"] ;
204 -> 210 ;
211 [label="gini = 0.0\nsamples = 1\nvalue = [0, 2, 0, 0]\nclass = Alto", fillcolor="#47e539ff"] ;
210 -> 211 ;
212 [label="Size <= 49.5\ngini = 0.48\nsamples = 7\nvalue = [0, 4, 0, 6]\nclass = Baixo", fillcolor="#d739e555"] ;
210 -> 212 ;
213 [label="gini = 0.0\nsamples = 1\nvalue = [0, 0, 0, 2]\nclass = Baixo", fillcolor="#d739e5ff"] ;
212 -> 213 ;
214 [label="Condo <= 395.0\ngini = 0.5\nsamples = 6\nvalue = [0, 4, 0, 4]\nclass = Alto", fillcolor="#47e53900"] ;
212 -> 214 ;
215 [label="gini = 0.0\nsamples = 1\nvalue = [0, 1, 0, 0]\nclass = Alto", fillcolor="#47e539ff"] ;
214 -> 215 ;
216 [label="Size <= 50.5\ngini = 0.49\nsamples = 5\nvalue = [0, 3, 0, 4]\nclass = Baixo", fillcolor="#d739e540"] ;
214 -> 216 ;
217 [label="gini = 0.0\nsamples = 1\nvalue = [0, 0, 0, 1]\nclass = Baixo", fillcolor="#d739e5ff"] ;
216 -> 217 ;
218 [label="Size <= 51.5\ngini = 0.5\nsamples = 4\nvalue = [0, 3, 0, 3]\nclass = Alto", fillcolor="#47e53900"] ;
216 -> 218 ;
219 [label="gini = 0.5\nsamples = 2\nvalue = [0, 2, 0, 2]\nclass = Alto", fillcolor="#47e53900"] ;
218 -> 219 ;
220 [label="Condo <= 403.5\ngini = 0.5\nsamples = 2\nvalue = [0, 1, 0, 1]\nclass = Alto", fillcolor="#47e53900"] ;
218 -> 220 ;
221 [label="gini = 0.0\nsamples = 1\nvalue = [0, 1, 0, 0]\nclass = Alto", fillcolor="#47e539ff"] ;
220 -> 221 ;
222 [label="gini = 0.0\nsamples = 1\nvalue = [0, 0, 0, 1]\nclass = Baixo", fillcolor="#d739e5ff"] ;
220 -> 222 ;
223 [label="Size <= 47.5\ngini = 0.57\nsamples = 18\nvalue = [2, 13, 0, 11]\nclass = Alto", fillcolor="#47e53922"] ;
201 -> 223 ;
224 [label="gini = 0.0\nsamples = 2\nvalue = [0, 4, 0, 0]\nclass = Alto", fillcolor="#47e539ff"] ;
223 -> 224 ;
225 [label="Size <= 49.5\ngini = 0.57\nsamples = 16\nvalue = [2, 9, 0, 11]\nclass = Baixo", fillcolor="#d739e527"] ;
223 -> 225 ;
226 [label="Condo <= 525.0\ngini = 0.45\nsamples = 5\nvalue = [1, 1, 0, 5]\nclass = Baixo", fillcolor="#d739e5aa"] ;
225 -> 226 ;
227 [label="Condo <= 496.5\ngini = 0.62\nsamples = 4\nvalue = [1, 1, 0, 2]\nclass = Baixo", fillcolor="#d739e555"] ;
226 -> 227 ;
228 [label="Condo <= 460.0\ngini = 0.44\nsamples = 3\nvalue = [0, 1, 0, 2]\nclass = Baixo", fillcolor="#d739e57f"] ;
227 -> 228 ;
229 [label="gini = 0.0\nsamples = 1\nvalue = [0, 0, 0, 1]\nclass = Baixo", fillcolor="#d739e5ff"] ;
228 -> 229 ;
230 [label="Condo <= 486.5\ngini = 0.5\nsamples = 2\nvalue = [0, 1, 0, 1]\nclass = Alto", fillcolor="#47e53900"] ;
228 -> 230 ;
231 [label="gini = 0.0\nsamples = 1\nvalue = [0, 1, 0, 0]\nclass = Alto", fillcolor="#47e539ff"] ;
230 -> 231 ;
232 [label="gini = 0.0\nsamples = 1\nvalue = [0, 0, 0, 1]\nclass = Baixo", fillcolor="#d739e5ff"] ;
230 -> 232 ;
233 [label="gini = 0.0\nsamples = 1\nvalue = [1, 0, 0, 0]\nclass = Muito Alto", fillcolor="#e58139ff"] ;
227 -> 233 ;
234 [label="gini = 0.0\nsamples = 1\nvalue = [0, 0, 0, 3]\nclass = Baixo", fillcolor="#d739e5ff"] ;
226 -> 234 ;
235 [label="Size <= 51.0\ngini = 0.55\nsamples = 11\nvalue = [1, 8, 0, 6]\nclass = Alto", fillcolor="#47e53939"] ;
225 -> 235 ;
236 [label="Condo <= 475.0\ngini = 0.54\nsamples = 8\nvalue = [1, 7, 0, 4]\nclass = Alto", fillcolor="#47e53960"] ;
235 -> 236 ;
237 [label="Condo <= 442.0\ngini = 0.49\nsamples = 5\nvalue = [0, 3, 0, 4]\nclass = Baixo", fillcolor="#d739e540"] ;
236 -> 237 ;
238 [label="gini = 0.0\nsamples = 2\nvalue = [0, 2, 0, 0]\nclass = Alto", fillcolor="#47e539ff"] ;
237 -> 238 ;
239 [label="Condo <= 455.0\ngini = 0.32\nsamples = 3\nvalue = [0, 1, 0, 4]\nclass = Baixo", fillcolor="#d739e5bf"] ;
237 -> 239 ;
240 [label="gini = 0.44\nsamples = 2\nvalue = [0, 1, 0, 2]\nclass = Baixo", fillcolor="#d739e57f"] ;
239 -> 240 ;
241 [label="gini = 0.0\nsamples = 1\nvalue = [0, 0, 0, 2]\nclass = Baixo", fillcolor="#d739e5ff"] ;
239 -> 241 ;
242 [label="Condo <= 495.0\ngini = 0.32\nsamples = 3\nvalue = [1, 4, 0, 0]\nclass = Alto", fillcolor="#47e539bf"] ;
236 -> 242 ;
243 [label="gini = 0.0\nsamples = 1\nvalue = [0, 2, 0, 0]\nclass = Alto", fillcolor="#47e539ff"] ;
242 -> 243 ;
244 [label="Condo <= 525.0\ngini = 0.44\nsamples = 2\nvalue = [1, 2, 0, 0]\nclass = Alto", fillcolor="#47e5397f"] ;
242 -> 244 ;
245 [label="gini = 0.0\nsamples = 1\nvalue = [1, 0, 0, 0]\nclass = Muito Alto", fillcolor="#e58139ff"] ;
244 -> 245 ;
246 [label="gini = 0.0\nsamples = 1\nvalue = [0, 2, 0, 0]\nclass = Alto", fillcolor="#47e539ff"] ;
244 -> 246 ;
247 [label="Condo <= 514.0\ngini = 0.44\nsamples = 3\nvalue = [0, 1, 0, 2]\nclass = Baixo", fillcolor="#d739e57f"] ;
235 -> 247 ;
248 [label="gini = 0.0\nsamples = 2\nvalue = [0, 0, 0, 2]\nclass = Baixo", fillcolor="#d739e5ff"] ;
247 -> 248 ;
249 [label="gini = 0.0\nsamples = 1\nvalue = [0, 1, 0, 0]\nclass = Alto", fillcolor="#47e539ff"] ;
247 -> 249 ;
250 [label="Size <= 53.5\ngini = 0.28\nsamples = 8\nvalue = [0, 10, 0, 2]\nclass = Alto", fillcolor="#47e539cc"] ;
196 -> 250 ;
251 [label="Condo <= 466.0\ngini = 0.44\nsamples = 3\nvalue = [0, 2, 0, 1]\nclass = Alto", fillcolor="#47e5397f"] ;
250 -> 251 ;
252 [label="gini = 0.0\nsamples = 1\nvalue = [0, 0, 0, 1]\nclass = Baixo", fillcolor="#d739e5ff"] ;
251 -> 252 ;
253 [label="gini = 0.0\nsamples = 2\nvalue = [0, 2, 0, 0]\nclass = Alto", fillcolor="#47e539ff"] ;
251 -> 253 ;
254 [label="Condo <= 470.0\ngini = 0.2\nsamples = 5\nvalue = [0, 8, 0, 1]\nclass = Alto", fillcolor="#47e539df"] ;
250 -> 254 ;
255 [label="gini = 0.0\nsamples = 2\nvalue = [0, 5, 0, 0]\nclass = Alto", fillcolor="#47e539ff"] ;
254 -> 255 ;
256 [label="Condo <= 510.0\ngini = 0.38\nsamples = 3\nvalue = [0, 3, 0, 1]\nclass = Alto", fillcolor="#47e539aa"] ;
254 -> 256 ;
257 [label="gini = 0.0\nsamples = 1\nvalue = [0, 0, 0, 1]\nclass = Baixo", fillcolor="#d739e5ff"] ;
256 -> 257 ;
258 [label="gini = 0.0\nsamples = 2\nvalue = [0, 3, 0, 0]\nclass = Alto", fillcolor="#47e539ff"] ;
256 -> 258 ;
259 [label="Condo <= 365.0\ngini = 0.38\nsamples = 6\nvalue = [2, 0, 0, 6]\nclass = Baixo", fillcolor="#d739e5aa"] ;
195 -> 259 ;
260 [label="gini = 0.0\nsamples = 1\nvalue = [1, 0, 0, 0]\nclass = Muito Alto", fillcolor="#e58139ff"] ;
259 -> 260 ;
261 [label="Condo <= 490.0\ngini = 0.24\nsamples = 5\nvalue = [1, 0, 0, 6]\nclass = Baixo", fillcolor="#d739e5d4"] ;
259 -> 261 ;
262 [label="gini = 0.0\nsamples = 4\nvalue = [0, 0, 0, 6]\nclass = Baixo", fillcolor="#d739e5ff"] ;
261 -> 262 ;
263 [label="gini = 0.0\nsamples = 1\nvalue = [1, 0, 0, 0]\nclass = Muito Alto", fillcolor="#e58139ff"] ;
261 -> 263 ;
264 [label="gini = 0.0\nsamples = 1\nvalue = [2, 0, 0, 0]\nclass = Muito Alto", fillcolor="#e58139ff"] ;
178 -> 264 ;
265 [label="Condo <= 375.0\ngini = 0.44\nsamples = 2\nvalue = [0, 1, 0, 2]\nclass = Baixo", fillcolor="#d739e57f"] ;
175 -> 265 ;
266 [label="gini = 0.0\nsamples = 1\nvalue = [0, 1, 0, 0]\nclass = Alto", fillcolor="#47e539ff"] ;
265 -> 266 ;
267 [label="gini = 0.0\nsamples = 1\nvalue = [0, 0, 0, 2]\nclass = Baixo", fillcolor="#d739e5ff"] ;
265 -> 267 ;
268 [label="Condo <= 770.0\ngini = 0.32\nsamples = 11\nvalue = [4, 0, 0, 16]\nclass = Baixo", fillcolor="#d739e5bf"] ;
174 -> 268 ;
269 [label="Condo <= 704.0\ngini = 0.27\nsamples = 10\nvalue = [3, 0, 0, 16]\nclass = Baixo", fillcolor="#d739e5cf"] ;
268 -> 269 ;
270 [label="Size <= 49.5\ngini = 0.36\nsamples = 8\nvalue = [3, 0, 0, 10]\nclass = Baixo", fillcolor="#d739e5b3"] ;
269 -> 270 ;
271 [label="Condo <= 657.5\ngini = 0.48\nsamples = 3\nvalue = [2, 0, 0, 3]\nclass = Baixo", fillcolor="#d739e555"] ;
270 -> 271 ;
272 [label="gini = 0.0\nsamples = 2\nvalue = [0, 0, 0, 3]\nclass = Baixo", fillcolor="#d739e5ff"] ;
271 -> 272 ;
273 [label="gini = 0.0\nsamples = 1\nvalue = [2, 0, 0, 0]\nclass = Muito Alto", fillcolor="#e58139ff"] ;
271 -> 273 ;
274 [label="Size <= 51.5\ngini = 0.22\nsamples = 5\nvalue = [1, 0, 0, 7]\nclass = Baixo", fillcolor="#d739e5db"] ;
270 -> 274 ;
275 [label="gini = 0.0\nsamples = 1\nvalue = [0, 0, 0, 3]\nclass = Baixo", fillcolor="#d739e5ff"] ;
274 -> 275 ;
276 [label="Condo <= 564.0\ngini = 0.32\nsamples = 4\nvalue = [1, 0, 0, 4]\nclass = Baixo", fillcolor="#d739e5bf"] ;
274 -> 276 ;
277 [label="gini = 0.0\nsamples = 1\nvalue = [1, 0, 0, 0]\nclass = Muito Alto", fillcolor="#e58139ff"] ;
276 -> 277 ;
278 [label="gini = 0.0\nsamples = 3\nvalue = [0, 0, 0, 4]\nclass = Baixo", fillcolor="#d739e5ff"] ;
276 -> 278 ;
279 [label="gini = 0.0\nsamples = 2\nvalue = [0, 0, 0, 6]\nclass = Baixo", fillcolor="#d739e5ff"] ;
269 -> 279 ;
280 [label="gini = 0.0\nsamples = 1\nvalue = [1, 0, 0, 0]\nclass = Muito Alto", fillcolor="#e58139ff"] ;
268 -> 280 ;
281 [label="Size <= 44.5\ngini = 0.58\nsamples = 123\nvalue = [18, 99, 1, 86]\nclass = Alto", fillcolor="#47e5391c"] ;
111 -> 281 ;
282 [label="Size <= 31.5\ngini = 0.17\nsamples = 31\nvalue = [0, 48, 1, 4]\nclass = Alto", fillcolor="#47e539e5"] ;
281 -> 282 ;
283 [label="gini = 0.0\nsamples = 1\nvalue = [0, 0, 1, 0]\nclass = Médio", fillcolor="#399de5ff"] ;
282 -> 283 ;
284 [label="Size <= 39.5\ngini = 0.14\nsamples = 30\nvalue = [0, 48, 0, 4]\nclass = Alto", fillcolor="#47e539ea"] ;
282 -> 284 ;
285 [label="Condo <= 82.5\ngini = 0.26\nsamples = 10\nvalue = [0, 17, 0, 3]\nclass = Alto", fillcolor="#47e539d2"] ;
284 -> 285 ;
286 [label="Size <= 38.0\ngini = 0.36\nsamples = 5\nvalue = [0, 10, 0, 3]\nclass = Alto", fillcolor="#47e539b3"] ;
285 -> 286 ;
287 [label="gini = 0.0\nsamples = 4\nvalue = [0, 10, 0, 0]\nclass = Alto", fillcolor="#47e539ff"] ;
286 -> 287 ;
288 [label="gini = 0.0\nsamples = 1\nvalue = [0, 0, 0, 3]\nclass = Baixo", fillcolor="#d739e5ff"] ;
286 -> 288 ;
289 [label="gini = 0.0\nsamples = 5\nvalue = [0, 7, 0, 0]\nclass = Alto", fillcolor="#47e539ff"] ;
285 -> 289 ;
290 [label="Condo <= 428.0\ngini = 0.06\nsamples = 20\nvalue = [0, 31, 0, 1]\nclass = Alto", fillcolor="#47e539f7"] ;
284 -> 290 ;
291 [label="gini = 0.0\nsamples = 19\nvalue = [0, 31, 0, 0]\nclass = Alto", fillcolor="#47e539ff"] ;
290 -> 291 ;
292 [label="gini = 0.0\nsamples = 1\nvalue = [0, 0, 0, 1]\nclass = Baixo", fillcolor="#d739e5ff"] ;
290 -> 292 ;
293 [label="Rooms <= 2.5\ngini = 0.58\nsamples = 92\nvalue = [18, 51, 0, 82]\nclass = Baixo", fillcolor="#d739e54f"] ;
281 -> 293 ;
294 [label="Size <= 50.5\ngini = 0.57\nsamples = 90\nvalue = [18, 48, 0, 82]\nclass = Baixo", fillcolor="#d739e557"] ;
293 -> 294 ;
295 [label="Condo <= 415.0\ngini = 0.53\nsamples = 55\nvalue = [3, 38, 0, 46]\nclass = Baixo", fillcolor="#d739e52a"] ;
294 -> 295 ;
296 [label="Condo <= 75.0\ngini = 0.51\nsamples = 45\nvalue = [1, 38, 0, 36]\nclass = Alto", fillcolor="#47e5390d"] ;
295 -> 296 ;
297 [label="Size <= 46.0\ngini = 0.29\nsamples = 10\nvalue = [0, 3, 0, 14]\nclass = Baixo", fillcolor="#d739e5c8"] ;
296 -> 297 ;
298 [label="gini = 0.0\nsamples = 1\nvalue = [0, 3, 0, 0]\nclass = Alto", fillcolor="#47e539ff"] ;
297 -> 298 ;
299 [label="gini = 0.0\nsamples = 9\nvalue = [0, 0, 0, 14]\nclass = Baixo", fillcolor="#d739e5ff"] ;
297 -> 299 ;
300 [label="Size <= 47.5\ngini = 0.49\nsamples = 35\nvalue = [1, 35, 0, 22]\nclass = Alto", fillcolor="#47e5395c"] ;
296 -> 300 ;
301 [label="Condo <= 254.0\ngini = 0.53\nsamples = 15\nvalue = [1, 11, 0, 14]\nclass = Baixo", fillcolor="#d739e533"] ;
300 -> 301 ;
302 [label="gini = 0.0\nsamples = 2\nvalue = [0, 4, 0, 0]\nclass = Alto", fillcolor="#47e539ff"] ;
301 -> 302 ;
303 [label="Condo <= 275.0\ngini = 0.49\nsamples = 13\nvalue = [1, 7, 0, 14]\nclass = Baixo", fillcolor="#d739e577"] ;
301 -> 303 ;
304 [label="gini = 0.0\nsamples = 3\nvalue = [0, 0, 0, 6]\nclass = Baixo", fillcolor="#d739e5ff"] ;
303 -> 304 ;
305 [label="Size <= 46.5\ngini = 0.55\nsamples = 10\nvalue = [1, 7, 0, 8]\nclass = Baixo", fillcolor="#d739e51c"] ;
303 -> 305 ;
306 [label="Size <= 45.5\ngini = 0.32\nsamples = 3\nvalue = [0, 4, 0, 1]\nclass = Alto", fillcolor="#47e539bf"] ;
305 -> 306 ;
307 [label="gini = 0.0\nsamples = 1\nvalue = [0, 1, 0, 0]\nclass = Alto", fillcolor="#47e539ff"] ;
306 -> 307 ;
308 [label="Condo <= 315.0\ngini = 0.38\nsamples = 2\nvalue = [0, 3, 0, 1]\nclass = Alto", fillcolor="#47e539aa"] ;
306 -> 308 ;
309 [label="gini = 0.0\nsamples = 1\nvalue = [0, 0, 0, 1]\nclass = Baixo", fillcolor="#d739e5ff"] ;
308 -> 309 ;
310 [label="gini = 0.0\nsamples = 1\nvalue = [0, 3, 0, 0]\nclass = Alto", fillcolor="#47e539ff"] ;
308 -> 310 ;
311 [label="Condo <= 295.0\ngini = 0.51\nsamples = 7\nvalue = [1, 3, 0, 7]\nclass = Baixo", fillcolor="#d739e580"] ;
305 -> 311 ;
312 [label="gini = 0.0\nsamples = 3\nvalue = [0, 3, 0, 0]\nclass = Alto", fillcolor="#47e539ff"] ;
311 -> 312 ;
313 [label="Condo <= 355.0\ngini = 0.22\nsamples = 4\nvalue = [1, 0, 0, 7]\nclass = Baixo", fillcolor="#d739e5db"] ;
311 -> 313 ;
314 [label="gini = 0.0\nsamples = 3\nvalue = [0, 0, 0, 7]\nclass = Baixo", fillcolor="#d739e5ff"] ;
313 -> 314 ;
315 [label="gini = 0.0\nsamples = 1\nvalue = [1, 0, 0, 0]\nclass = Muito Alto", fillcolor="#e58139ff"] ;
313 -> 315 ;
316 [label="Size <= 48.5\ngini = 0.38\nsamples = 20\nvalue = [0, 24, 0, 8]\nclass = Alto", fillcolor="#47e539aa"] ;
300 -> 316 ;
317 [label="Condo <= 352.5\ngini = 0.36\nsamples = 6\nvalue = [0, 10, 0, 3]\nclass = Alto", fillcolor="#47e539b3"] ;
316 -> 317 ;
318 [label="Condo <= 296.0\ngini = 0.17\nsamples = 5\nvalue = [0, 10, 0, 1]\nclass = Alto", fillcolor="#47e539e6"] ;
317 -> 318 ;
319 [label="Condo <= 268.5\ngini = 0.44\nsamples = 2\nvalue = [0, 2, 0, 1]\nclass = Alto", fillcolor="#47e5397f"] ;
318 -> 319 ;
320 [label="gini = 0.0\nsamples = 1\nvalue = [0, 2, 0, 0]\nclass = Alto", fillcolor="#47e539ff"] ;
319 -> 320 ;
321 [label="gini = 0.0\nsamples = 1\nvalue = [0, 0, 0, 1]\nclass = Baixo", fillcolor="#d739e5ff"] ;
319 -> 321 ;
322 [label="gini = 0.0\nsamples = 3\nvalue = [0, 8, 0, 0]\nclass = Alto", fillcolor="#47e539ff"] ;
318 -> 322 ;
323 [label="gini = 0.0\nsamples = 1\nvalue = [0, 0, 0, 2]\nclass = Baixo", fillcolor="#d739e5ff"] ;
317 -> 323 ;
324 [label="Size <= 49.5\ngini = 0.39\nsamples = 14\nvalue = [0, 14, 0, 5]\nclass = Alto", fillcolor="#47e539a4"] ;
316 -> 324 ;
325 [label="Condo <= 312.5\ngini = 0.41\nsamples = 6\nvalue = [0, 5, 0, 2]\nclass = Alto", fillcolor="#47e53999"] ;
324 -> 325 ;
326 [label="gini = 0.0\nsamples = 2\nvalue = [0, 3, 0, 0]\nclass = Alto", fillcolor="#47e539ff"] ;
325 -> 326 ;
327 [label="Condo <= 335.0\ngini = 0.5\nsamples = 4\nvalue = [0, 2, 0, 2]\nclass = Alto", fillcolor="#47e53900"] ;
325 -> 327 ;
328 [label="gini = 0.0\nsamples = 1\nvalue = [0, 0, 0, 1]\nclass = Baixo", fillcolor="#d739e5ff"] ;
327 -> 328 ;
329 [label="Condo <= 362.5\ngini = 0.44\nsamples = 3\nvalue = [0, 2, 0, 1]\nclass = Alto", fillcolor="#47e5397f"] ;
327 -> 329 ;
330 [label="gini = 0.0\nsamples = 1\nvalue = [0, 1, 0, 0]\nclass = Alto", fillcolor="#47e539ff"] ;
329 -> 330 ;
331 [label="Condo <= 382.5\ngini = 0.5\nsamples = 2\nvalue = [0, 1, 0, 1]\nclass = Alto", fillcolor="#47e53900"] ;
329 -> 331 ;
332 [label="gini = 0.0\nsamples = 1\nvalue = [0, 0, 0, 1]\nclass = Baixo", fillcolor="#d739e5ff"] ;
331 -> 332 ;
333 [label="gini = 0.0\nsamples = 1\nvalue = [0, 1, 0, 0]\nclass = Alto", fillcolor="#47e539ff"] ;
331 -> 333 ;
334 [label="Condo <= 284.5\ngini = 0.38\nsamples = 8\nvalue = [0, 9, 0, 3]\nclass = Alto", fillcolor="#47e539aa"] ;
324 -> 334 ;
335 [label="gini = 0.0\nsamples = 3\nvalue = [0, 5, 0, 0]\nclass = Alto", fillcolor="#47e539ff"] ;
334 -> 335 ;
336 [label="Condo <= 350.0\ngini = 0.49\nsamples = 5\nvalue = [0, 4, 0, 3]\nclass = Alto", fillcolor="#47e53940"] ;
334 -> 336 ;
337 [label="gini = 0.0\nsamples = 2\nvalue = [0, 0, 0, 3]\nclass = Baixo", fillcolor="#d739e5ff"] ;
336 -> 337 ;
338 [label="gini = 0.0\nsamples = 3\nvalue = [0, 4, 0, 0]\nclass = Alto", fillcolor="#47e539ff"] ;
336 -> 338 ;
339 [label="Condo <= 425.0\ngini = 0.28\nsamples = 10\nvalue = [2, 0, 0, 10]\nclass = Baixo", fillcolor="#d739e5cc"] ;
295 -> 339 ;
340 [label="Size <= 49.0\ngini = 0.44\nsamples = 3\nvalue = [1, 0, 0, 2]\nclass = Baixo", fillcolor="#d739e57f"] ;
339 -> 340 ;
341 [label="gini = 0.0\nsamples = 2\nvalue = [0, 0, 0, 2]\nclass = Baixo", fillcolor="#d739e5ff"] ;
340 -> 341 ;
342 [label="gini = 0.0\nsamples = 1\nvalue = [1, 0, 0, 0]\nclass = Muito Alto", fillcolor="#e58139ff"] ;
340 -> 342 ;
343 [label="Size <= 48.0\ngini = 0.2\nsamples = 7\nvalue = [1, 0, 0, 8]\nclass = Baixo", fillcolor="#d739e5df"] ;
339 -> 343 ;
344 [label="Size <= 46.0\ngini = 0.32\nsamples = 4\nvalue = [1, 0, 0, 4]\nclass = Baixo", fillcolor="#d739e5bf"] ;
343 -> 344 ;
345 [label="gini = 0.0\nsamples = 2\nvalue = [0, 0, 0, 3]\nclass = Baixo", fillcolor="#d739e5ff"] ;
344 -> 345 ;
346 [label="Condo <= 467.5\ngini = 0.5\nsamples = 2\nvalue = [1, 0, 0, 1]\nclass = Muito Alto", fillcolor="#e5813900"] ;
344 -> 346 ;
347 [label="gini = 0.0\nsamples = 1\nvalue = [0, 0, 0, 1]\nclass = Baixo", fillcolor="#d739e5ff"] ;
346 -> 347 ;
348 [label="gini = 0.0\nsamples = 1\nvalue = [1, 0, 0, 0]\nclass = Muito Alto", fillcolor="#e58139ff"] ;
346 -> 348 ;
349 [label="gini = 0.0\nsamples = 3\nvalue = [0, 0, 0, 4]\nclass = Baixo", fillcolor="#d739e5ff"] ;
343 -> 349 ;
350 [label="Size <= 54.5\ngini = 0.56\nsamples = 35\nvalue = [15, 10, 0, 36]\nclass = Baixo", fillcolor="#d739e574"] ;
294 -> 350 ;
351 [label="Size <= 53.5\ngini = 0.39\nsamples = 23\nvalue = [6, 3, 0, 28]\nclass = Baixo", fillcolor="#d739e5b5"] ;
350 -> 351 ;
352 [label="Size <= 51.5\ngini = 0.36\nsamples = 20\nvalue = [6, 1, 0, 24]\nclass = Baixo", fillcolor="#d739e5b8"] ;
351 -> 352 ;
353 [label="Condo <= 150.0\ngini = 0.41\nsamples = 11\nvalue = [4, 1, 0, 14]\nclass = Baixo", fillcolor="#d739e5aa"] ;
352 -> 353 ;
354 [label="gini = 0.48\nsamples = 2\nvalue = [3, 0, 0, 2]\nclass = Muito Alto", fillcolor="#e5813955"] ;
353 -> 354 ;
355 [label="Condo <= 305.0\ngini = 0.26\nsamples = 9\nvalue = [1, 1, 0, 12]\nclass = Baixo", fillcolor="#d739e5d8"] ;
353 -> 355 ;
356 [label="gini = 0.5\nsamples = 2\nvalue = [0, 1, 0, 1]\nclass = Alto", fillcolor="#47e53900"] ;
355 -> 356 ;
357 [label="Condo <= 440.0\ngini = 0.15\nsamples = 7\nvalue = [1, 0, 0, 11]\nclass = Baixo", fillcolor="#d739e5e8"] ;
355 -> 357 ;
358 [label="gini = 0.0\nsamples = 4\nvalue = [0, 0, 0, 9]\nclass = Baixo", fillcolor="#d739e5ff"] ;
357 -> 358 ;
359 [label="Condo <= 469.5\ngini = 0.44\nsamples = 3\nvalue = [1, 0, 0, 2]\nclass = Baixo", fillcolor="#d739e57f"] ;
357 -> 359 ;
360 [label="gini = 0.0\nsamples = 1\nvalue = [1, 0, 0, 0]\nclass = Muito Alto", fillcolor="#e58139ff"] ;
359 -> 360 ;
361 [label="gini = 0.0\nsamples = 2\nvalue = [0, 0, 0, 2]\nclass = Baixo", fillcolor="#d739e5ff"] ;
359 -> 361 ;
362 [label="Size <= 52.5\ngini = 0.28\nsamples = 9\nvalue = [2, 0, 0, 10]\nclass = Baixo", fillcolor="#d739e5cc"] ;
352 -> 362 ;
363 [label="Condo <= 173.5\ngini = 0.3\nsamples = 8\nvalue = [2, 0, 0, 9]\nclass = Baixo", fillcolor="#d739e5c6"] ;
362 -> 363 ;
364 [label="gini = 0.48\nsamples = 3\nvalue = [2, 0, 0, 3]\nclass = Baixo", fillcolor="#d739e555"] ;
363 -> 364 ;
365 [label="gini = 0.0\nsamples = 5\nvalue = [0, 0, 0, 6]\nclass = Baixo", fillcolor="#d739e5ff"] ;
363 -> 365 ;
366 [label="gini = 0.0\nsamples = 1\nvalue = [0, 0, 0, 1]\nclass = Baixo", fillcolor="#d739e5ff"] ;
362 -> 366 ;
367 [label="Condo <= 230.0\ngini = 0.44\nsamples = 3\nvalue = [0, 2, 0, 4]\nclass = Baixo", fillcolor="#d739e57f"] ;
351 -> 367 ;
368 [label="gini = 0.0\nsamples = 1\nvalue = [0, 2, 0, 0]\nclass = Alto", fillcolor="#47e539ff"] ;
367 -> 368 ;
369 [label="gini = 0.0\nsamples = 2\nvalue = [0, 0, 0, 4]\nclass = Baixo", fillcolor="#d739e5ff"] ;
367 -> 369 ;
370 [label="Condo <= 140.0\ngini = 0.66\nsamples = 12\nvalue = [9, 7, 0, 8]\nclass = Muito Alto", fillcolor="#e5813910"] ;
350 -> 370 ;
371 [label="Size <= 56.5\ngini = 0.43\nsamples = 5\nvalue = [8, 2, 0, 1]\nclass = Muito Alto", fillcolor="#e58139aa"] ;
370 -> 371 ;
372 [label="Size <= 55.5\ngini = 0.62\nsamples = 3\nvalue = [1, 2, 0, 1]\nclass = Alto", fillcolor="#47e53955"] ;
371 -> 372 ;
373 [label="gini = 0.5\nsamples = 2\nvalue = [1, 0, 0, 1]\nclass = Muito Alto", fillcolor="#e5813900"] ;
372 -> 373 ;
374 [label="gini = 0.0\nsamples = 1\nvalue = [0, 2, 0, 0]\nclass = Alto", fillcolor="#47e539ff"] ;
372 -> 374 ;
375 [label="gini = 0.0\nsamples = 2\nvalue = [7, 0, 0, 0]\nclass = Muito Alto", fillcolor="#e58139ff"] ;
371 -> 375 ;
376 [label="Condo <= 499.5\ngini = 0.56\nsamples = 7\nvalue = [1, 5, 0, 7]\nclass = Baixo", fillcolor="#d739e540"] ;
370 -> 376 ;
377 [label="Size <= 56.5\ngini = 0.35\nsamples = 5\nvalue = [0, 2, 0, 7]\nclass = Baixo", fillcolor="#d739e5b6"] ;
376 -> 377 ;
378 [label="gini = 0.0\nsamples = 1\nvalue = [0, 0, 0, 2]\nclass = Baixo", fillcolor="#d739e5ff"] ;
377 -> 378 ;
379 [label="Condo <= 448.0\ngini = 0.41\nsamples = 4\nvalue = [0, 2, 0, 5]\nclass = Baixo", fillcolor="#d739e599"] ;
377 -> 379 ;
380 [label="Condo <= 398.5\ngini = 0.44\nsamples = 2\nvalue = [0, 2, 0, 1]\nclass = Alto", fillcolor="#47e5397f"] ;
379 -> 380 ;
381 [label="gini = 0.0\nsamples = 1\nvalue = [0, 0, 0, 1]\nclass = Baixo", fillcolor="#d739e5ff"] ;
380 -> 381 ;
382 [label="gini = 0.0\nsamples = 1\nvalue = [0, 2, 0, 0]\nclass = Alto", fillcolor="#47e539ff"] ;
380 -> 382 ;
383 [label="gini = 0.0\nsamples = 2\nvalue = [0, 0, 0, 4]\nclass = Baixo", fillcolor="#d739e5ff"] ;
379 -> 383 ;
384 [label="Condo <= 554.0\ngini = 0.38\nsamples = 2\nvalue = [1, 3, 0, 0]\nclass = Alto", fillcolor="#47e539aa"] ;
376 -> 384 ;
385 [label="gini = 0.0\nsamples = 1\nvalue = [0, 3, 0, 0]\nclass = Alto", fillcolor="#47e539ff"] ;
384 -> 385 ;
386 [label="gini = 0.0\nsamples = 1\nvalue = [1, 0, 0, 0]\nclass = Muito Alto", fillcolor="#e58139ff"] ;
384 -> 386 ;
387 [label="gini = 0.0\nsamples = 2\nvalue = [0, 3, 0, 0]\nclass = Alto", fillcolor="#47e539ff"] ;
293 -> 387 ;
388 [label="Size <= 77.5\ngini = 0.68\nsamples = 184\nvalue = [95, 19, 51, 114]\nclass = Baixo", fillcolor="#d739e51a"] ;
2 -> 388 ;
389 [label="Rooms <= 2.5\ngini = 0.54\nsamples = 113\nvalue = [52, 14, 2, 103]\nclass = Baixo", fillcolor="#d739e56d"] ;
388 -> 389 ;
390 [label="Size <= 60.5\ngini = 0.58\nsamples = 86\nvalue = [45, 12, 2, 67]\nclass = Baixo", fillcolor="#d739e545"] ;
389 -> 390 ;
391 [label="Condo <= 260.0\ngini = 0.61\nsamples = 29\nvalue = [9, 10, 0, 21]\nclass = Baixo", fillcolor="#d739e55e"] ;
390 -> 391 ;
392 [label="Condo <= 45.0\ngini = 0.51\nsamples = 9\nvalue = [3, 7, 0, 1]\nclass = Alto", fillcolor="#47e53980"] ;
391 -> 392 ;
393 [label="gini = 0.56\nsamples = 4\nvalue = [3, 1, 0, 1]\nclass = Muito Alto", fillcolor="#e581397f"] ;
392 -> 393 ;
394 [label="gini = 0.0\nsamples = 5\nvalue = [0, 6, 0, 0]\nclass = Alto", fillcolor="#47e539ff"] ;
392 -> 394 ;
395 [label="Swimming Pool <= 0.5\ngini = 0.47\nsamples = 20\nvalue = [6, 3, 0, 20]\nclass = Baixo", fillcolor="#d739e59b"] ;
391 -> 395 ;
396 [label="Condo <= 530.0\ngini = 0.36\nsamples = 15\nvalue = [4, 1, 0, 18]\nclass = Baixo", fillcolor="#d739e5bc"] ;
395 -> 396 ;
397 [label="Condo <= 382.5\ngini = 0.13\nsamples = 9\nvalue = [0, 1, 0, 13]\nclass = Baixo", fillcolor="#d739e5eb"] ;
396 -> 397 ;
398 [label="Size <= 59.0\ngini = 0.28\nsamples = 3\nvalue = [0, 1, 0, 5]\nclass = Baixo", fillcolor="#d739e5cc"] ;
397 -> 398 ;
399 [label="gini = 0.0\nsamples = 2\nvalue = [0, 0, 0, 5]\nclass = Baixo", fillcolor="#d739e5ff"] ;
398 -> 399 ;
400 [label="gini = 0.0\nsamples = 1\nvalue = [0, 1, 0, 0]\nclass = Alto", fillcolor="#47e539ff"] ;
398 -> 400 ;
401 [label="gini = 0.0\nsamples = 6\nvalue = [0, 0, 0, 8]\nclass = Baixo", fillcolor="#d739e5ff"] ;
397 -> 401 ;
402 [label="Rooms <= 1.5\ngini = 0.49\nsamples = 6\nvalue = [4, 0, 0, 5]\nclass = Baixo", fillcolor="#d739e533"] ;
396 -> 402 ;
403 [label="gini = 0.0\nsamples = 1\nvalue = [2, 0, 0, 0]\nclass = Muito Alto", fillcolor="#e58139ff"] ;
402 -> 403 ;
404 [label="Size <= 58.5\ngini = 0.41\nsamples = 5\nvalue = [2, 0, 0, 5]\nclass = Baixo", fillcolor="#d739e599"] ;
402 -> 404 ;
405 [label="gini = 0.0\nsamples = 1\nvalue = [2, 0, 0, 0]\nclass = Muito Alto", fillcolor="#e58139ff"] ;
404 -> 405 ;
406 [label="gini = 0.0\nsamples = 4\nvalue = [0, 0, 0, 5]\nclass = Baixo", fillcolor="#d739e5ff"] ;
404 -> 406 ;
407 [label="Size <= 59.5\ngini = 0.67\nsamples = 5\nvalue = [2, 2, 0, 2]\nclass = Muito Alto", fillcolor="#e5813900"] ;
395 -> 407 ;
408 [label="gini = 0.0\nsamples = 2\nvalue = [2, 0, 0, 0]\nclass = Muito Alto", fillcolor="#e58139ff"] ;
407 -> 408 ;
409 [label="Condo <= 487.5\ngini = 0.5\nsamples = 3\nvalue = [0, 2, 0, 2]\nclass = Alto", fillcolor="#47e53900"] ;
407 -> 409 ;
410 [label="gini = 0.0\nsamples = 1\nvalue = [0, 2, 0, 0]\nclass = Alto", fillcolor="#47e539ff"] ;
409 -> 410 ;
411 [label="gini = 0.0\nsamples = 2\nvalue = [0, 0, 0, 2]\nclass = Baixo", fillcolor="#d739e5ff"] ;
409 -> 411 ;
412 [label="Condo <= 478.5\ngini = 0.54\nsamples = 57\nvalue = [36, 2, 2, 46]\nclass = Baixo", fillcolor="#d739e533"] ;
390 -> 412 ;
413 [label="Rooms <= 1.5\ngini = 0.43\nsamples = 31\nvalue = [13, 1, 0, 33]\nclass = Baixo", fillcolor="#d739e596"] ;
412 -> 413 ;
414 [label="Condo <= 205.0\ngini = 0.2\nsamples = 5\nvalue = [1, 0, 0, 8]\nclass = Baixo", fillcolor="#d739e5df"] ;
413 -> 414 ;
415 [label="Size <= 65.5\ngini = 0.5\nsamples = 2\nvalue = [1, 0, 0, 1]\nclass = Muito Alto", fillcolor="#e5813900"] ;
414 -> 415 ;
416 [label="gini = 0.0\nsamples = 1\nvalue = [0, 0, 0, 1]\nclass = Baixo", fillcolor="#d739e5ff"] ;
415 -> 416 ;
417 [label="gini = 0.0\nsamples = 1\nvalue = [1, 0, 0, 0]\nclass = Muito Alto", fillcolor="#e58139ff"] ;
415 -> 417 ;
418 [label="gini = 0.0\nsamples = 3\nvalue = [0, 0, 0, 7]\nclass = Baixo", fillcolor="#d739e5ff"] ;
414 -> 418 ;
419 [label="Size <= 71.5\ngini = 0.47\nsamples = 26\nvalue = [12, 1, 0, 25]\nclass = Baixo", fillcolor="#d739e580"] ;
413 -> 419 ;
420 [label="Condo <= 330.0\ngini = 0.49\nsamples = 19\nvalue = [12, 0, 0, 15]\nclass = Baixo", fillcolor="#d739e533"] ;
419 -> 420 ;
421 [label="Condo <= 32.5\ngini = 0.46\nsamples = 9\nvalue = [9, 0, 0, 5]\nclass = Muito Alto", fillcolor="#e5813971"] ;
420 -> 421 ;
422 [label="Size <= 61.5\ngini = 0.44\nsamples = 5\nvalue = [2, 0, 0, 4]\nclass = Baixo", fillcolor="#d739e57f"] ;
421 -> 422 ;
423 [label="gini = 0.0\nsamples = 1\nvalue = [1, 0, 0, 0]\nclass = Muito Alto", fillcolor="#e58139ff"] ;
422 -> 423 ;
424 [label="Swimming Pool <= 0.5\ngini = 0.32\nsamples = 4\nvalue = [1, 0, 0, 4]\nclass = Baixo", fillcolor="#d739e5bf"] ;
422 -> 424 ;
425 [label="Size <= 62.5\ngini = 0.44\nsamples = 2\nvalue = [1, 0, 0, 2]\nclass = Baixo", fillcolor="#d739e57f"] ;
424 -> 425 ;
426 [label="gini = 0.0\nsamples = 1\nvalue = [0, 0, 0, 2]\nclass = Baixo", fillcolor="#d739e5ff"] ;
425 -> 426 ;
427 [label="gini = 0.0\nsamples = 1\nvalue = [1, 0, 0, 0]\nclass = Muito Alto", fillcolor="#e58139ff"] ;
425 -> 427 ;
428 [label="gini = 0.0\nsamples = 2\nvalue = [0, 0, 0, 2]\nclass = Baixo", fillcolor="#d739e5ff"] ;
424 -> 428 ;
429 [label="Condo <= 295.0\ngini = 0.22\nsamples = 4\nvalue = [7, 0, 0, 1]\nclass = Muito Alto", fillcolor="#e58139db"] ;
421 -> 429 ;
430 [label="Size <= 67.5\ngini = 0.38\nsamples = 3\nvalue = [3, 0, 0, 1]\nclass = Muito Alto", fillcolor="#e58139aa"] ;
429 -> 430 ;
431 [label="Swimming Pool <= 0.5\ngini = 0.5\nsamples = 2\nvalue = [1, 0, 0, 1]\nclass = Muito Alto", fillcolor="#e5813900"] ;
430 -> 431 ;
432 [label="gini = 0.0\nsamples = 1\nvalue = [1, 0, 0, 0]\nclass = Muito Alto", fillcolor="#e58139ff"] ;
431 -> 432 ;
433 [label="gini = 0.0\nsamples = 1\nvalue = [0, 0, 0, 1]\nclass = Baixo", fillcolor="#d739e5ff"] ;
431 -> 433 ;
434 [label="gini = 0.0\nsamples = 1\nvalue = [2, 0, 0, 0]\nclass = Muito Alto", fillcolor="#e58139ff"] ;
430 -> 434 ;
435 [label="gini = 0.0\nsamples = 1\nvalue = [4, 0, 0, 0]\nclass = Muito Alto", fillcolor="#e58139ff"] ;
429 -> 435 ;
436 [label="Size <= 66.5\ngini = 0.36\nsamples = 10\nvalue = [3, 0, 0, 10]\nclass = Baixo", fillcolor="#d739e5b3"] ;
420 -> 436 ;
437 [label="gini = 0.0\nsamples = 7\nvalue = [0, 0, 0, 10]\nclass = Baixo", fillcolor="#d739e5ff"] ;
436 -> 437 ;
438 [label="gini = 0.0\nsamples = 3\nvalue = [3, 0, 0, 0]\nclass = Muito Alto", fillcolor="#e58139ff"] ;
436 -> 438 ;
439 [label="Condo <= 150.0\ngini = 0.17\nsamples = 7\nvalue = [0, 1, 0, 10]\nclass = Baixo", fillcolor="#d739e5e6"] ;
419 -> 439 ;
440 [label="Size <= 73.5\ngini = 0.28\nsamples = 4\nvalue = [0, 1, 0, 5]\nclass = Baixo", fillcolor="#d739e5cc"] ;
439 -> 440 ;
441 [label="gini = 0.5\nsamples = 2\nvalue = [0, 1, 0, 1]\nclass = Alto", fillcolor="#47e53900"] ;
440 -> 441 ;
442 [label="gini = 0.0\nsamples = 2\nvalue = [0, 0, 0, 4]\nclass = Baixo", fillcolor="#d739e5ff"] ;
440 -> 442 ;
443 [label="gini = 0.0\nsamples = 3\nvalue = [0, 0, 0, 5]\nclass = Baixo", fillcolor="#d739e5ff"] ;
439 -> 443 ;
444 [label="Condo <= 505.0\ngini = 0.54\nsamples = 26\nvalue = [23, 1, 2, 13]\nclass = Muito Alto", fillcolor="#e5813962"] ;
412 -> 444 ;
445 [label="Size <= 72.0\ngini = 0.24\nsamples = 4\nvalue = [6, 0, 1, 0]\nclass = Muito Alto", fillcolor="#e58139d4"] ;
444 -> 445 ;
446 [label="Condo <= 498.5\ngini = 0.44\nsamples = 2\nvalue = [2, 0, 1, 0]\nclass = Muito Alto", fillcolor="#e581397f"] ;
445 -> 446 ;
447 [label="gini = 0.0\nsamples = 1\nvalue = [2, 0, 0, 0]\nclass = Muito Alto", fillcolor="#e58139ff"] ;
446 -> 447 ;
448 [label="gini = 0.0\nsamples = 1\nvalue = [0, 0, 1, 0]\nclass = Médio", fillcolor="#399de5ff"] ;
446 -> 448 ;
449 [label="gini = 0.0\nsamples = 2\nvalue = [4, 0, 0, 0]\nclass = Muito Alto", fillcolor="#e58139ff"] ;
445 -> 449 ;
450 [label="Swimming Pool <= 0.5\ngini = 0.55\nsamples = 22\nvalue = [17, 1, 1, 13]\nclass = Muito Alto", fillcolor="#e5813936"] ;
444 -> 450 ;
451 [label="Size <= 64.5\ngini = 0.59\nsamples = 12\nvalue = [9, 1, 1, 6]\nclass = Muito Alto", fillcolor="#e5813946"] ;
450 -> 451 ;
452 [label="Condo <= 682.0\ngini = 0.57\nsamples = 5\nvalue = [2, 1, 0, 4]\nclass = Baixo", fillcolor="#d739e566"] ;
451 -> 452 ;
453 [label="Size <= 63.0\ngini = 0.38\nsamples = 3\nvalue = [0, 1, 0, 3]\nclass = Baixo", fillcolor="#d739e5aa"] ;
452 -> 453 ;
454 [label="gini = 0.0\nsamples = 1\nvalue = [0, 0, 0, 1]\nclass = Baixo", fillcolor="#d739e5ff"] ;
453 -> 454 ;
455 [label="Condo <= 625.0\ngini = 0.44\nsamples = 2\nvalue = [0, 1, 0, 2]\nclass = Baixo", fillcolor="#d739e57f"] ;
453 -> 455 ;
456 [label="gini = 0.0\nsamples = 1\nvalue = [0, 1, 0, 0]\nclass = Alto", fillcolor="#47e539ff"] ;
455 -> 456 ;
457 [label="gini = 0.0\nsamples = 1\nvalue = [0, 0, 0, 2]\nclass = Baixo", fillcolor="#d739e5ff"] ;
455 -> 457 ;
458 [label="Size <= 62.5\ngini = 0.44\nsamples = 2\nvalue = [2, 0, 0, 1]\nclass = Muito Alto", fillcolor="#e581397f"] ;
452 -> 458 ;
459 [label="gini = 0.0\nsamples = 1\nvalue = [2, 0, 0, 0]\nclass = Muito Alto", fillcolor="#e58139ff"] ;
458 -> 459 ;
460 [label="gini = 0.0\nsamples = 1\nvalue = [0, 0, 0, 1]\nclass = Baixo", fillcolor="#d739e5ff"] ;
458 -> 460 ;
461 [label="Condo <= 562.5\ngini = 0.46\nsamples = 7\nvalue = [7, 0, 1, 2]\nclass = Muito Alto", fillcolor="#e581399f"] ;
451 -> 461 ;
462 [label="gini = 0.0\nsamples = 2\nvalue = [0, 0, 0, 2]\nclass = Baixo", fillcolor="#d739e5ff"] ;
461 -> 462 ;
463 [label="Condo <= 1032.5\ngini = 0.22\nsamples = 5\nvalue = [7, 0, 1, 0]\nclass = Muito Alto", fillcolor="#e58139db"] ;
461 -> 463 ;
464 [label="gini = 0.0\nsamples = 4\nvalue = [7, 0, 0, 0]\nclass = Muito Alto", fillcolor="#e58139ff"] ;
463 -> 464 ;
465 [label="gini = 0.0\nsamples = 1\nvalue = [0, 0, 1, 0]\nclass = Médio", fillcolor="#399de5ff"] ;
463 -> 465 ;
466 [label="Size <= 69.0\ngini = 0.5\nsamples = 10\nvalue = [8, 0, 0, 7]\nclass = Muito Alto", fillcolor="#e5813920"] ;
450 -> 466 ;
467 [label="Condo <= 621.5\ngini = 0.46\nsamples = 6\nvalue = [4, 0, 0, 7]\nclass = Baixo", fillcolor="#d739e56d"] ;
466 -> 467 ;
468 [label="Size <= 65.5\ngini = 0.35\nsamples = 5\nvalue = [2, 0, 0, 7]\nclass = Baixo", fillcolor="#d739e5b6"] ;
467 -> 468 ;
469 [label="Size <= 63.0\ngini = 0.5\nsamples = 2\nvalue = [2, 0, 0, 2]\nclass = Muito Alto", fillcolor="#e5813900"] ;
468 -> 469 ;
470 [label="gini = 0.0\nsamples = 1\nvalue = [0, 0, 0, 2]\nclass = Baixo", fillcolor="#d739e5ff"] ;
469 -> 470 ;
471 [label="gini = 0.0\nsamples = 1\nvalue = [2, 0, 0, 0]\nclass = Muito Alto", fillcolor="#e58139ff"] ;
469 -> 471 ;
472 [label="gini = 0.0\nsamples = 3\nvalue = [0, 0, 0, 5]\nclass = Baixo", fillcolor="#d739e5ff"] ;
468 -> 472 ;
473 [label="gini = 0.0\nsamples = 1\nvalue = [2, 0, 0, 0]\nclass = Muito Alto", fillcolor="#e58139ff"] ;
467 -> 473 ;
474 [label="gini = 0.0\nsamples = 4\nvalue = [4, 0, 0, 0]\nclass = Muito Alto", fillcolor="#e58139ff"] ;
466 -> 474 ;
475 [label="Swimming Pool <= 0.5\ngini = 0.33\nsamples = 27\nvalue = [7, 2, 0, 36]\nclass = Baixo", fillcolor="#d739e5c3"] ;
389 -> 475 ;
476 [label="Size <= 63.5\ngini = 0.48\nsamples = 14\nvalue = [5, 2, 0, 15]\nclass = Baixo", fillcolor="#d739e596"] ;
475 -> 476 ;
477 [label="Size <= 62.5\ngini = 0.22\nsamples = 6\nvalue = [0, 1, 0, 7]\nclass = Baixo", fillcolor="#d739e5db"] ;
476 -> 477 ;
478 [label="gini = 0.0\nsamples = 3\nvalue = [0, 0, 0, 4]\nclass = Baixo", fillcolor="#d739e5ff"] ;
477 -> 478 ;
479 [label="Condo <= 438.0\ngini = 0.38\nsamples = 3\nvalue = [0, 1, 0, 3]\nclass = Baixo", fillcolor="#d739e5aa"] ;
477 -> 479 ;
480 [label="gini = 0.0\nsamples = 2\nvalue = [0, 0, 0, 3]\nclass = Baixo", fillcolor="#d739e5ff"] ;
479 -> 480 ;
481 [label="gini = 0.0\nsamples = 1\nvalue = [0, 1, 0, 0]\nclass = Alto", fillcolor="#47e539ff"] ;
479 -> 481 ;
482 [label="Condo <= 550.0\ngini = 0.54\nsamples = 8\nvalue = [5, 1, 0, 8]\nclass = Baixo", fillcolor="#d739e555"] ;
476 -> 482 ;
483 [label="Condo <= 365.0\ngini = 0.28\nsamples = 5\nvalue = [0, 1, 0, 5]\nclass = Baixo", fillcolor="#d739e5cc"] ;
482 -> 483 ;
484 [label="Condo <= 170.0\ngini = 0.5\nsamples = 2\nvalue = [0, 1, 0, 1]\nclass = Alto", fillcolor="#47e53900"] ;
483 -> 484 ;
485 [label="gini = 0.0\nsamples = 1\nvalue = [0, 0, 0, 1]\nclass = Baixo", fillcolor="#d739e5ff"] ;
484 -> 485 ;
486 [label="gini = 0.0\nsamples = 1\nvalue = [0, 1, 0, 0]\nclass = Alto", fillcolor="#47e539ff"] ;
484 -> 486 ;
487 [label="gini = 0.0\nsamples = 3\nvalue = [0, 0, 0, 4]\nclass = Baixo", fillcolor="#d739e5ff"] ;
483 -> 487 ;
488 [label="Size <= 71.5\ngini = 0.47\nsamples = 3\nvalue = [5, 0, 0, 3]\nclass = Muito Alto", fillcolor="#e5813966"] ;
482 -> 488 ;
489 [label="gini = 0.0\nsamples = 2\nvalue = [5, 0, 0, 0]\nclass = Muito Alto", fillcolor="#e58139ff"] ;
488 -> 489 ;
490 [label="gini = 0.0\nsamples = 1\nvalue = [0, 0, 0, 3]\nclass = Baixo", fillcolor="#d739e5ff"] ;
488 -> 490 ;
491 [label="Size <= 73.0\ngini = 0.16\nsamples = 13\nvalue = [2, 0, 0, 21]\nclass = Baixo", fillcolor="#d739e5e7"] ;
475 -> 491 ;
492 [label="Size <= 66.0\ngini = 0.09\nsamples = 12\nvalue = [1, 0, 0, 21]\nclass = Baixo", fillcolor="#d739e5f3"] ;
491 -> 492 ;
493 [label="gini = 0.0\nsamples = 9\nvalue = [0, 0, 0, 16]\nclass = Baixo", fillcolor="#d739e5ff"] ;
492 -> 493 ;
494 [label="Size <= 68.5\ngini = 0.28\nsamples = 3\nvalue = [1, 0, 0, 5]\nclass = Baixo", fillcolor="#d739e5cc"] ;
492 -> 494 ;
495 [label="gini = 0.0\nsamples = 1\nvalue = [1, 0, 0, 0]\nclass = Muito Alto", fillcolor="#e58139ff"] ;
494 -> 495 ;
496 [label="gini = 0.0\nsamples = 2\nvalue = [0, 0, 0, 5]\nclass = Baixo", fillcolor="#d739e5ff"] ;
494 -> 496 ;
497 [label="gini = 0.0\nsamples = 1\nvalue = [1, 0, 0, 0]\nclass = Muito Alto", fillcolor="#e58139ff"] ;
491 -> 497 ;
498 [label="Suites <= 3.5\ngini = 0.62\nsamples = 71\nvalue = [43, 5, 49, 11]\nclass = Médio", fillcolor="#399de518"] ;
388 -> 498 ;
499 [label="Suites <= 1.5\ngini = 0.63\nsamples = 70\nvalue = [43, 5, 46, 11]\nclass = Médio", fillcolor="#399de50c"] ;
498 -> 499 ;
500 [label="Condo <= 1116.0\ngini = 0.63\nsamples = 69\nvalue = [42, 5, 46, 11]\nclass = Médio", fillcolor="#399de510"] ;
499 -> 500 ;
501 [label="Condo <= 711.0\ngini = 0.64\nsamples = 60\nvalue = [42, 5, 30, 11]\nclass = Muito Alto", fillcolor="#e5813935"] ;
500 -> 501 ;
502 [label="Size <= 86.5\ngini = 0.65\nsamples = 34\nvalue = [26, 5, 11, 9]\nclass = Muito Alto", fillcolor="#e5813960"] ;
501 -> 502 ;
503 [label="Size <= 84.5\ngini = 0.52\nsamples = 15\nvalue = [13, 4, 0, 3]\nclass = Muito Alto", fillcolor="#e581398f"] ;
502 -> 503 ;
504 [label="Size <= 83.5\ngini = 0.57\nsamples = 13\nvalue = [10, 4, 0, 3]\nclass = Muito Alto", fillcolor="#e5813976"] ;
503 -> 504 ;
505 [label="Rooms <= 1.5\ngini = 0.53\nsamples = 12\nvalue = [10, 4, 0, 2]\nclass = Muito Alto", fillcolor="#e5813980"] ;
504 -> 505 ;
506 [label="gini = 0.0\nsamples = 1\nvalue = [0, 0, 0, 1]\nclass = Baixo", fillcolor="#d739e5ff"] ;
505 -> 506 ;
507 [label="Rooms <= 2.5\ngini = 0.48\nsamples = 11\nvalue = [10, 4, 0, 1]\nclass = Muito Alto", fillcolor="#e581398b"] ;
505 -> 507 ;
508 [label="Size <= 79.0\ngini = 0.28\nsamples = 5\nvalue = [5, 0, 0, 1]\nclass = Muito Alto", fillcolor="#e58139cc"] ;
507 -> 508 ;
509 [label="Swimming Pool <= 0.5\ngini = 0.5\nsamples = 2\nvalue = [1, 0, 0, 1]\nclass = Muito Alto", fillcolor="#e5813900"] ;
508 -> 509 ;
510 [label="gini = 0.0\nsamples = 1\nvalue = [0, 0, 0, 1]\nclass = Baixo", fillcolor="#d739e5ff"] ;
509 -> 510 ;
511 [label="gini = 0.0\nsamples = 1\nvalue = [1, 0, 0, 0]\nclass = Muito Alto", fillcolor="#e58139ff"] ;
509 -> 511 ;
512 [label="gini = 0.0\nsamples = 3\nvalue = [4, 0, 0, 0]\nclass = Muito Alto", fillcolor="#e58139ff"] ;
508 -> 512 ;
513 [label="Swimming Pool <= 0.5\ngini = 0.49\nsamples = 6\nvalue = [5, 4, 0, 0]\nclass = Muito Alto", fillcolor="#e5813933"] ;
507 -> 513 ;
514 [label="Condo <= 680.0\ngini = 0.5\nsamples = 5\nvalue = [4, 4, 0, 0]\nclass = Muito Alto", fillcolor="#e5813900"] ;
513 -> 514 ;
515 [label="Size <= 79.0\ngini = 0.44\nsamples = 4\nvalue = [4, 2, 0, 0]\nclass = Muito Alto", fillcolor="#e581397f"] ;
514 -> 515 ;
516 [label="gini = 0.0\nsamples = 1\nvalue = [2, 0, 0, 0]\nclass = Muito Alto", fillcolor="#e58139ff"] ;
515 -> 516 ;
517 [label="Size <= 80.5\ngini = 0.5\nsamples = 3\nvalue = [2, 2, 0, 0]\nclass = Muito Alto", fillcolor="#e5813900"] ;
515 -> 517 ;
518 [label="Condo <= 485.0\ngini = 0.44\nsamples = 2\nvalue = [1, 2, 0, 0]\nclass = Alto", fillcolor="#47e5397f"] ;
517 -> 518 ;
519 [label="gini = 0.0\nsamples = 1\nvalue = [0, 2, 0, 0]\nclass = Alto", fillcolor="#47e539ff"] ;
518 -> 519 ;
520 [label="gini = 0.0\nsamples = 1\nvalue = [1, 0, 0, 0]\nclass = Muito Alto", fillcolor="#e58139ff"] ;
518 -> 520 ;
521 [label="gini = 0.0\nsamples = 1\nvalue = [1, 0, 0, 0]\nclass = Muito Alto", fillcolor="#e58139ff"] ;
517 -> 521 ;
522 [label="gini = 0.0\nsamples = 1\nvalue = [0, 2, 0, 0]\nclass = Alto", fillcolor="#47e539ff"] ;
514 -> 522 ;
523 [label="gini = 0.0\nsamples = 1\nvalue = [1, 0, 0, 0]\nclass = Muito Alto", fillcolor="#e58139ff"] ;
513 -> 523 ;
524 [label="gini = 0.0\nsamples = 1\nvalue = [0, 0, 0, 1]\nclass = Baixo", fillcolor="#d739e5ff"] ;
504 -> 524 ;
525 [label="gini = 0.0\nsamples = 2\nvalue = [3, 0, 0, 0]\nclass = Muito Alto", fillcolor="#e58139ff"] ;
503 -> 525 ;
526 [label="Rooms <= 2.5\ngini = 0.66\nsamples = 19\nvalue = [13, 1, 11, 6]\nclass = Muito Alto", fillcolor="#e5813919"] ;
502 -> 526 ;
527 [label="Size <= 92.0\ngini = 0.68\nsamples = 8\nvalue = [2, 1, 3, 5]\nclass = Baixo", fillcolor="#d739e540"] ;
526 -> 527 ;
528 [label="gini = 0.0\nsamples = 1\nvalue = [0, 0, 2, 0]\nclass = Médio", fillcolor="#399de5ff"] ;
527 -> 528 ;
529 [label="Size <= 105.5\ngini = 0.62\nsamples = 7\nvalue = [2, 1, 1, 5]\nclass = Baixo", fillcolor="#d739e56d"] ;
527 -> 529 ;
530 [label="Condo <= 120.0\ngini = 0.45\nsamples = 5\nvalue = [1, 1, 0, 5]\nclass = Baixo", fillcolor="#d739e5aa"] ;
529 -> 530 ;
531 [label="gini = 0.5\nsamples = 2\nvalue = [1, 1, 0, 0]\nclass = Muito Alto", fillcolor="#e5813900"] ;
530 -> 531 ;
532 [label="gini = 0.0\nsamples = 3\nvalue = [0, 0, 0, 5]\nclass = Baixo", fillcolor="#d739e5ff"] ;
530 -> 532 ;
533 [label="Condo <= 225.5\ngini = 0.5\nsamples = 2\nvalue = [1, 0, 1, 0]\nclass = Muito Alto", fillcolor="#e5813900"] ;
529 -> 533 ;
534 [label="gini = 0.0\nsamples = 1\nvalue = [0, 0, 1, 0]\nclass = Médio", fillcolor="#399de5ff"] ;
533 -> 534 ;
535 [label="gini = 0.0\nsamples = 1\nvalue = [1, 0, 0, 0]\nclass = Muito Alto", fillcolor="#e58139ff"] ;
533 -> 535 ;
536 [label="Swimming Pool <= 0.5\ngini = 0.53\nsamples = 11\nvalue = [11, 0, 8, 1]\nclass = Muito Alto", fillcolor="#e5813940"] ;
526 -> 536 ;
537 [label="Condo <= 261.5\ngini = 0.53\nsamples = 10\nvalue = [11, 0, 7, 1]\nclass = Muito Alto", fillcolor="#e5813955"] ;
536 -> 537 ;
538 [label="gini = 0.0\nsamples = 3\nvalue = [0, 0, 5, 0]\nclass = Médio", fillcolor="#399de5ff"] ;
537 -> 538 ;
539 [label="Size <= 95.0\ngini = 0.36\nsamples = 7\nvalue = [11, 0, 2, 1]\nclass = Muito Alto", fillcolor="#e58139bf"] ;
537 -> 539 ;
540 [label="gini = 0.0\nsamples = 1\nvalue = [0, 0, 0, 1]\nclass = Baixo", fillcolor="#d739e5ff"] ;
539 -> 540 ;
541 [label="Size <= 138.5\ngini = 0.26\nsamples = 6\nvalue = [11, 0, 2, 0]\nclass = Muito Alto", fillcolor="#e58139d1"] ;
539 -> 541 ;
542 [label="gini = 0.0\nsamples = 4\nvalue = [6, 0, 0, 0]\nclass = Muito Alto", fillcolor="#e58139ff"] ;
541 -> 542 ;
543 [label="Size <= 152.0\ngini = 0.41\nsamples = 2\nvalue = [5, 0, 2, 0]\nclass = Muito Alto", fillcolor="#e5813999"] ;
541 -> 543 ;
544 [label="gini = 0.0\nsamples = 1\nvalue = [0, 0, 2, 0]\nclass = Médio", fillcolor="#399de5ff"] ;
543 -> 544 ;
545 [label="gini = 0.0\nsamples = 1\nvalue = [5, 0, 0, 0]\nclass = Muito Alto", fillcolor="#e58139ff"] ;
543 -> 545 ;
546 [label="gini = 0.0\nsamples = 1\nvalue = [0, 0, 1, 0]\nclass = Médio", fillcolor="#399de5ff"] ;
536 -> 546 ;
547 [label="Condo <= 722.5\ngini = 0.55\nsamples = 26\nvalue = [16, 0, 19, 2]\nclass = Médio", fillcolor="#399de524"] ;
501 -> 547 ;
548 [label="gini = 0.0\nsamples = 3\nvalue = [0, 0, 7, 0]\nclass = Médio", fillcolor="#399de5ff"] ;
547 -> 548 ;
549 [label="Condo <= 892.5\ngini = 0.55\nsamples = 23\nvalue = [16, 0, 12, 2]\nclass = Muito Alto", fillcolor="#e5813939"] ;
547 -> 549 ;
550 [label="Condo <= 870.5\ngini = 0.45\nsamples = 11\nvalue = [10, 0, 2, 2]\nclass = Muito Alto", fillcolor="#e58139aa"] ;
549 -> 550 ;
551 [label="Size <= 81.0\ngini = 0.38\nsamples = 10\nvalue = [10, 0, 2, 1]\nclass = Muito Alto", fillcolor="#e58139b9"] ;
550 -> 551 ;
552 [label="gini = 0.0\nsamples = 1\nvalue = [0, 0, 1, 0]\nclass = Médio", fillcolor="#399de5ff"] ;
551 -> 552 ;
553 [label="Condo <= 751.0\ngini = 0.29\nsamples = 9\nvalue = [10, 0, 1, 1]\nclass = Muito Alto", fillcolor="#e58139d1"] ;
551 -> 553 ;
554 [label="Condo <= 737.5\ngini = 0.5\nsamples = 2\nvalue = [1, 0, 1, 0]\nclass = Muito Alto", fillcolor="#e5813900"] ;
553 -> 554 ;
555 [label="gini = 0.0\nsamples = 1\nvalue = [1, 0, 0, 0]\nclass = Muito Alto", fillcolor="#e58139ff"] ;
554 -> 555 ;
556 [label="gini = 0.0\nsamples = 1\nvalue = [0, 0, 1, 0]\nclass = Médio", fillcolor="#399de5ff"] ;
554 -> 556 ;
557 [label="Size <= 87.5\ngini = 0.18\nsamples = 7\nvalue = [9, 0, 0, 1]\nclass = Muito Alto", fillcolor="#e58139e3"] ;
553 -> 557 ;
558 [label="Condo <= 777.5\ngini = 0.32\nsamples = 3\nvalue = [4, 0, 0, 1]\nclass = Muito Alto", fillcolor="#e58139bf"] ;
557 -> 558 ;
559 [label="gini = 0.0\nsamples = 1\nvalue = [3, 0, 0, 0]\nclass = Muito Alto", fillcolor="#e58139ff"] ;
558 -> 559 ;
560 [label="Size <= 85.5\ngini = 0.5\nsamples = 2\nvalue = [1, 0, 0, 1]\nclass = Muito Alto", fillcolor="#e5813900"] ;
558 -> 560 ;
561 [label="gini = 0.0\nsamples = 1\nvalue = [1, 0, 0, 0]\nclass = Muito Alto", fillcolor="#e58139ff"] ;
560 -> 561 ;
562 [label="gini = 0.0\nsamples = 1\nvalue = [0, 0, 0, 1]\nclass = Baixo", fillcolor="#d739e5ff"] ;
560 -> 562 ;
563 [label="gini = 0.0\nsamples = 4\nvalue = [5, 0, 0, 0]\nclass = Muito Alto", fillcolor="#e58139ff"] ;
557 -> 563 ;
564 [label="gini = 0.0\nsamples = 1\nvalue = [0, 0, 0, 1]\nclass = Baixo", fillcolor="#d739e5ff"] ;
550 -> 564 ;
565 [label="Swimming Pool <= 0.5\ngini = 0.47\nsamples = 12\nvalue = [6, 0, 10, 0]\nclass = Médio", fillcolor="#399de566"] ;
549 -> 565 ;
566 [label="Size <= 110.5\ngini = 0.49\nsamples = 11\nvalue = [6, 0, 8, 0]\nclass = Médio", fillcolor="#399de540"] ;
565 -> 566 ;
567 [label="Size <= 94.0\ngini = 0.44\nsamples = 9\nvalue = [4, 0, 8, 0]\nclass = Médio", fillcolor="#399de57f"] ;
566 -> 567 ;
568 [label="Rooms <= 2.5\ngini = 0.49\nsamples = 5\nvalue = [4, 0, 3, 0]\nclass = Muito Alto", fillcolor="#e5813940"] ;
567 -> 568 ;
569 [label="Condo <= 912.5\ngini = 0.38\nsamples = 3\nvalue = [1, 0, 3, 0]\nclass = Médio", fillcolor="#399de5aa"] ;
568 -> 569 ;
570 [label="gini = 0.0\nsamples = 1\nvalue = [0, 0, 2, 0]\nclass = Médio", fillcolor="#399de5ff"] ;
569 -> 570 ;
571 [label="Condo <= 961.0\ngini = 0.5\nsamples = 2\nvalue = [1, 0, 1, 0]\nclass = Muito Alto", fillcolor="#e5813900"] ;
569 -> 571 ;
572 [label="gini = 0.0\nsamples = 1\nvalue = [1, 0, 0, 0]\nclass = Muito Alto", fillcolor="#e58139ff"] ;
571 -> 572 ;
573 [label="gini = 0.0\nsamples = 1\nvalue = [0, 0, 1, 0]\nclass = Médio", fillcolor="#399de5ff"] ;
571 -> 573 ;
574 [label="gini = 0.0\nsamples = 2\nvalue = [3, 0, 0, 0]\nclass = Muito Alto", fillcolor="#e58139ff"] ;
568 -> 574 ;
575 [label="gini = 0.0\nsamples = 4\nvalue = [0, 0, 5, 0]\nclass = Médio", fillcolor="#399de5ff"] ;
567 -> 575 ;
576 [label="gini = 0.0\nsamples = 2\nvalue = [2, 0, 0, 0]\nclass = Muito Alto", fillcolor="#e58139ff"] ;
566 -> 576 ;
577 [label="gini = 0.0\nsamples = 1\nvalue = [0, 0, 2, 0]\nclass = Médio", fillcolor="#399de5ff"] ;
565 -> 577 ;
578 [label="gini = 0.0\nsamples = 9\nvalue = [0, 0, 16, 0]\nclass = Médio", fillcolor="#399de5ff"] ;
500 -> 578 ;
579 [label="gini = 0.0\nsamples = 1\nvalue = [1, 0, 0, 0]\nclass = Muito Alto", fillcolor="#e58139ff"] ;
499 -> 579 ;
580 [label="gini = 0.0\nsamples = 1\nvalue = [0, 0, 3, 0]\nclass = Médio", fillcolor="#399de5ff"] ;
498 -> 580 ;
581 [label="Suites <= 0.5\ngini = 0.74\nsamples = 1746\nvalue = [901, 674, 450, 710]\nclass = Muito Alto", fillcolor="#e5813918"] ;
1 -> 581 ;
582 [label="Size <= 63.5\ngini = 0.58\nsamples = 26\nvalue = [19, 0, 4, 15]\nclass = Muito Alto", fillcolor="#e581392c"] ;
581 -> 582 ;
583 [label="Condo <= 315.0\ngini = 0.18\nsamples = 6\nvalue = [1, 0, 0, 9]\nclass = Baixo", fillcolor="#d739e5e3"] ;
582 -> 583 ;
584 [label="gini = 0.0\nsamples = 5\nvalue = [0, 0, 0, 9]\nclass = Baixo", fillcolor="#d739e5ff"] ;
583 -> 584 ;
585 [label="gini = 0.0\nsamples = 1\nvalue = [1, 0, 0, 0]\nclass = Muito Alto", fillcolor="#e58139ff"] ;
583 -> 585 ;
586 [label="Rooms <= 2.5\ngini = 0.52\nsamples = 20\nvalue = [18, 0, 4, 6]\nclass = Muito Alto", fillcolor="#e581398b"] ;
582 -> 586 ;
587 [label="Size <= 85.0\ngini = 0.44\nsamples = 11\nvalue = [10, 0, 1, 3]\nclass = Muito Alto", fillcolor="#e58139a2"] ;
586 -> 587 ;
588 [label="Size <= 75.0\ngini = 0.38\nsamples = 10\nvalue = [10, 0, 1, 2]\nclass = Muito Alto", fillcolor="#e58139b9"] ;
587 -> 588 ;
589 [label="Condo <= 195.0\ngini = 0.2\nsamples = 7\nvalue = [8, 0, 0, 1]\nclass = Muito Alto", fillcolor="#e58139df"] ;
588 -> 589 ;
590 [label="gini = 0.0\nsamples = 3\nvalue = [4, 0, 0, 0]\nclass = Muito Alto", fillcolor="#e58139ff"] ;
589 -> 590 ;
591 [label="Condo <= 415.0\ngini = 0.32\nsamples = 4\nvalue = [4, 0, 0, 1]\nclass = Muito Alto", fillcolor="#e58139bf"] ;
589 -> 591 ;
592 [label="gini = 0.0\nsamples = 1\nvalue = [0, 0, 0, 1]\nclass = Baixo", fillcolor="#d739e5ff"] ;
591 -> 592 ;
593 [label="gini = 0.0\nsamples = 3\nvalue = [4, 0, 0, 0]\nclass = Muito Alto", fillcolor="#e58139ff"] ;
591 -> 593 ;
594 [label="Rooms <= 1.5\ngini = 0.62\nsamples = 3\nvalue = [2, 0, 1, 1]\nclass = Muito Alto", fillcolor="#e5813955"] ;
588 -> 594 ;
595 [label="gini = 0.0\nsamples = 1\nvalue = [0, 0, 0, 1]\nclass = Baixo", fillcolor="#d739e5ff"] ;
594 -> 595 ;
596 [label="Condo <= 670.0\ngini = 0.44\nsamples = 2\nvalue = [2, 0, 1, 0]\nclass = Muito Alto", fillcolor="#e581397f"] ;
594 -> 596 ;
597 [label="gini = 0.0\nsamples = 1\nvalue = [2, 0, 0, 0]\nclass = Muito Alto", fillcolor="#e58139ff"] ;
596 -> 597 ;
598 [label="gini = 0.0\nsamples = 1\nvalue = [0, 0, 1, 0]\nclass = Médio", fillcolor="#399de5ff"] ;
596 -> 598 ;
599 [label="gini = 0.0\nsamples = 1\nvalue = [0, 0, 0, 1]\nclass = Baixo", fillcolor="#d739e5ff"] ;
587 -> 599 ;
600 [label="Condo <= 625.0\ngini = 0.58\nsamples = 9\nvalue = [8, 0, 3, 3]\nclass = Muito Alto", fillcolor="#e5813974"] ;
586 -> 600 ;
601 [label="Swimming Pool <= 0.5\ngini = 0.48\nsamples = 3\nvalue = [2, 0, 0, 3]\nclass = Baixo", fillcolor="#d739e555"] ;
600 -> 601 ;
602 [label="Size <= 66.0\ngini = 0.44\nsamples = 2\nvalue = [2, 0, 0, 1]\nclass = Muito Alto", fillcolor="#e581397f"] ;
601 -> 602 ;
603 [label="gini = 0.0\nsamples = 1\nvalue = [2, 0, 0, 0]\nclass = Muito Alto", fillcolor="#e58139ff"] ;
602 -> 603 ;
604 [label="gini = 0.0\nsamples = 1\nvalue = [0, 0, 0, 1]\nclass = Baixo", fillcolor="#d739e5ff"] ;
602 -> 604 ;
605 [label="gini = 0.0\nsamples = 1\nvalue = [0, 0, 0, 2]\nclass = Baixo", fillcolor="#d739e5ff"] ;
601 -> 605 ;
606 [label="Condo <= 832.5\ngini = 0.44\nsamples = 6\nvalue = [6, 0, 3, 0]\nclass = Muito Alto", fillcolor="#e581397f"] ;
600 -> 606 ;
607 [label="gini = 0.0\nsamples = 2\nvalue = [3, 0, 0, 0]\nclass = Muito Alto", fillcolor="#e58139ff"] ;
606 -> 607 ;
608 [label="Condo <= 907.5\ngini = 0.5\nsamples = 4\nvalue = [3, 0, 3, 0]\nclass = Muito Alto", fillcolor="#e5813900"] ;
606 -> 608 ;
609 [label="gini = 0.0\nsamples = 1\nvalue = [0, 0, 2, 0]\nclass = Médio", fillcolor="#399de5ff"] ;
608 -> 609 ;
610 [label="Condo <= 1161.5\ngini = 0.38\nsamples = 3\nvalue = [3, 0, 1, 0]\nclass = Muito Alto", fillcolor="#e58139aa"] ;
608 -> 610 ;
611 [label="gini = 0.0\nsamples = 2\nvalue = [3, 0, 0, 0]\nclass = Muito Alto", fillcolor="#e58139ff"] ;
610 -> 611 ;
612 [label="gini = 0.0\nsamples = 1\nvalue = [0, 0, 1, 0]\nclass = Médio", fillcolor="#399de5ff"] ;
610 -> 612 ;
613 [label="Size <= 58.5\ngini = 0.74\nsamples = 1720\nvalue = [882, 674, 446, 695]\nclass = Muito Alto", fillcolor="#e5813918"] ;
581 -> 613 ;
614 [label="Size <= 48.5\ngini = 0.59\nsamples = 783\nvalue = [153, 634, 10, 412]\nclass = Alto", fillcolor="#47e53947"] ;
613 -> 614 ;
615 [label="Size <= 36.5\ngini = 0.45\nsamples = 365\nvalue = [53, 409, 6, 110]\nclass = Alto", fillcolor="#47e539a3"] ;
614 -> 615 ;
616 [label="Condo <= 335.0\ngini = 0.65\nsamples = 43\nvalue = [16, 25, 0, 17]\nclass = Alto", fillcolor="#47e53932"] ;
615 -> 616 ;
617 [label="Size <= 32.5\ngini = 0.47\nsamples = 23\nvalue = [3, 20, 0, 6]\nclass = Alto", fillcolor="#47e5399b"] ;
616 -> 617 ;
618 [label="gini = 0.0\nsamples = 6\nvalue = [0, 8, 0, 0]\nclass = Alto", fillcolor="#47e539ff"] ;
617 -> 618 ;
619 [label="Rooms <= 1.5\ngini = 0.57\nsamples = 17\nvalue = [3, 12, 0, 6]\nclass = Alto", fillcolor="#47e53966"] ;
617 -> 619 ;
620 [label="Condo <= 295.0\ngini = 0.64\nsamples = 11\nvalue = [3, 6, 0, 5]\nclass = Alto", fillcolor="#47e5391c"] ;
619 -> 620 ;
621 [label="Swimming Pool <= 0.5\ngini = 0.59\nsamples = 7\nvalue = [3, 4, 0, 1]\nclass = Alto", fillcolor="#47e53933"] ;
620 -> 621 ;
622 [label="Size <= 34.0\ngini = 0.44\nsamples = 3\nvalue = [1, 2, 0, 0]\nclass = Alto", fillcolor="#47e5397f"] ;
621 -> 622 ;
623 [label="Condo <= 145.0\ngini = 0.5\nsamples = 2\nvalue = [1, 1, 0, 0]\nclass = Muito Alto", fillcolor="#e5813900"] ;
622 -> 623 ;
624 [label="gini = 0.0\nsamples = 1\nvalue = [1, 0, 0, 0]\nclass = Muito Alto", fillcolor="#e58139ff"] ;
623 -> 624 ;
625 [label="gini = 0.0\nsamples = 1\nvalue = [0, 1, 0, 0]\nclass = Alto", fillcolor="#47e539ff"] ;
623 -> 625 ;
626 [label="gini = 0.0\nsamples = 1\nvalue = [0, 1, 0, 0]\nclass = Alto", fillcolor="#47e539ff"] ;
622 -> 626 ;
627 [label="Size <= 34.0\ngini = 0.64\nsamples = 4\nvalue = [2, 2, 0, 1]\nclass = Muito Alto", fillcolor="#e5813900"] ;
621 -> 627 ;
628 [label="gini = 0.0\nsamples = 1\nvalue = [0, 1, 0, 0]\nclass = Alto", fillcolor="#47e539ff"] ;
627 -> 628 ;
629 [label="Condo <= 225.0\ngini = 0.62\nsamples = 3\nvalue = [2, 1, 0, 1]\nclass = Muito Alto", fillcolor="#e5813955"] ;
627 -> 629 ;
630 [label="gini = 0.0\nsamples = 1\nvalue = [0, 1, 0, 0]\nclass = Alto", fillcolor="#47e539ff"] ;
629 -> 630 ;
631 [label="gini = 0.44\nsamples = 2\nvalue = [2, 0, 0, 1]\nclass = Muito Alto", fillcolor="#e581397f"] ;
629 -> 631 ;
632 [label="Size <= 34.5\ngini = 0.44\nsamples = 4\nvalue = [0, 2, 0, 4]\nclass = Baixo", fillcolor="#d739e57f"] ;
620 -> 632 ;
633 [label="gini = 0.5\nsamples = 2\nvalue = [0, 2, 0, 2]\nclass = Alto", fillcolor="#47e53900"] ;
632 -> 633 ;
634 [label="gini = 0.0\nsamples = 2\nvalue = [0, 0, 0, 2]\nclass = Baixo", fillcolor="#d739e5ff"] ;
632 -> 634 ;
635 [label="Size <= 34.5\ngini = 0.24\nsamples = 6\nvalue = [0, 6, 0, 1]\nclass = Alto", fillcolor="#47e539d4"] ;
619 -> 635 ;
636 [label="Swimming Pool <= 0.5\ngini = 0.38\nsamples = 4\nvalue = [0, 3, 0, 1]\nclass = Alto", fillcolor="#47e539aa"] ;
635 -> 636 ;
637 [label="Condo <= 195.0\ngini = 0.5\nsamples = 2\nvalue = [0, 1, 0, 1]\nclass = Alto", fillcolor="#47e53900"] ;
636 -> 637 ;
638 [label="gini = 0.0\nsamples = 1\nvalue = [0, 0, 0, 1]\nclass = Baixo", fillcolor="#d739e5ff"] ;
637 -> 638 ;
639 [label="gini = 0.0\nsamples = 1\nvalue = [0, 1, 0, 0]\nclass = Alto", fillcolor="#47e539ff"] ;
637 -> 639 ;
640 [label="gini = 0.0\nsamples = 2\nvalue = [0, 2, 0, 0]\nclass = Alto", fillcolor="#47e539ff"] ;
636 -> 640 ;
641 [label="gini = 0.0\nsamples = 2\nvalue = [0, 3, 0, 0]\nclass = Alto", fillcolor="#47e539ff"] ;
635 -> 641 ;
642 [label="Size <= 35.5\ngini = 0.63\nsamples = 20\nvalue = [13, 5, 0, 11]\nclass = Muito Alto", fillcolor="#e581391c"] ;
616 -> 642 ;
643 [label="Swimming Pool <= 0.5\ngini = 0.6\nsamples = 17\nvalue = [13, 5, 0, 6]\nclass = Muito Alto", fillcolor="#e5813963"] ;
642 -> 643 ;
644 [label="gini = 0.0\nsamples = 2\nvalue = [0, 4, 0, 0]\nclass = Alto", fillcolor="#47e539ff"] ;
643 -> 644 ;
645 [label="Size <= 33.5\ngini = 0.48\nsamples = 15\nvalue = [13, 1, 0, 6]\nclass = Muito Alto", fillcolor="#e5813980"] ;
643 -> 645 ;
646 [label="Size <= 30.5\ngini = 0.57\nsamples = 9\nvalue = [5, 1, 0, 6]\nclass = Baixo", fillcolor="#d739e524"] ;
645 -> 646 ;
647 [label="Condo <= 535.0\ngini = 0.56\nsamples = 3\nvalue = [1, 1, 0, 3]\nclass = Baixo", fillcolor="#d739e57f"] ;
646 -> 647 ;
648 [label="gini = 0.38\nsamples = 2\nvalue = [0, 1, 0, 3]\nclass = Baixo", fillcolor="#d739e5aa"] ;
647 -> 648 ;
649 [label="gini = 0.0\nsamples = 1\nvalue = [1, 0, 0, 0]\nclass = Muito Alto", fillcolor="#e58139ff"] ;
647 -> 649 ;
650 [label="Condo <= 556.5\ngini = 0.49\nsamples = 6\nvalue = [4, 0, 0, 3]\nclass = Muito Alto", fillcolor="#e5813940"] ;
646 -> 650 ;
651 [label="Condo <= 395.0\ngini = 0.32\nsamples = 4\nvalue = [4, 0, 0, 1]\nclass = Muito Alto", fillcolor="#e58139bf"] ;
650 -> 651 ;
652 [label="gini = 0.0\nsamples = 1\nvalue = [0, 0, 0, 1]\nclass = Baixo", fillcolor="#d739e5ff"] ;
651 -> 652 ;
653 [label="gini = 0.0\nsamples = 3\nvalue = [4, 0, 0, 0]\nclass = Muito Alto", fillcolor="#e58139ff"] ;
651 -> 653 ;
654 [label="gini = 0.0\nsamples = 2\nvalue = [0, 0, 0, 2]\nclass = Baixo", fillcolor="#d739e5ff"] ;
650 -> 654 ;
655 [label="gini = 0.0\nsamples = 6\nvalue = [8, 0, 0, 0]\nclass = Muito Alto", fillcolor="#e58139ff"] ;
645 -> 655 ;
656 [label="gini = 0.0\nsamples = 3\nvalue = [0, 0, 0, 5]\nclass = Baixo", fillcolor="#d739e5ff"] ;
642 -> 656 ;
657 [label="Swimming Pool <= 0.5\ngini = 0.42\nsamples = 322\nvalue = [37, 384, 6, 93]\nclass = Alto", fillcolor="#47e539ae"] ;
615 -> 657 ;
658 [label="Condo <= 411.5\ngini = 0.17\nsamples = 183\nvalue = [9, 275, 0, 19]\nclass = Alto", fillcolor="#47e539e6"] ;
657 -> 658 ;
659 [label="Size <= 38.5\ngini = 0.08\nsamples = 167\nvalue = [1, 265, 0, 10]\nclass = Alto", fillcolor="#47e539f4"] ;
658 -> 659 ;
660 [label="Condo <= 245.0\ngini = 0.18\nsamples = 14\nvalue = [0, 18, 0, 2]\nclass = Alto", fillcolor="#47e539e3"] ;
659 -> 660 ;
661 [label="gini = 0.0\nsamples = 12\nvalue = [0, 16, 0, 0]\nclass = Alto", fillcolor="#47e539ff"] ;
660 -> 661 ;
662 [label="Condo <= 295.0\ngini = 0.5\nsamples = 2\nvalue = [0, 2, 0, 2]\nclass = Alto", fillcolor="#47e53900"] ;
660 -> 662 ;
663 [label="gini = 0.0\nsamples = 1\nvalue = [0, 0, 0, 2]\nclass = Baixo", fillcolor="#d739e5ff"] ;
662 -> 663 ;
664 [label="gini = 0.0\nsamples = 1\nvalue = [0, 2, 0, 0]\nclass = Alto", fillcolor="#47e539ff"] ;
662 -> 664 ;
665 [label="Condo <= 387.5\ngini = 0.07\nsamples = 153\nvalue = [1, 247, 0, 8]\nclass = Alto", fillcolor="#47e539f6"] ;
659 -> 665 ;
666 [label="Size <= 47.5\ngini = 0.06\nsamples = 145\nvalue = [1, 237, 0, 6]\nclass = Alto", fillcolor="#47e539f8"] ;
665 -> 666 ;
667 [label="Rooms <= 1.5\ngini = 0.04\nsamples = 112\nvalue = [1, 184, 0, 3]\nclass = Alto", fillcolor="#47e539f9"] ;
666 -> 667 ;
668 [label="Condo <= 295.0\ngini = 0.34\nsamples = 6\nvalue = [1, 8, 0, 1]\nclass = Alto", fillcolor="#47e539c6"] ;
667 -> 668 ;
669 [label="Size <= 44.0\ngini = 0.2\nsamples = 5\nvalue = [1, 8, 0, 0]\nclass = Alto", fillcolor="#47e539df"] ;
668 -> 669 ;
670 [label="gini = 0.0\nsamples = 3\nvalue = [0, 7, 0, 0]\nclass = Alto", fillcolor="#47e539ff"] ;
669 -> 670 ;
671 [label="Condo <= 85.5\ngini = 0.5\nsamples = 2\nvalue = [1, 1, 0, 0]\nclass = Muito Alto", fillcolor="#e5813900"] ;
669 -> 671 ;
672 [label="gini = 0.0\nsamples = 1\nvalue = [1, 0, 0, 0]\nclass = Muito Alto", fillcolor="#e58139ff"] ;
671 -> 672 ;
673 [label="gini = 0.0\nsamples = 1\nvalue = [0, 1, 0, 0]\nclass = Alto", fillcolor="#47e539ff"] ;
671 -> 673 ;
674 [label="gini = 0.0\nsamples = 1\nvalue = [0, 0, 0, 1]\nclass = Baixo", fillcolor="#d739e5ff"] ;
668 -> 674 ;
675 [label="Size <= 43.5\ngini = 0.02\nsamples = 106\nvalue = [0, 176, 0, 2]\nclass = Alto", fillcolor="#47e539fc"] ;
667 -> 675 ;
676 [label="gini = 0.0\nsamples = 49\nvalue = [0, 87, 0, 0]\nclass = Alto", fillcolor="#47e539ff"] ;
675 -> 676 ;
677 [label="Size <= 44.5\ngini = 0.04\nsamples = 57\nvalue = [0, 89, 0, 2]\nclass = Alto", fillcolor="#47e539f9"] ;
675 -> 677 ;
678 [label="Condo <= 65.0\ngini = 0.12\nsamples = 10\nvalue = [0, 15, 0, 1]\nclass = Alto", fillcolor="#47e539ee"] ;
677 -> 678 ;
679 [label="gini = 0.32\nsamples = 4\nvalue = [0, 4, 0, 1]\nclass = Alto", fillcolor="#47e539bf"] ;
678 -> 679 ;
680 [label="gini = 0.0\nsamples = 6\nvalue = [0, 11, 0, 0]\nclass = Alto", fillcolor="#47e539ff"] ;
678 -> 680 ;
681 [label="Size <= 46.5\ngini = 0.03\nsamples = 47\nvalue = [0, 74, 0, 1]\nclass = Alto", fillcolor="#47e539fc"] ;
677 -> 681 ;
682 [label="Size <= 45.5\ngini = 0.05\nsamples = 26\nvalue = [0, 39, 0, 1]\nclass = Alto", fillcolor="#47e539f8"] ;
681 -> 682 ;
683 [label="gini = 0.0\nsamples = 18\nvalue = [0, 27, 0, 0]\nclass = Alto", fillcolor="#47e539ff"] ;
682 -> 683 ;
684 [label="Condo <= 204.5\ngini = 0.14\nsamples = 8\nvalue = [0, 12, 0, 1]\nclass = Alto", fillcolor="#47e539ea"] ;
682 -> 684 ;
685 [label="gini = 0.0\nsamples = 4\nvalue = [0, 9, 0, 0]\nclass = Alto", fillcolor="#47e539ff"] ;
684 -> 685 ;
686 [label="Condo <= 235.0\ngini = 0.38\nsamples = 4\nvalue = [0, 3, 0, 1]\nclass = Alto", fillcolor="#47e539aa"] ;
684 -> 686 ;
687 [label="gini = 0.0\nsamples = 1\nvalue = [0, 0, 0, 1]\nclass = Baixo", fillcolor="#d739e5ff"] ;
686 -> 687 ;
688 [label="gini = 0.0\nsamples = 3\nvalue = [0, 3, 0, 0]\nclass = Alto", fillcolor="#47e539ff"] ;
686 -> 688 ;
689 [label="gini = 0.0\nsamples = 21\nvalue = [0, 35, 0, 0]\nclass = Alto", fillcolor="#47e539ff"] ;
681 -> 689 ;
690 [label="Condo <= 35.0\ngini = 0.1\nsamples = 33\nvalue = [0, 53, 0, 3]\nclass = Alto", fillcolor="#47e539f1"] ;
666 -> 690 ;
691 [label="gini = 0.4\nsamples = 9\nvalue = [0, 8, 0, 3]\nclass = Alto", fillcolor="#47e5399f"] ;
690 -> 691 ;
692 [label="gini = 0.0\nsamples = 24\nvalue = [0, 45, 0, 0]\nclass = Alto", fillcolor="#47e539ff"] ;
690 -> 692 ;
693 [label="Condo <= 391.5\ngini = 0.28\nsamples = 8\nvalue = [0, 10, 0, 2]\nclass = Alto", fillcolor="#47e539cc"] ;
665 -> 693 ;
694 [label="Size <= 46.5\ngini = 0.44\nsamples = 3\nvalue = [0, 1, 0, 2]\nclass = Baixo", fillcolor="#d739e57f"] ;
693 -> 694 ;
695 [label="gini = 0.5\nsamples = 2\nvalue = [0, 1, 0, 1]\nclass = Alto", fillcolor="#47e53900"] ;
694 -> 695 ;
696 [label="gini = 0.0\nsamples = 1\nvalue = [0, 0, 0, 1]\nclass = Baixo", fillcolor="#d739e5ff"] ;
694 -> 696 ;
697 [label="gini = 0.0\nsamples = 5\nvalue = [0, 9, 0, 0]\nclass = Alto", fillcolor="#47e539ff"] ;
693 -> 697 ;
698 [label="Condo <= 424.5\ngini = 0.66\nsamples = 16\nvalue = [8, 10, 0, 9]\nclass = Alto", fillcolor="#47e5390e"] ;
658 -> 698 ;
699 [label="gini = 0.0\nsamples = 1\nvalue = [3, 0, 0, 0]\nclass = Muito Alto", fillcolor="#e58139ff"] ;
698 -> 699 ;
700 [label="Rooms <= 1.5\ngini = 0.64\nsamples = 15\nvalue = [5, 10, 0, 9]\nclass = Alto", fillcolor="#47e53911"] ;
698 -> 700 ;
701 [label="Condo <= 522.0\ngini = 0.62\nsamples = 8\nvalue = [5, 3, 0, 2]\nclass = Muito Alto", fillcolor="#e5813949"] ;
700 -> 701 ;
702 [label="gini = 0.0\nsamples = 1\nvalue = [2, 0, 0, 0]\nclass = Muito Alto", fillcolor="#e58139ff"] ;
701 -> 702 ;
703 [label="Size <= 41.5\ngini = 0.66\nsamples = 7\nvalue = [3, 3, 0, 2]\nclass = Muito Alto", fillcolor="#e5813900"] ;
701 -> 703 ;
704 [label="Condo <= 641.5\ngini = 0.38\nsamples = 3\nvalue = [0, 3, 0, 1]\nclass = Alto", fillcolor="#47e539aa"] ;
703 -> 704 ;
705 [label="gini = 0.0\nsamples = 1\nvalue = [0, 2, 0, 0]\nclass = Alto", fillcolor="#47e539ff"] ;
704 -> 705 ;
706 [label="Size <= 39.5\ngini = 0.5\nsamples = 2\nvalue = [0, 1, 0, 1]\nclass = Alto", fillcolor="#47e53900"] ;
704 -> 706 ;
707 [label="gini = 0.0\nsamples = 1\nvalue = [0, 0, 0, 1]\nclass = Baixo", fillcolor="#d739e5ff"] ;
706 -> 707 ;
708 [label="gini = 0.0\nsamples = 1\nvalue = [0, 1, 0, 0]\nclass = Alto", fillcolor="#47e539ff"] ;
706 -> 708 ;
709 [label="Size <= 43.5\ngini = 0.38\nsamples = 4\nvalue = [3, 0, 0, 1]\nclass = Muito Alto", fillcolor="#e58139aa"] ;
703 -> 709 ;
710 [label="gini = 0.0\nsamples = 2\nvalue = [2, 0, 0, 0]\nclass = Muito Alto", fillcolor="#e58139ff"] ;
709 -> 710 ;
711 [label="Condo <= 638.5\ngini = 0.5\nsamples = 2\nvalue = [1, 0, 0, 1]\nclass = Muito Alto", fillcolor="#e5813900"] ;
709 -> 711 ;
712 [label="gini = 0.0\nsamples = 1\nvalue = [0, 0, 0, 1]\nclass = Baixo", fillcolor="#d739e5ff"] ;
711 -> 712 ;
713 [label="gini = 0.0\nsamples = 1\nvalue = [1, 0, 0, 0]\nclass = Muito Alto", fillcolor="#e58139ff"] ;
711 -> 713 ;
714 [label="Condo <= 491.0\ngini = 0.5\nsamples = 7\nvalue = [0, 7, 0, 7]\nclass = Alto", fillcolor="#47e53900"] ;
700 -> 714 ;
715 [label="Condo <= 457.5\ngini = 0.38\nsamples = 3\nvalue = [0, 6, 0, 2]\nclass = Alto", fillcolor="#47e539aa"] ;
714 -> 715 ;
716 [label="Condo <= 432.0\ngini = 0.5\nsamples = 2\nvalue = [0, 2, 0, 2]\nclass = Alto", fillcolor="#47e53900"] ;
715 -> 716 ;
717 [label="gini = 0.0\nsamples = 1\nvalue = [0, 2, 0, 0]\nclass = Alto", fillcolor="#47e539ff"] ;
716 -> 717 ;
718 [label="gini = 0.0\nsamples = 1\nvalue = [0, 0, 0, 2]\nclass = Baixo", fillcolor="#d739e5ff"] ;
716 -> 718 ;
719 [label="gini = 0.0\nsamples = 1\nvalue = [0, 4, 0, 0]\nclass = Alto", fillcolor="#47e539ff"] ;
715 -> 719 ;
720 [label="Condo <= 515.0\ngini = 0.28\nsamples = 4\nvalue = [0, 1, 0, 5]\nclass = Baixo", fillcolor="#d739e5cc"] ;
714 -> 720 ;
721 [label="Condo <= 506.0\ngini = 0.44\nsamples = 2\nvalue = [0, 1, 0, 2]\nclass = Baixo", fillcolor="#d739e57f"] ;
720 -> 721 ;
722 [label="gini = 0.0\nsamples = 1\nvalue = [0, 0, 0, 2]\nclass = Baixo", fillcolor="#d739e5ff"] ;
721 -> 722 ;
723 [label="gini = 0.0\nsamples = 1\nvalue = [0, 1, 0, 0]\nclass = Alto", fillcolor="#47e539ff"] ;
721 -> 723 ;
724 [label="gini = 0.0\nsamples = 2\nvalue = [0, 0, 0, 3]\nclass = Baixo", fillcolor="#d739e5ff"] ;
720 -> 724 ;
725 [label="Rooms <= 1.5\ngini = 0.61\nsamples = 139\nvalue = [28, 109, 6, 74]\nclass = Alto", fillcolor="#47e5393e"] ;
657 -> 725 ;
726 [label="Size <= 46.5\ngini = 0.68\nsamples = 42\nvalue = [28, 11, 6, 27]\nclass = Muito Alto", fillcolor="#e5813906"] ;
725 -> 726 ;
727 [label="Size <= 38.5\ngini = 0.6\nsamples = 36\nvalue = [26, 6, 1, 27]\nclass = Baixo", fillcolor="#d739e507"] ;
726 -> 727 ;
728 [label="Size <= 37.5\ngini = 0.34\nsamples = 7\nvalue = [1, 1, 0, 8]\nclass = Baixo", fillcolor="#d739e5c6"] ;
727 -> 728 ;
729 [label="gini = 0.0\nsamples = 3\nvalue = [0, 0, 0, 4]\nclass = Baixo", fillcolor="#d739e5ff"] ;
728 -> 729 ;
730 [label="Condo <= 407.5\ngini = 0.5\nsamples = 4\nvalue = [1, 1, 0, 4]\nclass = Baixo", fillcolor="#d739e599"] ;
728 -> 730 ;
731 [label="gini = 0.0\nsamples = 2\nvalue = [0, 0, 0, 4]\nclass = Baixo", fillcolor="#d739e5ff"] ;
730 -> 731 ;
732 [label="Condo <= 442.5\ngini = 0.5\nsamples = 2\nvalue = [1, 1, 0, 0]\nclass = Muito Alto", fillcolor="#e5813900"] ;
730 -> 732 ;
733 [label="gini = 0.0\nsamples = 1\nvalue = [0, 1, 0, 0]\nclass = Alto", fillcolor="#47e539ff"] ;
732 -> 733 ;
734 [label="gini = 0.0\nsamples = 1\nvalue = [1, 0, 0, 0]\nclass = Muito Alto", fillcolor="#e58139ff"] ;
732 -> 734 ;
735 [label="Condo <= 278.5\ngini = 0.6\nsamples = 29\nvalue = [25, 5, 1, 19]\nclass = Muito Alto", fillcolor="#e5813931"] ;
727 -> 735 ;
736 [label="Condo <= 235.0\ngini = 0.65\nsamples = 8\nvalue = [3, 5, 0, 5]\nclass = Alto", fillcolor="#47e53900"] ;
735 -> 736 ;
737 [label="Size <= 39.5\ngini = 0.65\nsamples = 7\nvalue = [3, 5, 0, 4]\nclass = Alto", fillcolor="#47e53920"] ;
736 -> 737 ;
738 [label="Condo <= 100.0\ngini = 0.66\nsamples = 4\nvalue = [3, 2, 0, 3]\nclass = Muito Alto", fillcolor="#e5813900"] ;
737 -> 738 ;
739 [label="gini = 0.5\nsamples = 3\nvalue = [3, 0, 0, 3]\nclass = Muito Alto", fillcolor="#e5813900"] ;
738 -> 739 ;
740 [label="gini = 0.0\nsamples = 1\nvalue = [0, 2, 0, 0]\nclass = Alto", fillcolor="#47e539ff"] ;
738 -> 740 ;
741 [label="Size <= 44.0\ngini = 0.38\nsamples = 3\nvalue = [0, 3, 0, 1]\nclass = Alto", fillcolor="#47e539aa"] ;
737 -> 741 ;
742 [label="gini = 0.0\nsamples = 2\nvalue = [0, 3, 0, 0]\nclass = Alto", fillcolor="#47e539ff"] ;
741 -> 742 ;
743 [label="gini = 0.0\nsamples = 1\nvalue = [0, 0, 0, 1]\nclass = Baixo", fillcolor="#d739e5ff"] ;
741 -> 743 ;
744 [label="gini = 0.0\nsamples = 1\nvalue = [0, 0, 0, 1]\nclass = Baixo", fillcolor="#d739e5ff"] ;
736 -> 744 ;
745 [label="Size <= 39.5\ngini = 0.5\nsamples = 21\nvalue = [22, 0, 1, 14]\nclass = Muito Alto", fillcolor="#e5813959"] ;
735 -> 745 ;
746 [label="gini = 0.0\nsamples = 2\nvalue = [2, 0, 0, 0]\nclass = Muito Alto", fillcolor="#e58139ff"] ;
745 -> 746 ;
747 [label="Size <= 40.5\ngini = 0.51\nsamples = 19\nvalue = [20, 0, 1, 14]\nclass = Muito Alto", fillcolor="#e5813949"] ;
745 -> 747 ;
748 [label="Condo <= 430.0\ngini = 0.5\nsamples = 9\nvalue = [7, 0, 0, 7]\nclass = Muito Alto", fillcolor="#e5813900"] ;
747 -> 748 ;
749 [label="Condo <= 325.0\ngini = 0.42\nsamples = 6\nvalue = [3, 0, 0, 7]\nclass = Baixo", fillcolor="#d739e592"] ;
748 -> 749 ;
750 [label="Condo <= 293.5\ngini = 0.38\nsamples = 3\nvalue = [3, 0, 0, 1]\nclass = Muito Alto", fillcolor="#e58139aa"] ;
749 -> 750 ;
751 [label="gini = 0.0\nsamples = 1\nvalue = [2, 0, 0, 0]\nclass = Muito Alto", fillcolor="#e58139ff"] ;
750 -> 751 ;
752 [label="gini = 0.5\nsamples = 2\nvalue = [1, 0, 0, 1]\nclass = Muito Alto", fillcolor="#e5813900"] ;
750 -> 752 ;
753 [label="gini = 0.0\nsamples = 3\nvalue = [0, 0, 0, 6]\nclass = Baixo", fillcolor="#d739e5ff"] ;
749 -> 753 ;
754 [label="gini = 0.0\nsamples = 3\nvalue = [4, 0, 0, 0]\nclass = Muito Alto", fillcolor="#e58139ff"] ;
748 -> 754 ;
755 [label="Size <= 41.5\ngini = 0.5\nsamples = 10\nvalue = [13, 0, 1, 7]\nclass = Muito Alto", fillcolor="#e581396d"] ;
747 -> 755 ;
756 [label="gini = 0.0\nsamples = 2\nvalue = [5, 0, 0, 0]\nclass = Muito Alto", fillcolor="#e58139ff"] ;
755 -> 756 ;
757 [label="Condo <= 881.5\ngini = 0.55\nsamples = 8\nvalue = [8, 0, 1, 7]\nclass = Muito Alto", fillcolor="#e581391c"] ;
755 -> 757 ;
758 [label="Size <= 44.0\ngini = 0.49\nsamples = 6\nvalue = [8, 0, 1, 3]\nclass = Muito Alto", fillcolor="#e581398e"] ;
757 -> 758 ;
759 [label="Size <= 42.5\ngini = 0.61\nsamples = 3\nvalue = [2, 0, 1, 3]\nclass = Baixo", fillcolor="#d739e540"] ;
758 -> 759 ;
760 [label="Condo <= 625.0\ngini = 0.48\nsamples = 2\nvalue = [2, 0, 0, 3]\nclass = Baixo", fillcolor="#d739e555"] ;
759 -> 760 ;
761 [label="gini = 0.0\nsamples = 1\nvalue = [2, 0, 0, 0]\nclass = Muito Alto", fillcolor="#e58139ff"] ;
760 -> 761 ;
762 [label="gini = 0.0\nsamples = 1\nvalue = [0, 0, 0, 3]\nclass = Baixo", fillcolor="#d739e5ff"] ;
760 -> 762 ;
763 [label="gini = 0.0\nsamples = 1\nvalue = [0, 0, 1, 0]\nclass = Médio", fillcolor="#399de5ff"] ;
759 -> 763 ;
764 [label="gini = 0.0\nsamples = 3\nvalue = [6, 0, 0, 0]\nclass = Muito Alto", fillcolor="#e58139ff"] ;
758 -> 764 ;
765 [label="gini = 0.0\nsamples = 2\nvalue = [0, 0, 0, 4]\nclass = Baixo", fillcolor="#d739e5ff"] ;
757 -> 765 ;
766 [label="Condo <= 200.0\ngini = 0.62\nsamples = 6\nvalue = [2, 5, 5, 0]\nclass = Alto", fillcolor="#47e53900"] ;
726 -> 766 ;
767 [label="gini = 0.38\nsamples = 2\nvalue = [1, 0, 3, 0]\nclass = Médio", fillcolor="#399de5aa"] ;
766 -> 767 ;
768 [label="Condo <= 695.0\ngini = 0.53\nsamples = 4\nvalue = [1, 5, 2, 0]\nclass = Alto", fillcolor="#47e53980"] ;
766 -> 768 ;
769 [label="gini = 0.0\nsamples = 2\nvalue = [0, 5, 0, 0]\nclass = Alto", fillcolor="#47e539ff"] ;
768 -> 769 ;
770 [label="Condo <= 995.5\ngini = 0.44\nsamples = 2\nvalue = [1, 0, 2, 0]\nclass = Médio", fillcolor="#399de57f"] ;
768 -> 770 ;
771 [label="gini = 0.0\nsamples = 1\nvalue = [1, 0, 0, 0]\nclass = Muito Alto", fillcolor="#e58139ff"] ;
770 -> 771 ;
772 [label="gini = 0.0\nsamples = 1\nvalue = [0, 0, 2, 0]\nclass = Médio", fillcolor="#399de5ff"] ;
770 -> 772 ;
773 [label="Condo <= 360.0\ngini = 0.44\nsamples = 97\nvalue = [0, 98, 0, 47]\nclass = Alto", fillcolor="#47e53985"] ;
725 -> 773 ;
774 [label="Size <= 41.5\ngini = 0.32\nsamples = 78\nvalue = [0, 92, 0, 23]\nclass = Alto", fillcolor="#47e539bf"] ;
773 -> 774 ;
775 [label="gini = 0.0\nsamples = 34\nvalue = [0, 44, 0, 0]\nclass = Alto", fillcolor="#47e539ff"] ;
774 -> 775 ;
776 [label="Size <= 44.5\ngini = 0.44\nsamples = 44\nvalue = [0, 48, 0, 23]\nclass = Alto", fillcolor="#47e53985"] ;
774 -> 776 ;
777 [label="Condo <= 215.0\ngini = 0.3\nsamples = 11\nvalue = [0, 13, 0, 3]\nclass = Alto", fillcolor="#47e539c4"] ;
776 -> 777 ;
778 [label="Condo <= 100.0\ngini = 0.15\nsamples = 8\nvalue = [0, 11, 0, 1]\nclass = Alto", fillcolor="#47e539e8"] ;
777 -> 778 ;
779 [label="Size <= 43.5\ngini = 0.2\nsamples = 6\nvalue = [0, 8, 0, 1]\nclass = Alto", fillcolor="#47e539df"] ;
778 -> 779 ;
780 [label="gini = 0.0\nsamples = 2\nvalue = [0, 3, 0, 0]\nclass = Alto", fillcolor="#47e539ff"] ;
779 -> 780 ;
781 [label="gini = 0.28\nsamples = 4\nvalue = [0, 5, 0, 1]\nclass = Alto", fillcolor="#47e539cc"] ;
779 -> 781 ;
782 [label="gini = 0.0\nsamples = 2\nvalue = [0, 3, 0, 0]\nclass = Alto", fillcolor="#47e539ff"] ;
778 -> 782 ;
783 [label="Condo <= 225.0\ngini = 0.5\nsamples = 3\nvalue = [0, 2, 0, 2]\nclass = Alto", fillcolor="#47e53900"] ;
777 -> 783 ;
784 [label="gini = 0.0\nsamples = 1\nvalue = [0, 0, 0, 2]\nclass = Baixo", fillcolor="#d739e5ff"] ;
783 -> 784 ;
785 [label="gini = 0.0\nsamples = 2\nvalue = [0, 2, 0, 0]\nclass = Alto", fillcolor="#47e539ff"] ;
783 -> 785 ;
786 [label="Condo <= 100.0\ngini = 0.46\nsamples = 33\nvalue = [0, 35, 0, 20]\nclass = Alto", fillcolor="#47e5396d"] ;
776 -> 786 ;
787 [label="Size <= 45.5\ngini = 0.47\nsamples = 13\nvalue = [0, 8, 0, 13]\nclass = Baixo", fillcolor="#d739e562"] ;
786 -> 787 ;
788 [label="gini = 0.0\nsamples = 4\nvalue = [0, 0, 0, 7]\nclass = Baixo", fillcolor="#d739e5ff"] ;
787 -> 788 ;
789 [label="Size <= 47.5\ngini = 0.49\nsamples = 9\nvalue = [0, 8, 0, 6]\nclass = Alto", fillcolor="#47e53940"] ;
787 -> 789 ;
790 [label="Size <= 46.5\ngini = 0.47\nsamples = 8\nvalue = [0, 8, 0, 5]\nclass = Alto", fillcolor="#47e53960"] ;
789 -> 790 ;
791 [label="gini = 0.0\nsamples = 1\nvalue = [0, 1, 0, 0]\nclass = Alto", fillcolor="#47e539ff"] ;
790 -> 791 ;
792 [label="gini = 0.49\nsamples = 7\nvalue = [0, 7, 0, 5]\nclass = Alto", fillcolor="#47e53949"] ;
790 -> 792 ;
793 [label="gini = 0.0\nsamples = 1\nvalue = [0, 0, 0, 1]\nclass = Baixo", fillcolor="#d739e5ff"] ;
789 -> 793 ;
794 [label="Size <= 46.5\ngini = 0.33\nsamples = 20\nvalue = [0, 27, 0, 7]\nclass = Alto", fillcolor="#47e539bd"] ;
786 -> 794 ;
795 [label="gini = 0.0\nsamples = 6\nvalue = [0, 8, 0, 0]\nclass = Alto", fillcolor="#47e539ff"] ;
794 -> 795 ;
796 [label="Rooms <= 2.5\ngini = 0.39\nsamples = 14\nvalue = [0, 19, 0, 7]\nclass = Alto", fillcolor="#47e539a1"] ;
794 -> 796 ;
797 [label="Size <= 47.5\ngini = 0.4\nsamples = 13\nvalue = [0, 18, 0, 7]\nclass = Alto", fillcolor="#47e5399c"] ;
796 -> 797 ;
798 [label="Condo <= 312.5\ngini = 0.38\nsamples = 7\nvalue = [0, 9, 0, 3]\nclass = Alto", fillcolor="#47e539aa"] ;
797 -> 798 ;
799 [label="gini = 0.0\nsamples = 4\nvalue = [0, 7, 0, 0]\nclass = Alto", fillcolor="#47e539ff"] ;
798 -> 799 ;
800 [label="Condo <= 337.5\ngini = 0.48\nsamples = 3\nvalue = [0, 2, 0, 3]\nclass = Baixo", fillcolor="#d739e555"] ;
798 -> 800 ;
801 [label="gini = 0.0\nsamples = 1\nvalue = [0, 0, 0, 2]\nclass = Baixo", fillcolor="#d739e5ff"] ;
800 -> 801 ;
802 [label="gini = 0.44\nsamples = 2\nvalue = [0, 2, 0, 1]\nclass = Alto", fillcolor="#47e5397f"] ;
800 -> 802 ;
803 [label="Condo <= 300.0\ngini = 0.43\nsamples = 6\nvalue = [0, 9, 0, 4]\nclass = Alto", fillcolor="#47e5398e"] ;
797 -> 803 ;
804 [label="gini = 0.0\nsamples = 1\nvalue = [0, 1, 0, 0]\nclass = Alto", fillcolor="#47e539ff"] ;
803 -> 804 ;
805 [label="Condo <= 335.0\ngini = 0.44\nsamples = 5\nvalue = [0, 8, 0, 4]\nclass = Alto", fillcolor="#47e5397f"] ;
803 -> 805 ;
806 [label="gini = 0.48\nsamples = 2\nvalue = [0, 3, 0, 2]\nclass = Alto", fillcolor="#47e53955"] ;
805 -> 806 ;
807 [label="gini = 0.41\nsamples = 3\nvalue = [0, 5, 0, 2]\nclass = Alto", fillcolor="#47e53999"] ;
805 -> 807 ;
808 [label="gini = 0.0\nsamples = 1\nvalue = [0, 1, 0, 0]\nclass = Alto", fillcolor="#47e539ff"] ;
796 -> 808 ;
809 [label="Condo <= 403.5\ngini = 0.32\nsamples = 19\nvalue = [0, 6, 0, 24]\nclass = Baixo", fillcolor="#d739e5bf"] ;
773 -> 809 ;
810 [label="Size <= 47.5\ngini = 0.43\nsamples = 11\nvalue = [0, 6, 0, 13]\nclass = Baixo", fillcolor="#d739e589"] ;
809 -> 810 ;
811 [label="gini = 0.0\nsamples = 5\nvalue = [0, 0, 0, 8]\nclass = Baixo", fillcolor="#d739e5ff"] ;
810 -> 811 ;
812 [label="Condo <= 396.0\ngini = 0.5\nsamples = 6\nvalue = [0, 6, 0, 5]\nclass = Alto", fillcolor="#47e5392a"] ;
810 -> 812 ;
813 [label="Condo <= 386.0\ngini = 0.47\nsamples = 4\nvalue = [0, 3, 0, 5]\nclass = Baixo", fillcolor="#d739e566"] ;
812 -> 813 ;
814 [label="gini = 0.49\nsamples = 3\nvalue = [0, 3, 0, 4]\nclass = Baixo", fillcolor="#d739e540"] ;
813 -> 814 ;
815 [label="gini = 0.0\nsamples = 1\nvalue = [0, 0, 0, 1]\nclass = Baixo", fillcolor="#d739e5ff"] ;
